0.3639480595650406,-0.10663056180774522,0.1287684053286815,0.8667675282195766,0.8201282902433304,-0.745629264017829,0.21308254734784637,0.07707104236400109,0.44369759242211626,0.3431622164215109,-0.873237316053205,-0.45867401146841136,-0.23596789611472424,-0.39425510062749836,0.8733379779544781,0.2096443929409313,0.9391258628797385,-0.6065447789013245,0.8334813764414504,-0.6497616610700787,-0.16716839704400965,0.4938623549748613,-0.0247045147143381,-0.4665340560495854,0.1611455926288996,-0.25040860363300066,0.6489002457685233,0.5745994923625923,-0.9506738564023647,-0.7911616864890407,0.28570490711009655,-0.3520823613606079,0.0345116640426002,-0.5131459823941402,0.6232656740916,0.6624034916082051,0.6154379698018815,0.7619992957992601,-0.9458107091568491,-0.4120227996480408,-0.5577581462517667,0.4576305590910372,-0.6530195683962359,-0.38803609404043904,-0.41746849816237197,-0.941675957367156,0.675315093543225,-0.8617291592582916,-0.8872404088609607,-0.432036320908574,-0.8336626375277485,-0.8504267444083247,-0.5948347635203985,-0.3130729591725021,-0.7528524410930544,0.5197273848044066,-0.772725455208781,-0.49262765262737185,0.5013454069606806,0.9266510108926267,-0.9363682981509878,-0.6035037140424371,-0.5523718187555047,0.3389226480314278,-0.4781926972257051,0.10176832570780814,0.7939765940479573,-0.43223811013992264,-0.687286216427019,0.415366432000259,-0.45512541845134247,-0.6069887939994967,0.889890465365698,0.39448834013271905,0.9722650152197261,-0.3935601152758659,0.5578219017721204,-0.74924980831623,0.6421453417481535,0.8928586508172094,-0.6028860458556813,0.8639993303101039,-0.09452886420287765,0.3322740557825561,-0.7752783564040502,-0.341701615305551,-0.4025207147219023,-0.8836347612388396,-0.4109456420972015,0.4887809605960205,-0.890743232278296,-0.4595659050367429,-0.08641544825554481,-0.19931327707733004,0.2571125945386452,-0.14892494275741197,-0.7407307634815892,0.4892363344639139,-0.7917170292215658,-0.7242691870935141,0.33249170945112616,-0.20723926743043353,0.028245423713326057,-0.885168954214345,-0.7136028956549654,-0.2099577756753075,0.08047536690526491,0.7112504111158926,-0.23948203453213512,0.6617137671810804,0.5387228713201693,-0.3416815199974932,0.6861691298954034,-0.2743184957723206,-0.70944016721678,0.3867062848629854,0.4727819812241154,0.41343025895359475,0.7571723493147571,0.5564141555515896,0.9216483653204259,0.7268909729173623,-0.14377392563575286,0.3558166085578294,0.4699711642070019,-0.2977404017386629,-0.37438951683870014,-0.7621237508644003,0.7677392596095332,0.5529425337744365,-0.09310545781277701,-0.5491050551286474,-0.44833843512712024,0.835483093031165,-0.9321357360437372,0.20702857727790525,0.6240271965051194,0.7329788264044266,-0.8791901036857965,-0.7532189352862284,0.30624534265014414,0.44165949893971024,0.43212366037718186,-0.05457982107998394,0.7127692723353405,-0.1166033886363631,0.7099604114661651,0.7674853348166746,-0.6574722651805789,-0.7611795620148092,0.35531231285713605,-0.031401188950875625,-0.8237178448904299,0.3369264038325037,-0.8556702237379818,-0.5730455046632479,-0.5728778210535808,-0.09453547524375727,0.6766411767472957,-0.15239892647197895,-0.6265153136528165,0.9611667358525986,-0.46825093913956883,0.6624691776321687,0.930615206408625,-0.02252219654975751,-0.7939860898326538,0.8965677042466085,-0.2829357359393807,-0.6772688981601565,-0.9736478408205884,0.7068867583870564,-0.5532099557162435,0.9729301603214646,0.5451665601623505,0.7980877048450392,0.3640605511178314,0.8452820940714272,-0.9908322418934081,-0.4262254811388615,-0.47747699603601523,-0.9559821927515675,-0.6738435246898018,0.2819222381602453,0.689446582430532,-0.23046210609718365,-0.25629964419023454,0.3291135682285362,-0.7381458961397493,0.48323533156957144,-0.8879156307860152,0.12412238630588357,-0.7538934674059306,-0.6225385760779605,0.9569233899962468,-0.14893461311337397,-0.41146642570110736,-0.12327473640230746,-0.1489787181559199,-0.5726059186585726,-0.8948246661153618,0.22999416375279091,-0.8687249033689071,0.418842652844192,-0.38387681295471987,0.47429031778157027,-0.7388852588054555,0.7405466473246685,-0.620483129852688,0.09738539860392192,0.3683071483899396,-0.7182659675790386,-0.11321537077578814,0.15037431785107547,0.09321840061527653,-0.43925469423580954,-0.6910732688988328,0.127756621619195,-0.7790779683342484,-0.4087819570976139,0.5859340400479092,-0.1930893678474328,-0.8939000021701988,-0.6537241869732149,0.7734071155803603,0.814642326351199,0.4597563329594776,0.5495974931831094,-0.23845840998530243,0.8656055020298081,-0.9889718073968972,-0.7140428567742629,0.6756745325902485,-0.7121292178992031,-0.6307611901619659,-0.009489547240167262,-0.4190532949231829,0.5903928922546633,-0.35359847104524467,-0.44867925473882386,-0.5346872335452657,0.380312159205898,0.8925675673315117,0.2358575303683259,0.804807757509985,0.12611851282487274,0.5800659233340839,0.6015324285154433,-0.029133070596705002,-0.6751796490064295,0.029156611120874976,-0.1835531258017158,-0.08116526164399573,0.26986593824453076,0.9696810376934792,-0.039336084999749055,-0.38969507307533435,-0.14518990774041174,-0.3042483225524739,0.36241440330435437,0.9319040781395542,0.9353567105459188,0.9694727247413479,0.536589218072969,-0.5860819190072746,0.7312565240715816,0.05354688480785397,-0.800019201052484,-0.29207557412100993,0.4904877974384372,0.9030502730514796,0.17896676281097634,0.49933221956884943,0.366522549268256,-0.016064579178957095,-0.14680539423676442,0.0836331866563691,0.9339114924980672,0.2910382216820193,0.17788194431126692,0.021212328370874722,0.609925333902783,0.7641008446537738,0.799170206395664,0.5210758955892214,0.970993946090029,-0.6222135412002145,-0.5251442473839387,0.2753008415910585,0.8001436747826447,-0.7554255836379693,0.6564235277123007,-0.6280663627852996,-0.4623401294540135,-0.7236139062909026,-0.792482402564207,0.4327331191447159,-0.8898429428593668,-0.5717315929525117,-0.8507460635195132,0.832087877381047,-0.09015874408458546,0.10457502255714557,0.9233987480854322,-0.3820973646718857,0.06378912826492411,0.550205110878982,-0.4814740152508541,0.19948409817606816,-0.36996093656782336,0.7933994257219157,0.9821003361050062,0.06251195417237754,0.21132960314277272,-0.5232623883038219,0.4136362289509796,0.5546483784964529,0.5157061463774764,-0.938537029694243,0.15262688160361582,-0.37277240121037813,0.7655959311320513,0.42494388653823356,-0.22817257582086303,0.2924872284207396,-0.33721756687300153,0.8778770387300492,0.7685556240770515,0.6671279290153656,0.03919087574265001,0.14855086135698015,0.8771672770495327,0.3849228616186626,0.8450283587110221,0.04028491609690499,-0.6299262094771783,0.5307646307741483,-0.3088482618079378,0.1483362237356185,0.0973704882756623,-0.9572615389944386,-0.45546789406833743,-0.38370851854053023,-0.1613259792821513,-0.06959456529717079,0.5147921437495835,-0.7728497039464264,0.33568634005577924,-0.9369212401230702,0.048733530486751775,-0.5047208483566996,-0.55904174306312,-0.4597512205486902,0.3072073402172222,-0.7574886771544218,-0.44572374707371387,-0.45159675783310105,-0.26563439335924466,-0.06380687976697974,-0.634453406962449,-0.8333486329279263,-0.9927349793771811,0.8055941498599049,0.743500090712615,-0.8730010749807398,0.31587965237708615,0.6804361646462196,0.6427994268664725,-0.704566029824943,0.17484308551199446,-0.48041084189763694,0.6659130733372065,-0.38927732753536004,-0.26560079517732293,0.5926408443086508,-0.9026508276149623,0.9127267515047099,-0.07533992213402452,0.7139872047039426,-0.1331345789165479,-0.3539556752726605,0.22998238847738617,0.9277125371234018,0.6030589120774115,-0.5019660966017123,-0.05766059957984293,0.011468191410466178,0.1977987222639146,-0.5486005975378274,-0.9920003805353692,-0.36140414754431527,-0.030794289640138084,-0.9736530351998576,-0.6046849462502442,-0.9594998688842691,-0.8154198707234497,0.3002994201093312,-0.7079721618158898,-0.8898634244410026,0.35382284278317,-0.24222280044075117,0.2286710170709334,0.5026786993908816,-0.468537720733601,0.04214803442433723,-0.5770603450531053,0.5017270259273463,0.2221515879010969,0.807590749975869,-0.7647281363677121,0.23496953015327726,0.644428763614801,-0.7788144205882668,-0.8965046541640542,-0.7649182098625442,-0.09998819231426559,0.5377177174731069,-0.07595210336019731,0.2334576701007025,-0.8410758260771263,0.5718358885970594,0.08525008280450996,0.14575548550196693,-0.9349634585553537,-0.5535363832734941,0.8594991997876176,-0.4283007516393349,-0.24672266123163666,-0.698928530415234,0.5453446328085929,0.7728962914972379,-0.4733941345837447,0.6120663763992731,-0.4428249262244248,0.5788124329439237
-0.8438878396736511,-0.8793879662781043,-0.6521692885291837,0.4369692683974129,0.2896761090234854,0.7276283949772242,-0.6313178853862862,-0.5860131313536678,-0.5485890320625549,0.15559273793473727,0.11040799095760212,-0.3167466164157381,0.9048521277720933,-0.4918731827484284,-0.7185005691379831,-0.6122551262047902,-0.47507419489129465,0.18586056281076324,-0.8364915809219038,-0.8720442038206839,-0.042260925288648554,-0.7879246139051943,0.4835879443659432,0.5084338181319428,-0.8439394164244651,-0.22487860540619908,-0.3908353842368635,-0.9244802417956899,-0.9583719123193376,-0.007528208378008605,-0.564453851726174,-0.863378323277742,-0.2624154208851688,-0.17638482340832773,-0.5492357546893702,0.8535267484776707,-0.4256415665893033,0.527309404196685,-0.28363054134404775,-0.16371571627848347,-0.04351164353425707,-0.9271030526085624,0.2008988013251236,-0.86658390749268,-0.10242760155872976,-0.518584403561329,0.23235994873864518,0.3720529132504684,-0.8993810976646474,-0.19398392957036403,-0.7111296070602673,-0.6137146280516055,-0.8289983250952855,-0.6947866918935999,-0.48695857221281236,-0.398389039609649,-0.6943409126034248,-0.3609024556738716,0.9026429640151707,0.883879309643661,-0.06963491203142147,-0.4027499057535684,-0.5353945383218244,0.7688998897527421,-0.4917887496050376,-0.25863678746217644,-0.8570595299830321,-0.932196937295945,0.8707291558462653,-0.1193757114647338,-0.6261412038753296,-0.3032895043852881,0.9397839059381738,-0.9633289299396588,0.906191497461865,0.3630246324660653,0.5208731418807988,-0.9831345137779683,-0.15199791547691854,-0.9013443976488968,-0.6346771096534269,-0.7576310003314497,0.6641196976446948,-0.4052608797239974,-0.19609998011040197,0.9226242794402015,0.49949369859341264,-0.23438032897629713,0.3206075183994901,-0.6207467711356034,0.20420703629752412,0.19125482092638157,-0.01633428195500919,-0.42042455823780966,-0.6658041264692642,-0.1235022157428558,0.792875429099619,0.6594296558281489,-0.18193296448066065,-0.9686461335500887,-0.7998626819904133,0.050252905610215226,-0.7471880796272994,-0.3937230372915279,0.43994088556099165,-0.9739325294391106,0.9423352726610346,-0.20820891163513788,0.1013287736629025,-0.45599246076457955,-0.7904520035905191,-0.640574036185686,-0.7105215586881322,-0.6433146664021081,-0.5564327330880288,-0.4317568122491251,-0.8388575747801252,-0.7150909063260602,-0.04227933417592156,-0.6385857412016898,0.3041867984350255,-0.6328831210734993,-0.959974485875999,-0.7384745594655497,0.84829180010664,-0.5669929867060728,-0.863312177189061,-0.787282326805187,-0.11673197414547509,-0.8775958785906286,0.731280396809842,0.11595336350596286,-0.048911703071310986,0.7308711391970648,0.038109311888289366
0.2797495449229981,0.5163091868005636,-0.6610219338241683,-0.6605024113502003,-0.3512341695148167,-0.48912788025830345,0.35376828960056517,-0.7281975477864125,-0.5508179923275252,-0.044203472056989046,-0.5214207426040425,-0.6707481281156031,-0.25107708875936785,-0.4561662533670745,0.34258324128064,-0.6577494074704462,-0.6295323611434009,0.11628230963507602,0.711290744121744,-0.658487377124841,0.9990937479766504,-0.3892907360094817,0.6876493860333142,-0.510303344056775,-0.28383592552346903,-0.6887272722158448,-0.004558501560191219
0.3639480595650406,-0.10663056180774522,0.1287684053286815,0.8667675282195766,0.8201282902433304,-0.745629264017829,0.21308254734784637,0.07707104236400109,0.44369759242211626,0.3431622164215109,-0.873237316053205,-0.45867401146841136,-0.23596789611472424,-0.39425510062749836,0.8733379779544781,0.2096443929409313,0.9391258628797385,-0.6065447789013245,0.09942251201599817,-0.6497616610700787,-0.16716839704400965,0.4938623549748613,0.6813433625507441,-0.4665340560495854,0.1611455926288996,-0.5595801308645434,-0.4351657789020935,0.5745994923625923,-0.9506738564023647,-0.7911616864890407,0.28570490711009655,-0.3520823613606079,0.0345116640426002,-0.5131459823941402,0.6232656740916,0.6624034916082051,0.6154379698018815,0.7619992957992601,-0.9702933608119484,-0.4120227996480408,-0.5577581462517667,0.4576305590910372,-0.6530195683962359,-0.38803609404043904,-0.41746849816237197,-0.704050243032567,0.675315093543225,-0.8617291592582916,-0.8872404088609607,-0.432036320908574,-0.8336626375277485,-0.8504267444083247,-0.6321949408465661,-0.3130729591725021,0.7876855829212503,0.5197273848044066,-0.772725455208781,-0.49262765262737185,0.5013454069606806,0.9266510108926267,-0.9363682981509878,-0.6035037140424371,0.5610824247176616,-0.2804773546062074,-0.4781926972257051,-0.5708816417267186,0.06309887543415726,-0.43223811013992264,-0.687286216427019,0.7287415293525485,-0.45512541845134247,-0.6069887939994967,0.7505090448442389,0.39448834013271905,0.9722650152197261,-0.3935601152758659,0.5578219017721204,0.7874248705809983,-0.39844129046884547,0.8928586508172094,-0.6028860458556813,0.8639993303101039,-0.09452886420287765,0.3322740557825561,0.013092292158388918,-0.341701615305551,-0.7777957763505876,-0.8836347612388396,-0.4109456420972015,-0.7357169183925756,-0.890743232278296,-0.4595659050367429,-0.08641544825554481,-0.567420701302159,0.2571125945386452,0.7672595018945534,-0.7407307634815892,0.4892363344639139,-0.7917170292215658,-0.7242691870935141,0.33249170945112616,-0.20723926743043353,0.028245423713326057,-0.885168954214345,-0.7136028956549654,-0.2099577756753075,0.08047536690526491,0.8526018650467941,-0.23948203453213512,-0.9684705146898562,0.5387228713201693,-0.3416815199974932,0.6861691298954034,-0.2743184957723206,-0.70944016721678,0.3867062848629854,0.4727819812241154,0.41343025895359475,0.7571723493147571,0.7863507962869958,0.9216483653204259,0.7268909729173623,-0.14377392563575286,0.3558166085578294,0.4699711642070019,-0.2977404017386629,-0.37438951683870014,-0.7621237508644003,0.7677392596095332,0.5529425337744365,-0.09310545781277701,-0.5491050551286474,-0.44833843512712024,0.835483093031165,-0.9321357360437372,0.20702857727790525,0.6240271965051194,0.7329788264044266,-0.8791901036857965,-0.7532189352862284,0.30624534265014414,0.44165949893971024,0.43212366037718186,-0.05457982107998394,0.7127692723353405,-0.1166033886363631,0.7099604114661651,0.7674853348166746,-0.6484327118047386,-0.7611795620148092,0.35531231285713605,-0.031401188950875625,0.7518509904069923,0.3369264038325037,-0.8556702237379818,-0.5730455046632479,-0.5728778210535808,-0.7122271257726924,0.6766411767472957,-0.15239892647197895,-0.6265153136528165,0.9611667358525986,-0.46825093913956883,0.6624691776321687,0.930615206408625,-0.02252219654975751,-0.7939860898326538,0.8965677042466085,-0.2829357359393807,-0.6772688981601565,-0.9736478408205884,0.7068867583870564,-0.5532099557162435,0.9729301603214646,0.9279011801753598,0.7980877048450392,0.3640605511178314,0.8452820940714272,-0.9908322418934081,-0.4262254811388615,-0.47747699603601523,0.16907746672979873,-0.6738435246898018,0.2819222381602453,0.689446582430532,-0.23046210609718365,-0.25629964419023454,0.3291135682285362,-0.7381458961397493,0.48323533156957144,-0.8879156307860152,0.12412238630588357,-0.1067871786246255,-0.4496832890715332,-0.3008816851462137,-0.14893461311337397,-0.41146642570110736,-0.12327473640230746,-0.7065090393157176,-0.5726059186585726,-0.9590703721750586,0.22999416375279091,-0.8687249033689071,0.418842652844192,-0.38387681295471987,0.47429031778157027,-0.7388852588054555,0.7405466473246685,-0.3540011820940052,0.09738539860392192,0.3683071483899396,-0.7182659675790386,-0.11321537077578814,-0.24487170216414555,0.09321840061527653,-0.43925469423580954,-0.6910732688988328,0.127756621619195,-0.7192874835701535,-0.4087819570976139,0.5859340400479092,-0.1930893678474328,-0.8939000021701988,-0.6537241869732149,0.7734071155803603,0.814642326351199,0.75351319492506,0.5495974931831094,-0.23845840998530243,0.2300365144991232,-0.9889718073968972,-0.7140428567742629,0.6756745325902485,-0.7121292178992031,-0.6307611901619659,-0.009489547240167262,-0.4190532949231829,0.5903928922546633,-0.35359847104524467,-0.44867925473882386,-0.5346872335452657,0.380312159205898,0.8925675673315117,0.2358575303683259,0.804807757509985,0.12611851282487274,0.5800659233340839,0.6015324285154433,-0.1380259896646847,-0.6751796490064295,0.3729136202958956,-0.1835531258017158,-0.08116526164399573,0.26986593824453076,0.9696810376934792,-0.039336084999749055,-0.8680425577282889,-0.14518990774041174,-0.3042483225524739,0.36241440330435437,0.9319040781395542,0.9353567105459188,0.9694727247413479,0.536589218072969,-0.5860819190072746,0.7312565240715816,0.05354688480785397,-0.800019201052484,-0.29207557412100993,0.4904877974384372,0.9030502730514796,0.17896676281097634,0.49933221956884943,0.366522549268256,-0.016064579178957095,0.55348199620357,0.0836331866563691,0.9339114924980672,0.2910382216820193,0.17788194431126692,0.021212328370874722,0.609925333902783,0.7641008446537738,0.799170206395664,-0.5619135124534989,0.7245407571633229,-0.6222135412002145,-0.5251442473839387,0.2753008415910585,0.8001436747826447,-0.7554255836379693,0.6564235277123007,-0.6280663627852996,0.8252019528602534,-0.7236139062909026,0.28372030390942116,0.7629058131591144,-0.8898429428593668,-0.5717315929525117,-0.8507460635195132,0.832087877381047,-0.09015874408458546,0.10457502255714557,0.9233987480854322,-0.3820973646718857,0.06378912826492411,0.550205110878982,-0.4814740152508541,0.19948409817606816,-0.7121453489382856,0.7933994257219157,0.6862153090653569,0.06251195417237754,0.21132960314277272,-0.5232623883038219,0.4136362289509796,-0.5383025265739152,0.5157061463774764,-0.938537029694243,0.15262688160361582,-0.09889928800874759,0.4340136244316646,0.42494388653823356,-0.22817257582086303,0.2924872284207396,-0.33721756687300153,0.8778770387300492,0.7685556240770515,0.6671279290153656,0.03919087574265001,0.14855086135698015,0.8771672770495327,0.3849228616186626,0.8450283587110221,0.04028491609690499,-0.6299262094771783,0.5307646307741483,0.0028304748601193364,0.5794646405393578,0.0973704882756623,0.272521353036163,-0.45546789406833743,-0.38370851854053023,-0.1613259792821513,-0.06959456529717079,0.5147921437495835,-0.7728497039464264,0.33568634005577924,-0.9369212401230702,0.048733530486751775,-0.5047208483566996,0.5150699827055254,-0.0694038505259078,0.3072073402172222,-0.7574886771544218,-0.44572374707371387,-0.45159675783310105,-0.978417794267064,-0.31598792697654865,-0.634453406962449,-0.8333486329279263,-0.9927349793771811,0.8055941498599049,0.743500090712615,-0.8730010749807398,0.31587965237708615,0.6804361646462196,0.6427994268664725,-0.704566029824943,0.17484308551199446,-0.48041084189763694,0.6659130733372065,-0.38927732753536004,-0.26560079517732293,0.5926408443086508,-0.9026508276149623,0.9127267515047099,-0.07533992213402452,0.7139872047039426,-0.1331345789165479,-0.3539556752726605,0.22998238847738617,0.9277125371234018,0.6030589120774115,-0.5019660966017123,-0.05766059957984293,-0.3352562874605156,0.1977987222639146,-0.5486005975378274,-0.9920003805353692,-0.36140414754431527,-0.030794289640138084,-0.9736530351998576,0.4857758302552253,-0.9594998688842691,-0.8154198707234497,0.3002994201093312,-0.7079721618158898,-0.8898634244410026,0.35382284278317,-0.24222280044075117,0.2286710170709334,0.5026786993908816,0.2224771223169837,0.04214803442433723,-0.5770603450531053,0.5017270259273463,0.2221515879010969,0.807590749975869,-0.7647281363677121,0.24308465630532727,0.644428763614801,-0.7788144205882668,-0.8965046541640542,-0.7649182098625442,-0.09998819231426559,0.5377177174731069,-0.11639156228063441,0.2334576701007025,-0.1608927798130968,0.5718358885970594,0.08525008280450996,0.14575548550196693,-0.9349634585553537,-0.5535363832734941,0.8594991997876176,-0.4283007516393349,-0.24672266123163666,0.725251957854887,0.5453446328085929,0.7728962914972379,-0.4733941345837447,0.6120663763992731,-0.4428249262244248,0.5788124329439237
-0.8438878396736511,-0.8793879662781043,-0.6521692885291837,0.4369692683974129,0.4063075828642573,0.7276283949772242,-0.6313178853862862,-0.5860131313536678,-0.5485890320625549,0.15559273793473727,0.11040799095760212,-0.3167466164157381,0.9048521277720933,-0.4918731827484284,-0.7185005691379831,-0.6122551262047902,-0.47507419489129465,0.18586056281076324,-0.20030689011646952,-0.8720442038206839,-0.042260925288648554,-0.7879246139051943,0.4835879443659432,0.5084338181319428,-0.8439394164244651,-0.22487860540619908,-0.3908353842368635,-0.9244802417956899,-0.9583719123193376,-0.007528208378008605,-0.564453851726174,-0.863378323277742,-0.2624154208851688,-0.17638482340832773,-0.5492357546893702,0.8535267484776707,-0.4256415665893033,0.527309404196685,-0.28363054134404775,-0.16371571627848347,-0.04351164353425707,-0.9271030526085624,0.2008988013251236,-0.86658390749268,-0.10242760155872976,-0.518584403561329,0.23235994873864518,0.44028750611602385,-0.8993810976646474,-0.19398392957036403,-0.7111296070602673,-0.6137146280516055,-0.8289983250952855,-0.6947866918935999,-0.48695857221281236,-0.33287341103295587,-0.6943409126034248,-0.3609024556738716,-0.5885824141011544,0.883879309643661,-0.06963491203142147,-0.4027499057535684,-0.5353945383218244,0.7688998897527421,-0.4917887496050376,-0.25863678746217644,-0.8570595299830321,-0.932196937295945,0.8707291558462653,-0.1193757114647338,-0.4757881381149609,-0.3032895043852881,0.9397839059381738,-0.9633289299396588,0.906191497461865,0.3630246324660653,0.5208731418807988,-0.9831345137779683,-0.15199791547691854,-0.9013443976488968,-0.6346771096534269,-0.7576310003314497,0.6641196976446948,-0.4052608797239974,-0.19609998011040197,0.9226242794402015,0.49949369859341264,-0.23438032897629713,0.3206075183994901,-0.6207467711356034,0.20420703629752412,0.19125482092638157,-0.01633428195500919,-0.42042455823780966,-0.6658041264692642,-0.1235022157428558,-0.24085418308376183,0.6594296558281489,-0.0001576503141356156,-0.9686461335500887,0.5012397460045899,0.050252905610215226,-0.7471880796272994,-0.3937230372915279,0.43994088556099165,-0.9739325294391106,0.9423352726610346,-0.20820891163513788,0.1013287736629025,-0.45599246076457955,-0.7904520035905191,-0.640574036185686,-0.7105215586881322,-0.6433146664021081,-0.5564327330880288,-0.4317568122491251,-0.8388575747801252,-0.7150909063260602,-0.04227933417592156,-0.6385857412016898,0.3041867984350255,-0.6328831210734993,-0.959974485875999,-0.7384745594655497,0.6560805989790197,-0.5669929867060728,-0.863312177189061,-0.13319010435888157,-0.11673197414547509,-0.8775958785906286,0.731280396809842,0.11595336350596286,-0.048911703071310986,0.7308711391970648,0.038109311888289366
0.2797495449229981,0.5163091868005636,-0.6610219338241683,-0.16888765418399931,-0.40825000646016885,-0.48912788025830345,0.30089669104602734,-0.7281975477864125,-0.5508179923275252,-0.044203472056989046,-0.5214207426040425,0.4948636762063938,-0.25107708875936785,-0.4561662533670745,0.12298510745211466,-0.589276662773401,-0.6295323611434009,0.11628230963507602,0.711290744121744,-0.658487377124841,0.9990937479766504,-0.3892907360094817,0.6876493860333142,-0.510303344056775,-0.6672379130237038,-0.6887272722158448,-0.004558501560191219
0.3639480595650406,-0.10663056180774522,0.1287684053286815,-0.38999048590429974,0.8201282902433304,-0.745629264017829,0.21308254734784637,0.07707104236400109,0.44369759242211626,0.3431622164215109,-0.873237316053205,-0.45867401146841136,-0.23596789611472424,-0.917749641752228,0.8733379779544781,0.2096443929409313,0.9391258628797385,-0.6065447789013245,-0.9818486842560865,-0.6497616610700787,-0.16716839704400965,0.4938623549748613,-0.31366208984292476,-0.46968507742249077,0.1611455926288996,-0.25040860363300066,0.6489002457685233,0.5745994923625923,-0.9506738564023647,-0.7911616864890407,0.28570490711009655,-0.3649923786155336,0.0345116640426002,-0.5131459823941402,0.6232656740916,0.6624034916082051,0.6154379698018815,0.7619992957992601,-0.9458107091568491,-0.4120227996480408,-0.5577581462517667,0.4576305590910372,-0.2385951383912508,-0.38803609404043904,-0.41746849816237197,-0.941675957367156,0.675315093543225,-0.8617291592582916,-0.8872404088609607,-0.023704017921662546,0.9575373856381262,-0.8504267444083247,-0.6321949408465661,-0.3130729591725021,-0.7528524410930544,0.8404978360462669,-0.772725455208781,-0.49262765262737185,0.5013454069606806,0.9266510108926267,-0.5959763593860579,-0.6035037140424371,-0.5523718187555047,0.3389226480314278,-0.4781926972257051,-0.5708816417267186,0.06309887543415726,0.2946970297776381,-0.687286216427019,0.415366432000259,-0.45512541845134247,-0.8758675564508318,0.889890465365698,0.39448834013271905,0.5993308936102597,-0.3935601152758659,0.5578219017721204,-0.74924980831623,-0.39844129046884547,0.8928586508172094,-0.6028860458556813,0.8639993303101039,-0.09452886420287765,0.3322740557825561,-0.7752783564040502,-0.341701615305551,-0.7777957763505876,-0.8836347612388396,-0.4109456420972015,0.5602768587898952,-0.890743232278296,-0.5266074797513085,-0.08641544825554481,0.8882858465362058,0.9940286223016488,-0.14892494275741197,-0.7407307634815892,0.4892363344639139,-0.7917170292215658,-0.7242691870935141,0.33249170945112616,-0.20723926743043353,0.028245423713326057,-0.885168954214345,-0.7136028956549654,-0.2099577756753075,0.08047536690526491,0.7112504111158926,-0.23948203453213512,0.6617137671810804,0.5387228713201693,-0.3416815199974932,0.6861691298954034,-0.2743184957723206,-0.70944016721678,0.3867062848629854,0.4727819812241154,0.41343025895359475,0.7571723493147571,0.5564141555515896,0.9216483653204259,0.5774862947808848,-0.14377392563575286,0.3558166085578294,0.4699711642070019,-0.2977404017386629,0.717258867678259,-0.7621237508644003,0.7677392596095332,0.5529425337744365,0.768668070941438,-0.5491050551286474,-0.44833843512712024,0.835483093031165,-0.9321357360437372,0.20702857727790525,0.6240271965051194,0.10282447841989661,-0.8791901036857965,-0.7532189352862284,0.30624534265014414,0.44165949893971024,0.43212366037718186,-0.05457982107998394,0.7127692723353405,-0.1166033886363631,0.7099604114661651,0.7674853348166746,-0.6574722651805789,-0.7611795620148092,0.35531231285713605,-0.031401188950875625,-0.8237178448904299,0.3369264038325037,-0.8556702237379818,-0.5730455046632479,-0.5728778210535808,-0.09453547524375727,0.6766411767472957,-0.15239892647197895,-0.6265153136528165,0.9611667358525986,-0.46825093913956883,0.6624691776321687,0.930615206408625,-0.02252219654975751,-0.7939860898326538,0.8965677042466085,-0.2829357359393807,-0.6772688981601565,-0.9736478408205884,0.7068867583870564,-0.5532099557162435,0.9729301603214646,0.5451665601623505,0.7980877048450392,0.3640605511178314,0.8452820940714272,-0.9908322418934081,-0.4262254811388615,-0.47747699603601523,-0.9559821927515675,-0.9517611341506771,0.2819222381602453,0.991456479070554,-0.23046210609718365,-0.19292742659469142,0.3291135682285362,-0.7381458961397493,0.48323533156957144,-0.8879156307860152,0.12412238630588357,-0.7538934674059306,-0.6225385760779605,0.9569233899962468,-0.14893461311337397,0.5875889867647448,-0.12327473640230746,-0.45019980941503857,-0.5726059186585726,-0.46551136831814954,0.22999416375279091,-0.8687249033689071,0.418842652844192,-0.38387681295471987,-0.17911718451766312,-0.7388852588054555,0.7405466473246685,-0.620483129852688,0.09738539860392192,0.3683071483899396,-0.7182659675790386,-0.11321537077578814,0.15037431785107547,0.09321840061527653,-0.43925469423580954,-0.6910732688988328,0.127756621619195,0.8106540515482832,-0.4087819570976139,0.5859340400479092,-0.1930893678474328,-0.8939000021701988,-0.6537241869732149,0.7734071155803603,0.814642326351199,0.4597563329594776,0.5495974931831094,-0.23845840998530243,0.8656055020298081,-0.9889718073968972,-0.7140428567742629,0.6756745325902485,-0.7121292178992031,-0.6287449684795019,-0.42074744988328905,-0.4190532949231829,0.5903928922546633,-0.35359847104524467,0.9963779463663698,-0.5346872335452657,0.380312159205898,0.8925675673315117,0.2358575303683259,0.804807757509985,0.12611851282487274,0.5800659233340839,0.6015324285154433,-0.029133070596705002,-0.6751796490064295,0.029156611120874976,-0.1835531258017158,-0.08116526164399573,0.26986593824453076,0.9696810376934792,-0.039336084999749055,-0.8680425577282889,-0.14518990774041174,-0.3042483225524739,0.36241440330435437,0.9319040781395542,0.9353567105459188,0.9694727247413479,0.536589218072969,-0.5860819190072746,0.7312565240715816,0.05354688480785397,-0.800019201052484,-0.7409316690911061,0.4904877974384372,0.9030502730514796,0.17896676281097634,0.49933221956884943,0.28366361793275185,-0.016064579178957095,0.55348199620357,0.0836331866563691,-0.5031430330082391,0.2910382216820193,0.17788194431126692,0.021212328370874722,-0.7181035745247395,0.7641008446537738,0.799170206395664,-0.5619135124534989,0.970993946090029,-0.6222135412002145,-0.5251442473839387,0.2753008415910585,0.8001436747826447,-0.7554255836379693,0.6564235277123007,-0.6280663627852996,-0.4623401294540135,-0.7236139062909026,-0.792482402564207,0.4327331191447159,-0.3706442482262913,-0.5717315929525117,-0.8507460635195132,0.832087877381047,-0.09015874408458546,0.10457502255714557,0.9233987480854322,-0.3820973646718857,0.06378912826492411,0.550205110878982,-0.4814740152508541,0.19948409817606816,-0.36996093656782336,0.7933994257219157,0.6862153090653569,0.06251195417237754,0.21132960314277272,-0.5232623883038219,0.4136362289509796,-0.5383025265739152,0.5157061463774764,-0.938537029694243,0.15262688160361582,-0.37277240121037813,0.7655959311320513,0.42494388653823356,-0.22817257582086303,0.2924872284207396,-0.33721756687300153,0.8778770387300492,0.7685556240770515,0.6671279290153656,0.03919087574265001,0.14855086135698015,0.8771672770495327,-0.3375241736244763,0.8450283587110221,0.04028491609690499,-0.6299262094771783,0.5307646307741483,0.0028304748601193364,0.1483362237356185,0.0973704882756623,0.272521353036163,-0.45546789406833743,-0.38370851854053023,-0.1613259792821513,-0.06959456529717079,0.5147921437495835,-0.7728497039464264,0.33568634005577924,-0.9369212401230702,0.048733530486751775,-0.5047208483566996,-0.55904174306312,-0.0694038505259078,0.3072073402172222,-0.3260598429343693,-0.44572374707371387,-0.45159675783310105,-0.26563439335924466,0.631620464421337,-0.634453406962449,0.3977183833723108,-0.9927349793771811,-0.6651199898649951,0.743500090712615,-0.8730010749807398,0.31587965237708615,0.6804361646462196,0.6427994268664725,-0.704566029824943,0.17484308551199446,-0.48041084189763694,0.6659130733372065,-0.38927732753536004,0.28805042073968035,0.5926408443086508,-0.7370237761594447,0.9127267515047099,-0.07533992213402452,0.7139872047039426,-0.1331345789165479,-0.3539556752726605,-0.205690229756613,0.9277125371234018,0.6030589120774115,-0.5019660966017123,-0.05766059957984293,0.6342082833727738,0.1977987222639146,-0.5486005975378274,-0.9920003805353692,-0.36140414754431527,-0.030794289640138084,-0.9736530351998576,-0.6046849462502442,-0.9594998688842691,-0.8154198707234497,-0.09676547530654434,-0.7079721618158898,-0.8898634244410026,0.35382284278317,-0.24222280044075117,0.2286710170709334,0.5026786993908816,-0.468537720733601,0.04214803442433723,-0.5770603450531053,0.5017270259273463,0.2221515879010969,0.807590749975869,-0.7647281363677121,0.24308465630532727,0.644428763614801,-0.7788144205882668,-0.8965046541640542,-0.7649182098625442,-0.29035927429442987,0.5377177174731069,-0.11639156228063441,0.2334576701007025,-0.8410758260771263,0.5718358885970594,0.08525008280450996,0.14575548550196693,-0.9349634585553537,-0.5535363832734941,0.8594991997876176,-0.31832379597178373,-0.5403348212834316,-0.18825200411841103,0.5453446328085929,0.7728962914972379,-0.4733941345837447,0.6120663763992731,0.10584988459266143,0.5788124329439237
-0.8438878396736511,-0.8793879662781043,-0.6521692885291837,0.4369692683974129,0.2896761090234854,0.7276283949772242,-0.6313178853862862,-0.5860131313536678,-0.5485890320625549,0.15559273793473727,0.11040799095760212,-0.3167466164157381,0.9048521277720933,-0.4918731827484284,-0.7185005691379831,-0.6122551262047902,-0.47507419489129465,0.18586056281076324,-0.8364915809219038,-0.8720442038206839,-0.042260925288648554,-0.7879246139051943,0.4835879443659432,0.5084338181319428,-0.8439394164244651,-0.22487860540619908,-0.5474274333950484,-0.9244802417956899,-0.9583719123193376,0.5243063685842175,-0.564453851726174,-0.863378323277742,-0.2624154208851688,-0.17638482340832773,-0.5492357546893702,0.8535267484776707,-0.4256415665893033,0.527309404196685,-0.28363054134404775,-0.16371571627848347,-0.04351164353425707,-0.9271030526085624,0.2008988013251236,-0.86658390749268,-0.10242760155872976,-0.518584403561329,0.23235994873864518,0.44028750611602385,-0.8993810976646474,-0.7520590831233911,-0.7111296070602673,-0.6542000355691049,-0.8289983250952855,-0.6947866918935999,-0.48695857221281236,-0.33287341103295587,-0.6943409126034248,-0.3609024556738716,-0.5885824141011544,-0.7873805641539817,-0.06963491203142147,-0.4027499057535684,-0.3332695955872531,0.7688998897527421,-0.4917887496050376,-0.25863678746217644,-0.8570595299830321,-0.932196937295945,0.8707291558462653,-0.1193757114647338,-0.6261412038753296,-0.3032895043852881,0.9397839059381738,-0.9633289299396588,0.906191497461865,0.3630246324660653,0.5208731418807988,-0.9831345137779683,-0.15199791547691854,-0.9013443976488968,-0.6346771096534269,-0.7576310003314497,0.6641196976446948,-0.4052608797239974,-0.19609998011040197,0.9226242794402015,0.49949369859341264,-0.3558059990855207,0.3206075183994901,-0.6207467711356034,0.20420703629752412,0.19125482092638157,-0.01633428195500919,-0.12555614307979224,-0.6658041264692642,-0.1235022157428558,0.792875429099619,0.6594296558281489,-0.18193296448066065,-0.9686461335500887,-0.7998626819904133,0.050252905610215226,-0.7471880796272994,-0.3937230372915279,0.43994088556099165,-0.11578178526056004,-0.6355056503923888,-0.20820891163513788,0.1013287736629025,-0.45599246076457955,-0.7904520035905191,-0.640574036185686,-0.7105215586881322,-0.6433146664021081,-0.5564327330880288,-0.4317568122491251,-0.8388575747801252,-0.7150909063260602,-0.04227933417592156,-0.6385857412016898,0.3041867984350255,-0.6328831210734993,-0.959974485875999,-0.7384745594655497,0.84829180010664,-0.5044630833608295,-0.863312177189061,-0.787282326805187,-0.11673197414547509,-0.8775958785906286,0.731280396809842,0.11595336350596286,-0.048911703071310986,0.7308711391970648,0.3968867276852621
-0.5145247546559777,0.5163091868005636,-0.6610219338241683,-0.6605024113502003,-0.3512341695148167,-0.0958556513441502,0.30089669104602734,-0.7281975477864125,-0.5508179923275252,-0.044203472056989046,-0.5214207426040425,-0.6707481281156031,-0.3710712254541213,-0.4561662533670745,0.34258324128064,-0.6577494074704462,-0.6295323611434009,0.11628230963507602,0.9726255376639437,-0.658487377124841,0.9990937479766504,-0.3892907360094817,0.6876493860333142,-0.510303344056775,-0.28383592552346903,-0.8295827752850298,-0.004558501560191219
-0.30096721424397344,-0.10663056180774522,0.1287684053286815,0.8667675282195766,0.8201282902433304,-0.745629264017829,0.21308254734784637,0.07707104236400109,0.44369759242211626,0.3431622164215109,-0.873237316053205,-0.45867401146841136,-0.23596789611472424,-0.39425510062749836,0.8733379779544781,0.2096443929409313,0.5786022003097486,-0.6065447789013245,0.8334813764414504,-0.6497616610700787,-0.16716839704400965,0.4938623549748613,0.6813433625507441,-0.4665340560495854,0.1611455926288996,-0.25040860363300066,-0.4351657789020935,0.5745994923625923,-0.9506738564023647,-0.7911616864890407,0.28570490711009655,-0.3520823613606079,0.0345116640426002,-0.5131459823941402,0.6232656740916,0.6624034916082051,0.6154379698018815,0.7619992957992601,-0.9458107091568491,-0.4120227996480408,-0.5577581462517667,0.4576305590910372,-0.6530195683962359,-0.38803609404043904,-0.5544515441891367,-0.704050243032567,0.675315093543225,-0.8617291592582916,-0.8872404088609607,-0.023704017921662546,0.9575373856381262,-0.8504267444083247,-0.6321949408465661,-0.3130729591725021,0.7876855829212503,0.5197273848044066,-0.772725455208781,-0.49262765262737185,0.5013454069606806,0.9266510108926267,-0.9363682981509878,-0.6035037140424371,-0.5523718187555047,0.3389226480314278,-0.4781926972257051,-0.5708816417267186,0.7939765940479573,0.2946970297776381,-0.687286216427019,0.415366432000259,-0.45512541845134247,-0.6069887939994967,0.7505090448442389,0.39448834013271905,0.9722650152197261,-0.3935601152758659,0.5578219017721204,0.7874248705809983,-0.39844129046884547,-0.25944681756264387,-0.6028860458556813,0.8639993303101039,-0.09452886420287765,0.3322740557825561,-0.7752783564040502,-0.341701615305551,-0.4025207147219023,-0.8836347612388396,-0.4109456420972015,-0.7357169183925756,-0.8665066373667594,-0.4595659050367429,-0.08641544825554481,-0.19931327707733004,0.2571125945386452,-0.14892494275741197,-0.7407307634815892,0.4892363344639139,-0.7917170292215658,-0.7242691870935141,0.33249170945112616,-0.6705572129663495,0.028245423713326057,-0.885168954214345,-0.7136028956549654,-0.2099577756753075,0.08047536690526491,0.7112504111158926,-0.23948203453213512,-0.9684705146898562,0.5387228713201693,-0.3416815199974932,0.6861691298954034,-0.2743184957723206,-0.70944016721678,0.3867062848629854,0.4727819812241154,0.41343025895359475,0.7571723493147571,0.7863507962869958,0.9216483653204259,0.7268909729173623,-0.14377392563575286,0.3558166085578294,0.4699711642070019,0.9990166098395126,-0.37438951683870014,-0.7621237508644003,0.7677392596095332,0.5529425337744365,-0.09310545781277701,-0.5491050551286474,-0.44833843512712024,0.835483093031165,-0.9321357360437372,0.20702857727790525,0.6240271965051194,0.7329788264044266,-0.8791901036857965,-0.7532189352862284,0.30624534265014414,0.44165949893971024,-0.14558226676135355,-0.05457982107998394,0.7127692723353405,-0.1166033886363631,0.7099604114661651,0.7674853348166746,-0.6574722651805789,-0.7611795620148092,0.35531231285713605,-0.031401188950875625,0.1264796657162568,0.3369264038325037,-0.49224584013442874,-0.5730455046632479,-0.39018931916540334,-0.09453547524375727,0.6766411767472957,-0.15239892647197895,-0.6265153136528165,0.9611667358525986,-0.46825093913956883,0.6624691776321687,0.930615206408625,-0.02252219654975751,-0.7939860898326538,0.8965677042466085,-0.2829357359393807,-0.6772688981601565,-0.9736478408205884,0.7068867583870564,-0.5532099557162435,0.9729301603214646,0.9279011801753598,0.7980877048450392,0.3640605511178314,0.8452820940714272,-0.9908322418934081,-0.47387912211898864,-0.47747699603601523,-0.9559821927515675,-0.9517611341506771,0.2819222381602453,0.689446582430532,-0.23046210609718365,0.9705637499950699,0.3291135682285362,-0.7381458961397493,0.48323533156957144,-0.8879156307860152,0.1979422775630273,-0.7538934674059306,-0.6225385760779605,-0.3008816851462137,-0.14893461311337397,-0.41146642570110736,-0.47161243692110855,-0.45019980941503857,-0.5726059186585726,-0.8948246661153618,0.22999416375279091,0.011097382807832012,0.418842652844192,-0.38387681295471987,0.47429031778157027,-0.7388852588054555,0.7405466473246685,-0.3540011820940052,0.09738539860392192,0.3683071483899396,-0.7182659675790386,-0.11321537077578814,-0.24487170216414555,0.09321840061527653,-0.43925469423580954,-0.6910732688988328,0.127756621619195,0.8106540515482832,-0.4087819570976139,0.5859340400479092,-0.1930893678474328,-0.8939000021701988,-0.6537241869732149,0.7734071155803603,0.814642326351199,0.4597563329594776,-0.3844499085570956,-0.23845840998530243,0.8656055020298081,-0.9889718073968972,-0.7140428567742629,0.6756745325902485,-0.7121292178992031,-0.6307611901619659,-0.42074744988328905,-0.4190532949231829,0.5903928922546633,0.5950439821712892,-0.44867925473882386,-0.5346872335452657,0.380312159205898,0.8925675673315117,0.2358575303683259,0.804807757509985,0.12611851282487274,0.5800659233340839,0.6015324285154433,-0.029133070596705002,-0.6751796490064295,0.029156611120874976,-0.1835531258017158,-0.08116526164399573,0.26986593824453076,0.9696810376934792,-0.039336084999749055,-0.38969507307533435,-0.14518990774041174,-0.3042483225524739,0.36241440330435437,0.9319040781395542,0.9353567105459188,0.9694727247413479,0.536589218072969,-0.5860819190072746,0.7312565240715816,0.05354688480785397,0.5073768560162808,-0.29207557412100993,0.39452440111883735,0.9030502730514796,0.17896676281097634,0.49933221956884943,0.366522549268256,-0.016064579178957095,-0.7458580514500606,0.0836331866563691,-0.5031430330082391,0.2910382216820193,0.17788194431126692,0.021212328370874722,-0.7181035745247395,0.7641008446537738,0.799170206395664,-0.5619135124534989,0.7245407571633229,-0.6222135412002145,-0.5251442473839387,0.2753008415910585,0.8001436747826447,-0.7554255836379693,0.6564235277123007,0.351485118995702,-0.4623401294540135,-0.7236139062909026,-0.792482402564207,0.7629058131591144,-0.8898429428593668,-0.5717315929525117,-0.8507460635195132,0.832087877381047,-0.09015874408458546,0.10457502255714557,-0.3395744737859039,-0.3820973646718857,0.06378912826492411,0.550205110878982,-0.4814740152508541,0.19948409817606816,-0.4901902697275846,0.7933994257219157,0.6862153090653569,0.06251195417237754,0.21132960314277272,-0.5232623883038219,0.4136362289509796,-0.5383025265739152,0.5157061463774764,-0.938537029694243,0.15262688160361582,-0.37277240121037813,0.9575173357099114,0.42494388653823356,-0.22817257582086303,0.2924872284207396,-0.33721756687300153,0.22230256200818355,0.7685556240770515,0.6671279290153656,0.03919087574265001,0.9058506460900217,0.8771672770495327,0.3849228616186626,-0.1322894758589963,0.04028491609690499,-0.6299262094771783,0.5307646307741483,-0.3088482618079378,0.1483362237356185,0.0973704882756623,-0.9572615389944386,-0.45546789406833743,-0.38370851854053023,-0.1613259792821513,-0.06959456529717079,0.5147921437495835,-0.7728497039464264,0.33568634005577924,-0.9369212401230702,0.048733530486751775,-0.5047208483566996,-0.55904174306312,-0.0694038505259078,0.3072073402172222,-0.7574886771544218,-0.44572374707371387,-0.45159675783310105,-0.978417794267064,-0.31598792697654865,0.9057196972473409,-0.8333486329279263,-0.9927349793771811,0.8055941498599049,0.743500090712615,0.05392438179005299,0.31587965237708615,0.6804361646462196,0.6427994268664725,-0.704566029824943,0.17484308551199446,-0.48041084189763694,0.6659130733372065,-0.38927732753536004,0.28805042073968035,0.5926408443086508,-0.9026508276149623,0.9127267515047099,-0.07533992213402452,0.7139872047039426,-0.1331345789165479,-0.3539556752726605,0.22998238847738617,0.9277125371234018,0.6030589120774115,-0.5019660966017123,-0.05766059957984293,0.6342082833727738,0.1977987222639146,-0.5486005975378274,-0.9920003805353692,-0.36140414754431527,-0.030794289640138084,-0.9736530351998576,-0.6046849462502442,-0.9594998688842691,-0.8154198707234497,0.3002994201093312,-0.7079721618158898,-0.6702565756953409,0.35382284278317,-0.24222280044075117,0.2286710170709334,0.5026786993908816,0.2224771223169837,0.04214803442433723,-0.5770603450531053,0.5017270259273463,0.2221515879010969,0.807590749975869,-0.7647281363677121,0.24308465630532727,0.644428763614801,-0.7788144205882668,-0.8965046541640542,-0.7649182098625442,-0.09998819231426559,0.5377177174731069,-0.11639156228063441,0.2334576701007025,-0.1608927798130968,0.5718358885970594,0.08525008280450996,0.14575548550196693,-0.9349634585553537,-0.5535363832734941,0.8594991997876176,-0.4283007516393349,-0.5403348212834316,-0.698928530415234,0.5453446328085929,0.7728962914972379,-0.4733941345837447,0.6120663763992731,-0.4428249262244248,0.5788124329439237
-0.8438878396736511,-0.8793879662781043,-0.6521692885291837,0.4369692683974129,0.2896761090234854,0.7276283949772242,-0.6313178853862862,-0.5860131313536678,-0.5485890320625549,0.15559273793473727,0.11040799095760212,-0.3167466164157381,0.9048521277720933,-0.4918731827484284,-0.7185005691379831,-0.6122551262047902,-0.47507419489129465,0.19275624475753017,-0.8364915809219038,-0.8720442038206839,-0.042260925288648554,-0.7879246139051943,0.7689931967013686,0.5084338181319428,-0.8439394164244651,-0.22487860540619908,-0.3908353842368635,-0.9244802417956899,-0.9583719123193376,-0.007528208378008605,-0.564453851726174,-0.863378323277742,-0.2624154208851688,-0.17638482340832773,-0.9806121515293293,0.8535267484776707,-0.4256415665893033,0.527309404196685,-0.28363054134404775,-0.16371571627848347,-0.04351164353425707,-0.9271030526085624,0.2008988013251236,-0.86658390749268,-0.10242760155872976,-0.518584403561329,0.23235994873864518,0.44028750611602385,-0.8993810976646474,-0.7520590831233911,-0.7111296070602673,0.4824767741466989,-0.8289983250952855,-0.1711423851911391,-0.48695857221281236,-0.33287341103295587,-0.6943409126034248,-0.3609024556738716,-0.5885824141011544,0.2125421309895501,-0.06963491203142147,-0.4027499057535684,-0.5353945383218244,0.7688998897527421,-0.4917887496050376,-0.25863678746217644,-0.8570595299830321,-0.932196937295945,0.8707291558462653,-0.1193757114647338,-0.6261412038753296,-0.3032895043852881,0.9397839059381738,-0.9633289299396588,0.906191497461865,0.3630246324660653,0.5208731418807988,-0.5295760722609792,-0.15199791547691854,-0.9013443976488968,-0.6346771096534269,-0.7576310003314497,0.6641196976446948,-0.4052608797239974,-0.19609998011040197,0.9226242794402015,0.49949369859341264,-0.23438032897629713,0.3206075183994901,-0.6207467711356034,0.20420703629752412,0.19125482092638157,-0.01633428195500919,-0.42042455823780966,-0.6658041264692642,-0.1235022157428558,0.792875429099619,0.6594296558281489,-0.0001576503141356156,-0.9686461335500887,-0.7998626819904133,0.050252905610215226,-0.3226241034695647,-0.3937230372915279,0.43994088556099165,-0.9739325294391106,-0.6355056503923888,-0.5093586974248934,0.1013287736629025,-0.45599246076457955,-0.7904520035905191,-0.640574036185686,-0.7105215586881322,-0.6433146664021081,-0.5564327330880288,-0.4317568122491251,-0.8388575747801252,-0.7150909063260602,-0.04227933417592156,0.3950649964297184,0.3041867984350255,0.8668326690616424,-0.959974485875999,-0.7384745594655497,0.84829180010664,-0.5669929867060728,-0.863312177189061,-0.787282326805187,-0.11673197414547509,-0.8775958785906286,0.731280396809842,0.11595336350596286,-0.048911703071310986,0.7308711391970648,0.038109311888289366
0.2797495449229981,0.5163091868005636,-0.6610219338241683,-0.16888765418399931,-0.40825000646016885,-0.48912788025830345,0.30089669104602734,-0.7281975477864125,-0.5508179923275252,-0.044203472056989046,-0.5214207426040425,-0.6707481281156031,-0.25107708875936785,-0.4561662533670745,0.12298510745211466,-0.589276662773401,-0.6295323611434009,0.11628230963507602,0.711290744121744,-0.658487377124841,0.9990937479766504,-0.3892907360094817,0.6876493860333142,-0.510303344056775,-0.28383592552346903,-0.6887272722158448,-0.004558501560191219
0.3639480595650406,-0.10663056180774522,0.1287684053286815,0.8667675282195766,0.8201282902433304,-0.745629264017829,0.21308254734784637,0.07707104236400109,0.44369759242211626,0.3431622164215109,-0.873237316053205,-0.45867401146841136,-0.03133381760433984,-0.39425510062749836,0.8733379779544781,0.9961573169479665,0.9391258628797385,-0.6065447789013245,0.09942251201599817,-0.6497616610700787,-0.16716839704400965,0.4938623549748613,-0.0247045147143381,-0.4665340560495854,0.1611455926288996,-0.25040860363300066,-0.4351657789020935,0.5745994923625923,-0.9506738564023647,-0.7911616864890407,0.28570490711009655,-0.3520823613606079,0.0345116640426002,-0.5131459823941402,0.6232656740916,0.6624034916082051,0.6154379698018815,0.7619992957992601,-0.9458107091568491,-0.4120227996480408,-0.5577581462517667,0.4576305590910372,-0.6530195683962359,-0.38803609404043904,-0.5544515441891367,-0.704050243032567,-0.7903313308976254,-0.8617291592582916,-0.8872404088609607,-0.432036320908574,-0.8336626375277485,-0.8504267444083247,-0.6321949408465661,-0.3130729591725021,0.7876855829212503,0.5197273848044066,-0.772725455208781,-0.49262765262737185,0.17385821444026717,0.9266510108926267,-0.9363682981509878,-0.6035037140424371,0.5610824247176616,-0.2804773546062074,-0.4781926972257051,-0.5708816417267186,0.5486523412661866,0.2946970297776381,-0.687286216427019,0.415366432000259,-0.45512541845134247,-0.6069887939994967,0.7505090448442389,0.39448834013271905,-0.9164612923775683,-0.3935601152758659,0.5578219017721204,0.7874248705809983,-0.39844129046884547,0.8928586508172094,-0.6028860458556813,0.8639993303101039,-0.09452886420287765,0.3322740557825561,-0.7752783564040502,-0.341701615305551,-0.4025207147219023,-0.8836347612388396,-0.4109456420972015,0.4887809605960205,-0.890743232278296,-0.4595659050367429,-0.08641544825554481,-0.567420701302159,0.2571125945386452,-0.14892494275741197,-0.7407307634815892,0.4892363344639139,-0.7917170292215658,-0.7242691870935141,0.33249170945112616,-0.20723926743043353,0.028245423713326057,-0.885168954214345,-0.7136028956549654,-0.2099577756753075,0.08047536690526491,0.8526018650467941,-0.23948203453213512,-0.9684705146898562,0.5387228713201693,-0.3416815199974932,0.6861691298954034,-0.9961692735270147,-0.70944016721678,0.3867062848629854,0.4727819812241154,0.41343025895359475,0.7571723493147571,0.7863507962869958,0.9216483653204259,0.7268909729173623,-0.14377392563575286,0.3558166085578294,0.4699711642070019,-0.2977404017386629,-0.37438951683870014,-0.7621237508644003,0.7677392596095332,0.5529425337744365,-0.09310545781277701,-0.5491050551286474,-0.44833843512712024,0.835483093031165,-0.9321357360437372,0.20702857727790525,0.6240271965051194,0.10282447841989661,-0.8791901036857965,-0.7532189352862284,0.9012534429482326,0.44165949893971024,0.43212366037718186,0.41027877923930345,0.7127692723353405,-0.1166033886363631,0.7099604114661651,0.7674853348166746,-0.6484327118047386,-0.7611795620148092,0.35531231285713605,-0.031401188950875625,-0.8237178448904299,0.3369264038325037,0.10863479260399567,-0.5730455046632479,-0.5728778210535808,-0.7122271257726924,0.6766411767472957,-0.15239892647197895,-0.6265153136528165,0.9611667358525986,-0.46825093913956883,0.6624691776321687,0.930615206408625,-0.02252219654975751,-0.7939860898326538,0.8965677042466085,-0.2829357359393807,-0.3529069789321142,-0.9736478408205884,0.7068867583870564,-0.5532099557162435,0.9729301603214646,0.9279011801753598,0.7980877048450392,0.3640605511178314,0.8452820940714272,-0.9908322418934081,-0.4262254811388615,-0.47747699603601523,-0.9559821927515675,-0.6738435246898018,0.2819222381602453,0.991456479070554,-0.23046210609718365,-0.25629964419023454,0.3291135682285362,-0.7381458961397493,0.20819788824254504,-0.8879156307860152,0.12412238630588357,-0.7538934674059306,-0.6225385760779605,0.9569233899962468,-0.14893461311337397,-0.41146642570110736,-0.12327473640230746,-0.7065090393157176,-0.5726059186585726,0.2629297343665695,0.22999416375279091,-0.8687249033689071,0.418842652844192,-0.38387681295471987,-0.17911718451766312,-0.7388852588054555,0.7405466473246685,0.6352583756689467,0.09738539860392192,0.3683071483899396,-0.7182659675790386,-0.11321537077578814,-0.24487170216414555,0.09321840061527653,-0.43925469423580954,-0.6910732688988328,0.127756621619195,-0.7790779683342484,-0.4087819570976139,-0.5774146870351273,-0.1930893678474328,-0.8939000021701988,-0.6537241869732149,0.7734071155803603,0.814642326351199,0.4597563329594776,0.5495974931831094,-0.23845840998530243,0.2300365144991232,-0.9889718073968972,-0.7140428567742629,0.6756745325902485,-0.7121292178992031,-0.6307611901619659,-0.009489547240167262,-0.4190532949231829,0.5903928922546633,-0.35359847104524467,0.9963779463663698,-0.5346872335452657,-0.9078958778479695,-0.3781376872527942,0.2358575303683259,0.804807757509985,0.12611851282487274,0.5800659233340839,0.6015324285154433,-0.029133070596705002,-0.6751796490064295,0.3729136202958956,-0.1835531258017158,-0.08116526164399573,0.26986593824453076,0.9696810376934792,-0.039336084999749055,-0.8680425577282889,-0.14518990774041174,-0.3042483225524739,0.36241440330435437,0.9319040781395542,0.9353567105459188,0.9694727247413479,0.536589218072969,-0.5860819190072746,0.7312565240715816,0.05354688480785397,-0.800019201052484,-0.29207557412100993,0.4904877974384372,0.9030502730514796,0.17896676281097634,0.49933221956884943,0.366522549268256,-0.016064579178957095,0.55348199620357,0.0836331866563691,0.9339114924980672,0.2910382216820193,0.17788194431126692,0.021212328370874722,-0.7181035745247395,0.7641008446537738,0.799170206395664,-0.5619135124534989,0.7245407571633229,-0.6222135412002145,-0.5251442473839387,0.2753008415910585,0.8001436747826447,-0.3950734280955026,0.6564235277123007,-0.6280663627852996,0.8252019528602534,-0.7236139062909026,-0.792482402564207,0.7629058131591144,-0.3706442482262913,-0.8728539130208901,-0.8507460635195132,0.832087877381047,-0.09015874408458546,0.10457502255714557,0.9233987480854322,-0.3820973646718857,0.06378912826492411,0.550205110878982,-0.4814740152508541,0.030091476675133233,-0.7121453489382856,0.7933994257219157,0.6862153090653569,0.06251195417237754,0.21132960314277272,-0.5232623883038219,0.4136362289509796,-0.5383025265739152,0.5157061463774764,-0.938537029694243,0.15262688160361582,-0.37277240121037813,0.4340136244316646,0.42494388653823356,-0.22817257582086303,0.2924872284207396,-0.33721756687300153,0.8778770387300492,0.7685556240770515,0.6671279290153656,0.03919087574265001,0.14855086135698015,0.8771672770495327,0.3849228616186626,0.8450283587110221,0.04028491609690499,-0.6299262094771783,0.5307646307741483,-0.3088482618079378,0.5794646405393578,0.0973704882756623,0.272521353036163,-0.45546789406833743,-0.38370851854053023,-0.1613259792821513,-0.06959456529717079,0.5147921437495835,-0.7728497039464264,0.33568634005577924,-0.9369212401230702,0.048733530486751775,-0.5047208483566996,-0.55904174306312,-0.0694038505259078,0.3072073402172222,-0.7574886771544218,-0.44572374707371387,-0.45159675783310105,-0.26563439335924466,-0.06380687976697974,-0.634453406962449,-0.8333486329279263,-0.9927349793771811,0.8055941498599049,0.743500090712615,-0.8730010749807398,0.31587965237708615,0.6804361646462196,0.6427994268664725,-0.704566029824943,0.17484308551199446,-0.48041084189763694,0.6659130733372065,-0.38927732753536004,-0.26560079517732293,-0.8641886217850248,-0.9026508276149623,0.9127267515047099,-0.07533992213402452,0.7139872047039426,-0.1331345789165479,-0.3539556752726605,0.22998238847738617,0.9277125371234018,0.6030589120774115,-0.5019660966017123,-0.05766059957984293,0.011468191410466178,0.1977987222639146,-0.5486005975378274,-0.9920003805353692,-0.36140414754431527,-0.030794289640138084,-0.9736530351998576,-0.6046849462502442,-0.9594998688842691,-0.8154198707234497,0.3002994201093312,-0.7079721618158898,-0.9421411184347608,0.35382284278317,-0.24222280044075117,0.2286710170709334,0.5026786993908816,-0.468537720733601,0.04214803442433723,-0.5770603450531053,0.5017270259273463,0.2221515879010969,0.807590749975869,-0.7647281363677121,0.24308465630532727,0.644428763614801,-0.7788144205882668,-0.8965046541640542,-0.7649182098625442,-0.09998819231426559,0.5377177174731069,-0.11639156228063441,0.2334576701007025,-0.8410758260771263,0.5718358885970594,0.08525008280450996,0.14575548550196693,-0.9349634585553537,-0.5535363832734941,0.8594991997876176,-0.4283007516393349,-0.24672266123163666,-0.698928530415234,0.5453446328085929,0.7728962914972379,-0.4733941345837447,0.6120663763992731,-0.4428249262244248,0.5788124329439237
-0.8438878396736511,-0.8793879662781043,-0.6521692885291837,0.4369692683974129,0.2896761090234854,0.7276283949772242,-0.6313178853862862,-0.5860131313536678,-0.5485890320625549,0.15559273793473727,0.11040799095760212,-0.3167466164157381,0.9048521277720933,-0.4918731827484284,-0.7185005691379831,-0.6122551262047902,-0.44313805087698555,0.5635096869589782,-0.20030689011646952,-0.8720442038206839,-0.042260925288648554,-0.7879246139051943,0.4835879443659432,0.5084338181319428,-0.8439394164244651,-0.22487860540619908,-0.3908353842368635,-0.9244802417956899,-0.9583719123193376,-0.007528208378008605,-0.564453851726174,-0.863378323277742,-0.2624154208851688,-0.17638482340832773,-0.5492357546893702,0.8535267484776707,-0.4256415665893033,0.527309404196685,-0.28363054134404775,-0.16371571627848347,-0.04351164353425707,-0.9271030526085624,0.2008988013251236,-0.86658390749268,-0.10242760155872976,-0.518584403561329,0.23235994873864518,0.44028750611602385,-0.8993810976646474,-0.19398392957036403,-0.7111296070602673,-0.6542000355691049,-0.8289983250952855,-0.6947866918935999,-0.48695857221281236,-0.33287341103295587,-0.6943409126034248,-0.3609024556738716,-0.5885824141011544,0.883879309643661,-0.06963491203142147,-0.4027499057535684,-0.5353945383218244,0.7688998897527421,-0.4917887496050376,-0.25863678746217644,-0.8570595299830321,-0.932196937295945,0.8707291558462653,-0.1193757114647338,-0.6261412038753296,-0.3032895043852881,0.9397839059381738,-0.9633289299396588,0.906191497461865,0.3630246324660653,0.5208731418807988,-0.9831345137779683,-0.15199791547691854,-0.9013443976488968,-0.6346771096534269,-0.7576310003314497,0.6641196976446948,-0.4052608797239974,-0.19609998011040197,0.9226242794402015,0.49949369859341264,-0.23438032897629713,0.3206075183994901,-0.6207467711356034,0.20420703629752412,0.19125482092638157,-0.01633428195500919,-0.42042455823780966,-0.6658041264692642,-0.1235022157428558,0.792875429099619,0.6594296558281489,-0.18193296448066065,-0.9686461335500887,-0.7998626819904133,0.050252905610215226,-0.3226241034695647,-0.3937230372915279,0.43994088556099165,-0.9739325294391106,-0.009955084806881453,-0.5093586974248934,0.1013287736629025,-0.45599246076457955,0.07063248346197182,-0.640574036185686,-0.7105215586881322,-0.6433146664021081,-0.5564327330880288,-0.4317568122491251,-0.8388575747801252,-0.7150909063260602,-0.04227933417592156,-0.6385857412016898,0.3041867984350255,0.8668326690616424,-0.959974485875999,-0.7384745594655497,0.6560805989790197,-0.5669929867060728,-0.6989471786888766,-0.13319010435888157,-0.11673197414547509,-0.8775958785906286,0.731280396809842,0.11595336350596286,-0.048911703071310986,0.7308711391970648,-0.5398126790799005
0.2797495449229981,0.5163091868005636,-0.6610219338241683,-0.16888765418399931,-0.40825000646016885,-0.48912788025830345,0.35376828960056517,-0.7281975477864125,-0.5508179923275252,-0.044203472056989046,-0.5214207426040425,-0.6707481281156031,-0.25107708875936785,-0.4561662533670745,0.12298510745211466,-0.589276662773401,-0.6295323611434009,0.11628230963507602,0.711290744121744,-0.658487377124841,0.9990937479766504,-0.3892907360094817,0.6876493860333142,-0.510303344056775,-0.28383592552346903,-0.09210166491004013,-0.004558501560191219
0.3639480595650406,-0.10663056180774522,0.1287684053286815,0.8667675282195766,0.8201282902433304,-0.745629264017829,-0.9038138847393808,0.07707104236400109,-0.002175510406376313,0.3431622164215109,-0.873237316053205,-0.45867401146841136,-0.23596789611472424,-0.39425510062749836,0.8733379779544781,0.2096443929409313,0.5786022003097486,-0.6065447789013245,0.09942251201599817,-0.6497616610700787,-0.16716839704400965,0.4938623549748613,-0.0247045147143381,-0.4665340560495854,0.7112968731338174,-0.21495112747636513,0.6489002457685233,0.5745994923625923,-0.9506738564023647,-0.7911616864890407,0.28570490711009655,-0.3520823613606079,0.0345116640426002,-0.5131459823941402,0.7869604402723251,0.6624034916082051,-0.5435999628921457,0.7619992957992601,-0.9458107091568491,-0.4120227996480408,-0.5577581462517667,0.4576305590910372,-0.6530195683962359,-0.38803609404043904,-0.5544515441891367,-0.941675957367156,0.5239473202907712,-0.8617291592582916,-0.8872404088609607,-0.432036320908574,0.9575373856381262,-0.8504267444083247,-0.6321949408465661,-0.3130729591725021,0.7876855829212503,0.5197273848044066,-0.772725455208781,-0.49262765262737185,0.5013454069606806,0.9266510108926267,-0.9363682981509878,-0.6035037140424371,-0.5523718187555047,-0.2804773546062074,-0.7597108983283762,-0.13510228373665467,0.06309887543415726,-0.43223811013992264,-0.687286216427019,0.415366432000259,-0.45512541845134247,-0.6069887939994967,0.889890465365698,0.39448834013271905,0.9722650152197261,-0.3935601152758659,0.5578219017721204,0.7874248705809983,-0.39844129046884547,0.8928586508172094,-0.6028860458556813,0.8639993303101039,-0.09452886420287765,0.3322740557825561,-0.8068506965031377,-0.341701615305551,-0.7777957763505876,-0.3241968741828376,-0.4109456420972015,-0.7357169183925756,-0.890743232278296,-0.4595659050367429,-0.08641544825554481,-0.19931327707733004,0.9940286223016488,-0.14892494275741197,-0.7407307634815892,0.4892363344639139,0.4655828234176185,0.5540136666263844,0.33249170945112616,-0.6705572129663495,0.028245423713326057,-0.885168954214345,-0.7136028956549654,-0.2099577756753075,0.08047536690526491,0.7112504111158926,-0.5843917007608428,-0.9684705146898562,0.5387228713201693,-0.3416815199974932,0.6861691298954034,-0.9961692735270147,-0.70944016721678,0.3867062848629854,0.4727819812241154,0.41343025895359475,0.7571723493147571,0.15700176039826186,0.9216483653204259,0.7268909729173623,-0.14377392563575286,0.3558166085578294,0.9302767146907407,0.9990166098395126,-0.37438951683870014,-0.7621237508644003,-0.46836411788848764,0.5529425337744365,0.7019919400759376,-0.5491050551286474,-0.44833843512712024,0.835483093031165,-0.9321357360437372,0.20702857727790525,0.6240271965051194,0.10282447841989661,-0.8791901036857965,-0.7532189352862284,0.30624534265014414,0.44165949893971024,0.43212366037718186,-0.05457982107998394,0.7127692723353405,-0.1166033886363631,0.7099604114661651,-0.3092006553492508,-0.6574722651805789,-0.7611795620148092,0.35531231285713605,-0.031401188950875625,-0.8237178448904299,0.3369264038325037,-0.49224584013442874,-0.5730455046632479,0.6743859217523769,-0.7122271257726924,0.6766411767472957,-0.15239892647197895,-0.6265153136528165,-0.5187084108241231,-0.46825093913956883,0.6624691776321687,0.930615206408625,-0.02252219654975751,-0.7939860898326538,0.8965677042466085,-0.2829357359393807,-0.3529069789321142,-0.9736478408205884,0.7068867583870564,-0.5532099557162435,0.9729301603214646,0.9279011801753598,0.7980877048450392,0.5755372901405069,0.8452820940714272,-0.9908322418934081,-0.4262254811388615,-0.47747699603601523,-0.9559821927515675,-0.6738435246898018,0.2819222381602453,0.689446582430532,-0.23046210609718365,-0.25629964419023454,0.3291135682285362,-0.7381458961397493,0.20819788824254504,-0.8879156307860152,0.12412238630588357,-0.1067871786246255,-0.6225385760779605,0.9569233899962468,0.448889557144188,-0.41146642570110736,-0.12327473640230746,-0.45019980941503857,-0.5726059186585726,0.2629297343665695,0.22999416375279091,-0.8687249033689071,0.418842652844192,-0.38387681295471987,0.47429031778157027,-0.7388852588054555,0.7405466473246685,-0.8938649741176605,0.09738539860392192,0.3683071483899396,-0.7182659675790386,-0.11321537077578814,0.15037431785107547,0.09321840061527653,-0.43925469423580954,-0.6910732688988328,0.127756621619195,-0.7790779683342484,-0.05409762802073281,0.5859340400479092,-0.1930893678474328,-0.8939000021701988,-0.6537241869732149,0.7734071155803603,0.814642326351199,0.4597563329594776,0.5495974931831094,-0.23845840998530243,0.2300365144991232,-0.9889718073968972,-0.7140428567742629,0.6756745325902485,-0.7121292178992031,-0.6307611901619659,-0.42074744988328905,0.24950237055435887,0.5903928922546633,0.5950439821712892,0.9963779463663698,-0.5346872335452657,0.380312159205898,-0.8239023766388669,0.2358575303683259,0.804807757509985,0.12611851282487274,0.5800659233340839,0.6015324285154433,-0.029133070596705002,-0.6751796490064295,0.3729136202958956,-0.1835531258017158,-0.08116526164399573,0.26986593824453076,0.9696810376934792,-0.039336084999749055,-0.8680425577282889,-0.14518990774041174,-0.3042483225524739,0.36241440330435437,0.9319040781395542,0.9353567105459188,0.9694727247413479,0.536589218072969,0.37667224032353586,0.7312565240715816,0.05354688480785397,0.4872123323310824,-0.29207557412100993,0.4904877974384372,0.9030502730514796,0.17896676281097634,0.49933221956884943,0.366522549268256,-0.016064579178957095,-0.7458580514500606,0.0836331866563691,0.9339114924980672,0.2910382216820193,0.17788194431126692,0.021212328370874722,0.609925333902783,0.7641008446537738,0.799170206395664,-0.5619135124534989,0.7245407571633229,-0.6222135412002145,-0.5251442473839387,0.2753008415910585,0.8001436747826447,-0.7554255836379693,0.6564235277123007,-0.6280663627852996,-0.4623401294540135,-0.7236139062909026,-0.792482402564207,0.7629058131591144,-0.3706442482262913,-0.8728539130208901,-0.8507460635195132,0.832087877381047,-0.09015874408458546,0.10457502255714557,0.9233987480854322,-0.3820973646718857,0.06378912826492411,0.550205110878982,-0.4814740152508541,0.19948409817606816,-0.7121453489382856,0.7933994257219157,0.6862153090653569,0.06251195417237754,0.21132960314277272,-0.9746092435004399,0.4136362289509796,-0.5383025265739152,0.5157061463774764,-0.938537029694243,0.15262688160361582,-0.6819950565482753,0.4340136244316646,0.42494388653823356,-0.22817257582086303,0.2924872284207396,-0.33721756687300153,0.8778770387300492,0.7685556240770515,0.6671279290153656,0.03919087574265001,0.9058506460900217,0.8771672770495327,0.3849228616186626,-0.4985886385255105,0.04028491609690499,-0.6299262094771783,0.5307646307741483,0.5940486417225534,0.5794646405393578,0.0973704882756623,-0.25129111958615225,-0.45546789406833743,-0.38370851854053023,-0.1613259792821513,-0.06959456529717079,0.5147921437495835,-0.7728497039464264,0.33568634005577924,-0.9369212401230702,-0.8872216504615258,0.39044547874049984,0.5150699827055254,0.5231016156248374,0.39151917977441486,-0.7574886771544218,-0.44572374707371387,-0.45159675783310105,-0.26563439335924466,-0.06380687976697974,-0.634453406962449,-0.8333486329279263,-0.9927349793771811,0.8055941498599049,0.34838844298190863,-0.8730010749807398,0.31587965237708615,0.6804361646462196,0.6427994268664725,-0.704566029824943,0.17484308551199446,-0.48041084189763694,0.6659130733372065,-0.38927732753536004,-0.26560079517732293,0.5926408443086508,-0.9026508276149623,0.9127267515047099,-0.07533992213402452,0.7139872047039426,-0.1331345789165479,-0.3539556752726605,0.22998238847738617,0.9277125371234018,0.6030589120774115,-0.5019660966017123,-0.05766059957984293,0.6342082833727738,0.1977987222639146,-0.23088861058946897,-0.9920003805353692,-0.36140414754431527,-0.030794289640138084,-0.9736530351998576,-0.6046849462502442,-0.9594998688842691,-0.8154198707234497,0.3002994201093312,-0.7079721618158898,-0.8898634244410026,0.35382284278317,-0.24222280044075117,0.2286710170709334,0.5026786993908816,-0.468537720733601,0.04214803442433723,-0.5770603450531053,0.5017270259273463,0.2221515879010969,0.807590749975869,-0.7647281363677121,0.24308465630532727,0.644428763614801,-0.7788144205882668,-0.8965046541640542,-0.7649182098625442,-0.09998819231426559,0.5377177174731069,-0.11639156228063441,0.2334576701007025,-0.1608927798130968,-0.21584691930082078,0.08525008280450996,0.14575548550196693,-0.9349634585553537,-0.8028247095057124,0.8594991997876176,-0.4283007516393349,-0.24672266123163666,-0.4332507100681062,0.5453446328085929,0.7728962914972379,-0.4733941345837447,0.6120663763992731,-0.4428249262244248,-0.4669562204518316
-0.8438878396736511,-0.8793879662781043,-0.6521692885291837,0.4369692683974129,0.2896761090234854,0.7276283949772242,-0.6313178853862862,-0.5860131313536678,-0.5485890320625549,0.15559273793473727,0.11040799095760212,0.4548464361642799,0.9048521277720933,-0.4918731827484284,-0.7185005691379831,-0.6122551262047902,-0.47507419489129465,0.18586056281076324,-0.8364915809219038,-0.8720442038206839,-0.042260925288648554,-0.7879246139051943,0.4835879443659432,0.5084338181319428,-0.8439394164244651,-0.22487860540619908,-0.3908353842368635,-0.9244802417956899,-0.9583719123193376,-0.007528208378008605,-0.564453851726174,0.11951418503255495,-0.2624154208851688,-0.17638482340832773,-0.9806121515293293,0.8535267484776707,-0.4256415665893033,0.527309404196685,-0.28363054134404775,-0.16371571627848347,-0.04351164353425707,-0.9271030526085624,0.17790964351932592,-0.86658390749268,-0.10242760155872976,-0.518584403561329,0.34892782833166325,0.44028750611602385,-0.8993810976646474,-0.19398392957036403,-0.6918027958905153,-0.6542000355691049,-0.8289983250952855,-0.6947866918935999,-0.48695857221281236,-0.398389039609649,-0.6943409126034248,-0.3609024556738716,-0.5885824141011544,0.883879309643661,-0.06963491203142147,-0.4027499057535684,-0.5353945383218244,0.7688998897527421,-0.4917887496050376,-0.25863678746217644,-0.8570595299830321,-0.932196937295945,0.8707291558462653,-0.1193757114647338,-0.6261412038753296,-0.3032895043852881,0.9397839059381738,-0.9633289299396588,0.906191497461865,-0.6222254652576454,0.5208731418807988,-0.5295760722609792,-0.15199791547691854,-0.9013443976488968,-0.6346771096534269,-0.7576310003314497,0.6641196976446948,-0.4052608797239974,-0.19609998011040197,0.9226242794402015,0.49949369859341264,-0.23438032897629713,0.193638437198985,-0.6207467711356034,0.20420703629752412,0.19125482092638157,-0.01633428195500919,-0.42042455823780966,-0.6658041264692642,-0.1235022157428558,-0.24085418308376183,0.4556974016363837,-0.18193296448066065,-0.9686461335500887,-0.7998626819904133,0.050252905610215226,-0.3226241034695647,-0.3937230372915279,0.43994088556099165,-0.9739325294391106,0.9423352726610346,-0.5093586974248934,0.1013287736629025,-0.45599246076457955,-0.7904520035905191,-0.640574036185686,-0.7105215586881322,-0.6433146664021081,0.6738331879967736,-0.4317568122491251,-0.8388575747801252,-0.7150909063260602,-0.04227933417592156,-0.6385857412016898,0.2849334173178779,-0.6328831210734993,-0.959974485875999,-0.7384745594655497,0.84829180010664,-0.5669929867060728,-0.863312177189061,-0.13319010435888157,-0.11673197414547509,-0.8775958785906286,-0.9832152804748471,0.11595336350596286,-0.048911703071310986,0.7308711391970648,0.038109311888289366
-0.5145247546559777,0.5163091868005636,-0.9619898929751118,-0.16888765418399931,-0.40825000646016885,-0.48912788025830345,0.30089669104602734,-0.7281975477864125,-0.31042509652205785,-0.044203472056989046,-0.5214207426040425,-0.6707481281156031,-0.25107708875936785,-0.4561662533670745,0.12298510745211466,-0.589276662773401,-0.6295323611434009,0.11628230963507602,0.711290744121744,-0.658487377124841,0.9990937479766504,-0.3892907360094817,0.6876493860333142,-0.510303344056775,-0.28383592552346903,-0.6887272722158448,-0.15736304908434584
0.3639480595650406,-0.10663056180774522,0.1287684053286815,0.8667675282195766,0.8201282902433304,-0.745629264017829,0.21308254734784637,0.07707104236400109,0.44369759242211626,0.3431622164215109,-0.873237316053205,-0.45867401146841136,-0.23596789611472424,-0.917749641752228,0.8733379779544781,0.9961573169479665,0.9391258628797385,-0.6065447789013245,0.09942251201599817,-0.6497616610700787,-0.16716839704400965,0.4938623549748613,-0.31366208984292476,-0.4665340560495854,0.7112968731338174,-0.25040860363300066,0.6489002457685233,0.5745994923625923,-0.9506738564023647,-0.7911616864890407,0.28570490711009655,-0.3520823613606079,0.0345116640426002,-0.5131459823941402,0.6232656740916,0.6624034916082051,0.6154379698018815,0.7619992957992601,-0.9458107091568491,-0.4120227996480408,-0.5577581462517667,0.4576305590910372,-0.6530195683962359,-0.38803609404043904,-0.41746849816237197,-0.8589366674058045,0.5239473202907712,-0.8617291592582916,-0.8872404088609607,-0.432036320908574,0.21696807611685176,-0.8504267444083247,-0.6321949408465661,-0.3130729591725021,0.7876855829212503,0.5197273848044066,-0.36608952664424854,-0.49262765262737185,0.5013454069606806,0.9266510108926267,-0.9363682981509878,-0.6035037140424371,-0.5523718187555047,-0.2804773546062074,-0.3466824503971022,-0.5708816417267186,0.5486523412661866,-0.43223811013992264,-0.687286216427019,0.012676803630578437,-0.45512541845134247,-0.6069887939994967,0.889890465365698,0.39448834013271905,0.9722650152197261,-0.3935601152758659,0.5578219017721204,0.7874248705809983,-0.39844129046884547,0.8928586508172094,-0.6028860458556813,0.8639993303101039,-0.09452886420287765,0.3322740557825561,-0.8068506965031377,-0.341701615305551,-0.7777957763505876,-0.3241968741828376,-0.4109456420972015,-0.7357169183925756,-0.890743232278296,-0.4595659050367429,-0.8491485613955732,-0.567420701302159,0.9940286223016488,-0.14892494275741197,-0.7407307634815892,0.4892363344639139,0.3346955957980131,-0.7242691870935141,0.33249170945112616,-0.20723926743043353,0.028245423713326057,-0.885168954214345,-0.7136028956549654,-0.2099577756753075,0.08047536690526491,0.8526018650467941,-0.23948203453213512,-0.9684705146898562,0.5387228713201693,-0.3416815199974932,0.6861691298954034,-0.9961692735270147,-0.70944016721678,0.3867062848629854,0.4727819812241154,0.41343025895359475,0.4680392278770522,0.7863507962869958,0.9216483653204259,0.7268909729173623,-0.14377392563575286,0.3558166085578294,0.4699711642070019,-0.2977404017386629,-0.37438951683870014,-0.7621237508644003,0.7677392596095332,0.5529425337744365,0.7019919400759376,-0.5491050551286474,-0.44833843512712024,0.835483093031165,-0.8182183984384912,0.26732377622478154,0.6240271965051194,0.10282447841989661,-0.8791901036857965,-0.7343858883210439,0.30624534265014414,0.44165949893971024,0.43212366037718186,-0.05457982107998394,0.7127692723353405,-0.1166033886363631,0.7099604114661651,0.7674853348166746,-0.6484327118047386,-0.7611795620148092,0.35531231285713605,-0.031401188950875625,-0.8237178448904299,0.3369264038325037,-0.8556702237379818,-0.5730455046632479,-0.5728778210535808,-0.09453547524375727,0.6766411767472957,-0.5425954856239437,0.18941199276312126,0.9611667358525986,-0.46825093913956883,0.6624691776321687,0.930615206408625,-0.02252219654975751,-0.7939860898326538,0.8965677042466085,0.5458321273932412,-0.3529069789321142,-0.9736478408205884,-0.43645630466924734,-0.16106439036041986,0.9729301603214646,0.9279011801753598,0.7980877048450392,0.3640605511178314,0.8452820940714272,-0.9908322418934081,-0.4262254811388615,-0.47747699603601523,-0.9559821927515675,-0.9517611341506771,0.2819222381602453,0.991456479070554,-0.23046210609718365,-0.25629964419023454,0.3291135682285362,-0.7381458961397493,0.48323533156957144,-0.8879156307860152,0.12412238630588357,-0.8090265802982577,-0.6225385760779605,0.9569233899962468,0.448889557144188,0.5875889867647448,-0.12327473640230746,-0.45019980941503857,-0.5726059186585726,0.457419007412986,0.22999416375279091,-0.8687249033689071,0.418842652844192,-0.38387681295471987,-0.17911718451766312,-0.7388852588054555,0.7405466473246685,-0.8938649741176605,0.09738539860392192,0.3683071483899396,-0.7182659675790386,-0.11321537077578814,0.15037431785107547,0.09321840061527653,-0.43925469423580954,-0.6910732688988328,0.127756621619195,-0.7790779683342484,0.5472318935036382,0.5214230525379733,-0.1930893678474328,-0.8939000021701988,-0.6537241869732149,0.7734071155803603,0.814642326351199,0.75351319492506,0.5495974931831094,-0.23845840998530243,0.2300365144991232,-0.9889718073968972,-0.7140428567742629,0.6756745325902485,-0.7121292178992031,-0.6307611901619659,-0.42074744988328905,0.24950237055435887,0.5903928922546633,0.5950439821712892,-0.44867925473882386,-0.5346872335452657,-0.46502655583262253,-0.8239023766388669,0.299896397132162,0.804807757509985,0.12611851282487274,0.5800659233340839,0.6015324285154433,-0.1380259896646847,-0.5691184585316755,0.029156611120874976,-0.1835531258017158,-0.08116526164399573,0.26986593824453076,0.9696810376934792,-0.039336084999749055,-0.8680425577282889,-0.14518990774041174,-0.3042483225524739,0.36241440330435437,0.9319040781395542,-0.3049293711585839,0.9694727247413479,0.536589218072969,-0.5860819190072746,0.7312565240715816,0.05354688480785397,0.4872123323310824,-0.29207557412100993,0.4904877974384372,0.9030502730514796,0.17896676281097634,0.49933221956884943,0.28366361793275185,-0.016064579178957095,-0.9945890611861645,0.0836331866563691,0.9339114924980672,0.7329971537780369,0.17788194431126692,0.021212328370874722,-0.7181035745247395,0.7641008446537738,0.799170206395664,-0.5619135124534989,-0.6553737335413274,-0.6222135412002145,-0.5251442473839387,0.2753008415910585,0.8001436747826447,-0.7554255836379693,0.6564235277123007,-0.6280663627852996,0.8252019528602534,-0.7236139062909026,-0.792482402564207,0.4327331191447159,-0.8898429428593668,-0.8728539130208901,-0.8507460635195132,0.832087877381047,-0.09015874408458546,0.10457502255714557,0.9233987480854322,-0.3820973646718857,0.06378912826492411,0.550205110878982,0.6326617887380206,0.19948409817606816,-0.7121453489382856,-0.898108695916054,0.6862153090653569,0.06251195417237754,0.21132960314277272,-0.5232623883038219,0.4136362289509796,-0.5383025265739152,0.5157061463774764,-0.22329271974501919,0.15262688160361582,-0.6819950565482753,0.9575173357099114,0.31759217517306326,-0.22817257582086303,0.2924872284207396,-0.33721756687300153,0.8778770387300492,0.7685556240770515,0.6671279290153656,0.03919087574265001,0.9058506460900217,0.8771672770495327,0.3849228616186626,0.8450283587110221,0.04028491609690499,-0.03597519761127477,0.5307646307741483,0.5940486417225534,0.5794646405393578,0.0973704882756623,0.272521353036163,-0.45546789406833743,-0.38370851854053023,0.9743333735019064,-0.06959456529717079,0.5147921437495835,-0.7728497039464264,0.33568634005577924,-0.11965374764486403,0.048733530486751775,-0.5047208483566996,0.5150699827055254,0.3024240307196766,0.3072073402172222,-0.7574886771544218,-0.44572374707371387,-0.45159675783310105,-0.26563439335924466,-0.31598792697654865,-0.634453406962449,-0.8333486329279263,0.12730693946601446,0.8055941498599049,0.743500090712615,-0.8730010749807398,0.31587965237708615,0.6804361646462196,0.6427994268664725,-0.704566029824943,0.17484308551199446,0.8287653727759543,0.6659130733372065,-0.38927732753536004,0.28805042073968035,0.5926408443086508,-0.9026508276149623,0.9127267515047099,-0.07533992213402452,0.7139872047039426,0.24274145961765914,-0.3539556752726605,0.22998238847738617,0.9277125371234018,0.6030589120774115,-0.5019660966017123,-0.05766059957984293,0.6342082833727738,0.1977987222639146,-0.23088861058946897,-0.9920003805353692,-0.36140414754431527,-0.030794289640138084,-0.9736530351998576,-0.6046849462502442,-0.9594998688842691,-0.8154198707234497,0.3002994201093312,-0.7079721618158898,-0.6702565756953409,-0.6182208224925918,-0.24222280044075117,0.2286710170709334,0.5026786993908816,0.2224771223169837,0.04214803442433723,-0.5770603450531053,0.5017270259273463,0.2221515879010969,-0.4899505533064814,-0.7647281363677121,0.24308465630532727,0.644428763614801,-0.7788144205882668,-0.8965046541640542,-0.7649182098625442,-0.09998819231426559,0.5377177174731069,-0.11639156228063441,-0.04466340887020426,-0.1608927798130968,0.5718358885970594,0.08525008280450996,-0.626873421861335,-0.9349634585553537,-0.5535363832734941,0.8594991997876176,-0.4532977041711659,-0.24672266123163666,-0.4332507100681062,0.5453446328085929,0.7728962914972379,-0.4733941345837447,0.6120663763992731,-0.4428249262244248,0.5788124329439237
-0.8438878396736511,-0.8793879662781043,-0.6521692885291837,0.4369692683974129,0.2896761090234854,0.7276283949772242,-0.6313178853862862,-0.5860131313536678,-0.5485890320625549,0.15559273793473727,0.11040799095760212,-0.3167466164157381,0.9048521277720933,-0.4918731827484284,-0.7185005691379831,-0.6122551262047902,-0.44313805087698555,0.5635096869589782,-0.8364915809219038,-0.8720442038206839,-0.042260925288648554,-0.7879246139051943,0.6946068784626043,0.5084338181319428,-0.8439394164244651,-0.22487860540619908,-0.5474274333950484,-0.9244802417956899,-0.9583719123193376,-0.007528208378008605,-0.564453851726174,0.11951418503255495,-0.2624154208851688,-0.17638482340832773,-0.5492357546893702,0.8535267484776707,-0.4256415665893033,0.527309404196685,-0.28363054134404775,-0.16371571627848347,-0.04351164353425707,-0.9271030526085624,0.2008988013251236,-0.86658390749268,-0.5714820673832548,-0.518584403561329,-0.16031358587603894,0.44028750611602385,-0.8993810976646474,-0.19398392957036403,-0.7111296070602673,0.9828510811999205,-0.8289983250952855,-0.6947866918935999,0.3388810612755704,-0.398389039609649,-0.6943409126034248,-0.3609024556738716,-0.5885824141011544,-0.7873805641539817,-0.06963491203142147,-0.4027499057535684,-0.5353945383218244,0.7688998897527421,-0.4917887496050376,-0.25863678746217644,-0.8570595299830321,-0.932196937295945,0.8707291558462653,-0.1193757114647338,-0.4757881381149609,-0.3032895043852881,0.9397839059381738,-0.9633289299396588,0.906191497461865,-0.6222254652576454,0.5208731418807988,-0.5295760722609792,-0.15199791547691854,-0.9013443976488968,-0.6346771096534269,0.04701730933959847,0.6641196976446948,-0.4052608797239974,-0.19609998011040197,0.9226242794402015,0.49949369859341264,-0.23438032897629713,0.3206075183994901,-0.6207467711356034,-0.28324754718340794,0.19125482092638157,-0.01633428195500919,-0.42042455823780966,-0.6658041264692642,-0.1235022157428558,0.628414454043531,-0.4413959439576771,-0.0001576503141356156,-0.9686461335500887,-0.7998626819904133,-0.5562985064455295,-0.7471880796272994,-0.3937230372915279,0.43994088556099165,-0.9739325294391106,-0.6355056503923888,-0.5093586974248934,0.1013287736629025,-0.45599246076457955,-0.7904520035905191,-0.640574036185686,-0.7105215586881322,-0.6433146664021081,-0.5564327330880288,-0.4317568122491251,-0.8388575747801252,-0.7150909063260602,-0.04227933417592156,-0.6385857412016898,-0.28172755313792885,-0.6328831210734993,-0.959974485875999,-0.7384745594655497,0.6560805989790197,0.01771773377573016,-0.6989471786888766,-0.13319010435888157,-0.11673197414547509,-0.8775958785906286,0.731280396809842,0.11595336350596286,-0.048911703071310986,0.7308711391970648,-0.3098114382475563
-0.5145247546559777,0.5163091868005636,-0.6610219338241683,-0.16888765418399931,-0.40825000646016885,-0.48912788025830345,0.30089669104602734,-0.7281975477864125,-0.31042509652205785,-0.044203472056989046,-0.5214207426040425,0.4948636762063938,-0.25107708875936785,-0.4561662533670745,0.12298510745211466,-0.6577494074704462,-0.6295323611434009,0.11628230963507602,0.9726255376639437,-0.658487377124841,0.9990937479766504,-0.3892907360094817,0.6876493860333142,-0.510303344056775,-0.877935133687622,-0.09210166491004013,-0.15736304908434584
0.3639480595650406,-0.10663056180774522,0.1287684053286815,0.8667675282195766,0.8201282902433304,-0.745629264017829,0.21308254734784637,0.07707104236400109,0.44369759242211626,0.3431622164215109,-0.873237316053205,-0.45867401146841136,-0.23596789611472424,-0.39425510062749836,0.8733379779544781,0.2096443929409313,0.9391258628797385,-0.6065447789013245,0.8334813764414504,-0.6497616610700787,-0.16716839704400965,0.4938623549748613,-0.31366208984292476,-0.4665340560495854,0.1611455926288996,-0.25040860363300066,0.6489002457685233,0.5745994923625923,-0.9506738564023647,-0.7911616864890407,0.28570490711009655,-0.3520823613606079,0.0345116640426002,-0.5131459823941402,0.6232656740916,0.6624034916082051,0.6154379698018815,0.7619992957992601,-0.9458107091568491,-0.4120227996480408,-0.5577581462517667,0.4576305590910372,-0.6530195683962359,-0.38803609404043904,-0.5544515441891367,-0.704050243032567,0.675315093543225,-0.8617291592582916,-0.8872404088609607,-0.432036320908574,-0.8336626375277485,-0.8504267444083247,-0.6321949408465661,-0.3130729591725021,0.7876855829212503,0.5197273848044066,-0.772725455208781,-0.49262765262737185,0.17385821444026717,0.9266510108926267,-0.9363682981509878,-0.6035037140424371,-0.5523718187555047,-0.2804773546062074,-0.4781926972257051,-0.5708816417267186,0.7939765940479573,-0.43223811013992264,-0.687286216427019,0.415366432000259,-0.45512541845134247,-0.6069887939994967,0.7505090448442389,0.39448834013271905,0.9722650152197261,-0.3935601152758659,0.5578219017721204,0.7874248705809983,-0.39844129046884547,0.8928586508172094,-0.6028860458556813,0.8639993303101039,-0.09452886420287765,0.3322740557825561,-0.7752783564040502,-0.341701615305551,-0.4025207147219023,-0.8836347612388396,-0.4109456420972015,-0.7357169183925756,-0.8665066373667594,-0.4595659050367429,-0.08641544825554481,-0.567420701302159,0.2571125945386452,-0.14892494275741197,-0.7407307634815892,0.4892363344639139,-0.7917170292215658,-0.7242691870935141,0.33249170945112616,-0.6705572129663495,0.028245423713326057,-0.885168954214345,-0.7136028956549654,-0.2099577756753075,0.08047536690526491,0.8526018650467941,-0.23948203453213512,-0.9684705146898562,0.5387228713201693,-0.3416815199974932,0.6861691298954034,-0.2743184957723206,-0.70944016721678,0.3867062848629854,0.4727819812241154,0.41343025895359475,0.7571723493147571,0.7863507962869958,0.9216483653204259,0.7268909729173623,-0.14377392563575286,0.3558166085578294,0.4699711642070019,0.9990166098395126,-0.37438951683870014,-0.7621237508644003,0.7677392596095332,0.5529425337744365,-0.09310545781277701,-0.5491050551286474,-0.44833843512712024,0.835483093031165,-0.9321357360437372,0.20702857727790525,0.6240271965051194,0.7329788264044266,-0.8791901036857965,-0.7532189352862284,0.30624534265014414,0.44165949893971024,0.43212366037718186,-0.05457982107998394,0.7127692723353405,-0.1166033886363631,0.7099604114661651,0.5120608297326503,-0.6574722651805789,-0.7611795620148092,-0.9709309446365539,-0.031401188950875625,0.1264796657162568,0.3369264038325037,-0.49224584013442874,-0.5730455046632479,-0.5728778210535808,-0.4539715552987056,0.6766411767472957,-0.15239892647197895,-0.6265153136528165,0.9611667358525986,-0.46825093913956883,0.6624691776321687,0.930615206408625,-0.02252219654975751,-0.7939860898326538,0.8965677042466085,-0.2829357359393807,-0.6772688981601565,-0.9736478408205884,0.7068867583870564,-0.5532099557162435,0.9729301603214646,0.9279011801753598,0.7980877048450392,0.3640605511178314,0.8452820940714272,-0.9908322418934081,-0.47387912211898864,-0.47747699603601523,-0.9559821927515675,-0.9517611341506771,0.2819222381602453,0.689446582430532,-0.23046210609718365,0.9705637499950699,0.3291135682285362,-0.7381458961397493,0.20819788824254504,-0.8879156307860152,0.12412238630588357,-0.7538934674059306,-0.6225385760779605,0.9569233899962468,-0.14893461311337397,-0.41146642570110736,-0.12327473640230746,-0.7065090393157176,-0.5726059186585726,-0.8948246661153618,0.22999416375279091,0.011097382807832012,0.418842652844192,-0.38387681295471987,0.47429031778157027,-0.7388852588054555,0.7405466473246685,-0.3540011820940052,0.09738539860392192,0.3683071483899396,-0.7182659675790386,-0.11321537077578814,-0.24487170216414555,0.09321840061527653,-0.43925469423580954,-0.6910732688988328,0.127756621619195,0.21314651528198847,-0.4087819570976139,0.5859340400479092,-0.1930893678474328,-0.8939000021701988,-0.6537241869732149,0.7734071155803603,0.814642326351199,0.4597563329594776,0.5495974931831094,-0.23845840998530243,0.8656055020298081,-0.9889718073968972,-0.002190811785068858,0.6756745325902485,-0.7121292178992031,-0.6307611901619659,-0.42074744988328905,-0.4190532949231829,0.5903928922546633,-0.35359847104524467,-0.44867925473882386,-0.5346872335452657,0.380312159205898,0.8925675673315117,0.2358575303683259,0.804807757509985,0.12611851282487274,0.5800659233340839,0.6015324285154433,-0.1380259896646847,-0.5691184585316755,0.3729136202958956,-0.1835531258017158,-0.08116526164399573,0.26986593824453076,0.9696810376934792,-0.039336084999749055,-0.38969507307533435,-0.14518990774041174,-0.3042483225524739,0.36241440330435437,0.9319040781395542,0.9353567105459188,0.9694727247413479,0.536589218072969,0.37667224032353586,0.7312565240715816,0.05354688480785397,-0.800019201052484,-0.29207557412100993,0.39452440111883735,0.9030502730514796,0.17896676281097634,0.49933221956884943,0.366522549268256,-0.016064579178957095,-0.7458580514500606,0.0836331866563691,0.9339114924980672,0.41881874318464396,0.17788194431126692,0.021212328370874722,0.609925333902783,0.7641008446537738,0.799170206395664,-0.5619135124534989,0.7245407571633229,-0.6222135412002145,-0.5251442473839387,0.2753008415910585,0.8001436747826447,-0.7554255836379693,0.6564235277123007,-0.6280663627852996,-0.4623401294540135,-0.7236139062909026,-0.792482402564207,0.7629058131591144,-0.8898429428593668,-0.5717315929525117,-0.8507460635195132,0.832087877381047,-0.09015874408458546,0.10457502255714557,0.9233987480854322,-0.3820973646718857,0.06378912826492411,0.550205110878982,-0.4814740152508541,0.19948409817606816,-0.7121453489382856,0.7933994257219157,0.6862153090653569,0.06251195417237754,0.21132960314277272,-0.5232623883038219,0.4136362289509796,-0.5383025265739152,0.5157061463774764,-0.938537029694243,0.15262688160361582,-0.37277240121037813,0.7655959311320513,0.42494388653823356,-0.22817257582086303,0.2924872284207396,-0.33721756687300153,0.8778770387300492,0.7685556240770515,0.6671279290153656,0.03919087574265001,0.9058506460900217,0.8771672770495327,0.3849228616186626,0.8450283587110221,0.04028491609690499,-0.6299262094771783,0.5307646307741483,-0.3088482618079378,0.5794646405393578,0.0973704882756623,-0.9572615389944386,-0.45546789406833743,-0.38370851854053023,-0.1613259792821513,-0.06959456529717079,0.5147921437495835,-0.7728497039464264,0.33568634005577924,-0.9369212401230702,0.048733530486751775,-0.5047208483566996,-0.55904174306312,-0.0694038505259078,0.3072073402172222,-0.7574886771544218,-0.44572374707371387,-0.45159675783310105,-0.978417794267064,-0.31598792697654865,0.9057196972473409,-0.8333486329279263,-0.9927349793771811,0.8055941498599049,0.743500090712615,0.05392438179005299,0.31587965237708615,0.6804361646462196,0.6427994268664725,-0.704566029824943,0.5658646693728038,-0.48041084189763694,0.6659130733372065,-0.38927732753536004,-0.26560079517732293,0.5926408443086508,-0.9026508276149623,0.9127267515047099,-0.07533992213402452,0.7139872047039426,-0.1331345789165479,-0.3539556752726605,0.22998238847738617,0.9277125371234018,0.6030589120774115,-0.5019660966017123,-0.05766059957984293,0.011468191410466178,0.1977987222639146,-0.5486005975378274,-0.9920003805353692,-0.36140414754431527,-0.030794289640138084,-0.9736530351998576,-0.6046849462502442,-0.9594998688842691,-0.8154198707234497,0.3002994201093312,-0.7079721618158898,-0.6702565756953409,0.35382284278317,-0.24222280044075117,0.2286710170709334,0.5026786993908816,0.2224771223169837,0.04214803442433723,-0.5770603450531053,0.5017270259273463,0.2221515879010969,0.807590749975869,-0.7647281363677121,0.24308465630532727,0.644428763614801,-0.7788144205882668,-0.8965046541640542,-0.7649182098625442,-0.09998819231426559,0.5377177174731069,-0.11639156228063441,0.2334576701007025,-0.8410758260771263,0.5718358885970594,0.08525008280450996,0.14575548550196693,-0.9787744604864872,-0.5535363832734941,0.8594991997876176,-0.4283007516393349,-0.0743392537154326,-0.698928530415234,0.5453446328085929,0.7728962914972379,-0.4733941345837447,0.6120663763992731,-0.4428249262244248,0.5788124329439237
-0.8438878396736511,-0.8793879662781043,-0.6521692885291837,0.4369692683974129,-0.316142542413814,0.7276283949772242,-0.6313178853862862,-0.5860131313536678,-0.5485890320625549,0.15559273793473727,0.11040799095760212,-0.3167466164157381,0.9048521277720933,-0.4918731827484284,-0.7185005691379831,-0.5644130834296563,-0.47507419489129465,0.18586056281076324,-0.8364915809219038,-0.8720442038206839,-0.042260925288648554,-0.7879246139051943,0.4835879443659432,0.5084338181319428,-0.8439394164244651,-0.22487860540619908,-0.3908353842368635,-0.9244802417956899,-0.9583719123193376,-0.007528208378008605,-0.564453851726174,-0.863378323277742,-0.2624154208851688,-0.17638482340832773,-0.9806121515293293,0.8535267484776707,-0.4256415665893033,0.527309404196685,-0.28363054134404775,-0.16371571627848347,-0.04351164353425707,-0.9271030526085624,0.2008988013251236,-0.86658390749268,-0.10242760155872976,-0.518584403561329,0.23235994873864518,0.3720529132504684,-0.8993810976646474,-0.19398392957036403,-0.6918027958905153,-0.6137146280516055,-0.8289983250952855,-0.6947866918935999,-0.48695857221281236,-0.33287341103295587,-0.6943409126034248,-0.3609024556738716,-0.5885824141011544,0.883879309643661,-0.06963491203142147,-0.4027499057535684,-0.5353945383218244,0.7688998897527421,-0.4917887496050376,-0.25863678746217644,-0.8570595299830321,-0.932196937295945,0.8707291558462653,-0.1193757114647338,-0.4757881381149609,-0.3032895043852881,0.9397839059381738,-0.9633289299396588,0.906191497461865,0.3630246324660653,0.5208731418807988,-0.9831345137779683,-0.15199791547691854,-0.9013443976488968,-0.6346771096534269,-0.7576310003314497,0.6641196976446948,-0.4052608797239974,-0.19609998011040197,0.9226242794402015,0.49949369859341264,-0.23438032897629713,0.3206075183994901,-0.6207467711356034,-0.28324754718340794,0.19125482092638157,-0.01633428195500919,-0.42042455823780966,-0.6658041264692642,-0.1235022157428558,0.792875429099619,0.6594296558281489,-0.0001576503141356156,-0.9686461335500887,-0.7998626819904133,0.050252905610215226,-0.3226241034695647,-0.3937230372915279,0.43994088556099165,-0.9739325294391106,-0.009955084806881453,-0.5093586974248934,0.1013287736629025,-0.45599246076457955,-0.7904520035905191,-0.640574036185686,-0.7105215586881322,-0.6433146664021081,-0.5564327330880288,-0.4317568122491251,-0.8388575747801252,-0.7150909063260602,-0.04227933417592156,0.3950649964297184,0.3041867984350255,-0.6328831210734993,-0.959974485875999,-0.7384745594655497,0.7426938091666271,-0.5669929867060728,-0.863312177189061,-0.13319010435888157,-0.11673197414547509,-0.8775958785906286,0.731280396809842,0.11595336350596286,-0.048911703071310986,0.7308711391970648,0.038109311888289366
0.2797495449229981,0.5163091868005636,-0.6610219338241683,-0.16888765418399931,-0.40825000646016885,-0.48912788025830345,0.35376828960056517,-0.7281975477864125,-0.5508179923275252,-0.044203472056989046,-0.5214207426040425,-0.6707481281156031,-0.25107708875936785,-0.4561662533670745,0.12298510745211466,-0.589276662773401,-0.6295323611434009,0.11628230963507602,0.711290744121744,-0.658487377124841,0.9990937479766504,0.5673934220016201,0.6876493860333142,-0.510303344056775,-0.28383592552346903,-0.6887272722158448,-0.004558501560191219
