0.45937568337375123,0.5149932897461456,-0.08711770637992022,0.5424893936824384,-0.20398754055067814,0.25782364442263517,-0.6027244327296253,-0.5398393317668506,0.22665058112108327,-0.48564556002393067,0.022861128150713617,0.5082503170563928,-0.37606312074008486,-0.9878819920604724,0.44334802547078933,0.059138249085261,0.49115807817228196,0.8746223510168398,-0.7382606045020828,0.3081537883633212,0.8596994985933186,0.056779120511597725,-0.4997390118038767,0.2030040597056677,0.46932214931477567,0.3828079486629179,-0.03469978927187589,-0.5344859977726648,-0.10153797390701169,0.7615774552806107,-0.8514607389517892,-0.8836148160076782,0.4906024573106247,-0.3279531429979594,0.2203099925295413,0.4619419605198767,0.7520255185959395,0.4805473852505353,0.9501126239475326,-0.034978325006017164,0.3860262981064473,-0.4919865092108977,-0.3450150900467306,-0.8001806894003918,-0.2098367409424029,0.7845150446046723,0.40085646593227287,-0.1475685187099347,0.6731286762218114,-0.8163428632179544,-0.3302774495543015,-0.13479584158114966,-0.8857589099456746,0.4470068899177877,0.6092328083495873,0.22887700469176253,0.975662324609788,0.12798923067798396,0.5102703500740444,-0.8775137926060264,-0.007211705826190906,0.8447724942204176,-0.3680158675566563,0.5634704701980457,-0.4649937386978573,-0.952109462129995,-0.5670674347963311,-0.7201849422574516,-0.689150863219071,-0.6502868303940132,-0.9262886441377309,0.08800964111349985,-0.4298698433299877,-0.12747631614409838,0.39417916066782976,-0.08658530273575349,0.8407260153719536,0.8086037625922455,0.3081785754088937,-0.44346577188245284,0.9314109615690316,0.5302224047706625,-0.6681205849461143,-0.3348390400563772,0.5102680920082159,-0.5652672731953765,0.7058031453842535,0.942539659959279,-0.8302610577491201,-0.21715385015606548,-0.05316503549437335,0.7684983777126877,0.5771218057062981,-0.16568579520871984,-0.4350368593505738,-0.22271842493397576,0.138397161743387,0.9930796842649114,0.7195544425713338,0.03674864166715741,0.9079127023219087,-0.4852912594327181,0.5018806111934804,-0.4669177053257154,-0.47320161055417276,0.19920012015067523,-0.8569981393654569,0.7542810811272405,0.25885319182560274,-0.6757094643389268,0.901528802122707,-0.26325176283930474,0.6995214296980075,0.9444707613505248,0.12116317654889852,-0.5202638655038685,0.3403343366445497,-0.44188890115528934,0.3078220681204107,-0.3952361523634369,-0.3363637893656153,-0.4320027382419642,0.1935885826045749,-0.3025471227299936,-0.8075241639868953,0.5723054859731795,-0.7641237976696942,-0.2619874459812679,0.8273818958794412,-0.6982131553647857,-0.43164364339734584,0.4470097385160303,-0.8714601517019969,0.8953322191419206,-0.5305270754372284,0.6188865278140023,-0.5221437862283542,0.7709917162311137,-0.4202610847887427,0.19786867580923362,-0.5936366515109142,0.40040447709780436,0.23115134640928603,0.6588211517891469,0.7228827353931626,-0.8992999609497732,-0.10585943322437896,0.6807686057811573,0.4310410061832284,0.7223976409295425,0.8089647380737495,-0.22014800564658965,-0.5578145059538107,-0.021378075261195617,-0.3974392833675795,-0.26073603173252935,-0.12218937404157093,0.25578030945476127,0.7245662102231127,-0.4251860653785471,0.4134150672076933,-0.24260504897476887,-0.3273368492792301,-0.16829529136550359,0.6239833494981224,-0.45969859321466133,-0.37638637318150114,0.1250740286661336,0.686959613879268,0.9760252557638336,-0.3332887546502292,0.7632051676610743,-0.9875213946757613,-0.2834358955543408,0.0982834139227966,-0.9692979818806455,-0.2729853106591389,-0.7598283726481541,-0.8844991390337236,-0.8170623325543256,-0.5872166955052727,-0.2554269620080898,0.07116488840907897,-0.22749378863322955,0.22492033765682073,0.9970620256005684,0.4124810137675232,-0.8156317882556285,0.4237033035624447,-0.09255965387906384,0.8988132787785046,0.6009508609491834,-0.5626648773011842,-0.8346707792383246,-0.005572848444864276,0.47725000238216553,0.4745075208680205,0.14367886750361714,-0.9089774355859268,0.7602977674380194,0.649451783519462,-0.9398009240711367,-0.11591348618726038,-0.2752694916863767,0.8655479322714352,-0.518694311508767,-0.8213245232589255,-0.9026651796717697,-0.3819074398591997,-0.41198756957346006,-0.06668912766935486,-0.9562777099253608,0.31154082308819153,0.19472820846206762,-0.3200735197765745,0.44585034282093483,-0.8623461279089202,0.29440805241768797,0.4325706795149522,0.537856532145796,-0.23983256934994301,0.5191962807783097,0.7702241762355093,0.18357733217456174,-0.29713006440857503,0.6159541101044261,0.687859586935291,0.7077182306959919,-0.1134833415917158,-0.046684779333748816,-0.95586118329569,-0.37257651493948396,-0.04758980423738768,-0.48751136483177593,0.12188062299285174,-0.8536533664263426,0.6281652539859413,0.698021986336258,0.09930925650652078,0.13522803841666042,0.744343908736288,-0.38044314276595936,-0.7441133392840442,-0.36480925360513083,0.3994680889933697,0.9327256563540207,0.04780499489761114,-0.8517516450630247,0.7746788055047751,-0.31702591597198126,-0.6551952007598962,0.43390096469857276,-0.7439817135393871,0.47563375319689016,-0.26242902417179903,-0.868460721191129,0.6320240156854309,0.5932370846114499,0.47185587076474533,-0.850994403089443,0.8399680606003863,-0.22658916745907165,0.932940092764184,-0.18941921772791126,-0.5477542775889772,0.7277496325683483,0.5320535634031645,0.37002124990435004,-0.8880700360412204,-0.5383997149246251,-0.5092319495066304,-0.4192329896732625,-0.2662119394548703,0.42563926497725957,-0.9516283401531096,-0.27828833538135345,0.7308603669279783,-0.4778397173544604,0.7696448777013061,0.025050171729079418,-0.3217578743895635,-0.8348053450021695,0.3800042559392218,-0.19087186757071883,0.34797100800645553,0.37858427050325316,0.44543859136369135,0.49999323868324197,0.13348836969635736,-0.9442263018897841,0.1783540989977963,-0.5657855081262058,-0.5956686903850921,0.04574236324391645,0.8870925604264102,0.8516731735108114,-0.5504320281770765,0.3987290323960906,-0.6383395738100088,0.5456722660662565,-0.7034274634872417,0.7559183292956606,0.5108954664260685,0.5746429339731856,-0.5469983060671919,-0.4335378795066085,0.9127562543497443,0.7504114096210317,-0.2371868573032132,-0.2599393307844706,0.175741910479559,-0.2080252878427029,-0.9083966862098503,-0.6565217531226257,0.5310483256264609,0.08593155979947564,0.7351191973629769,0.4906135276987955,-0.20514719902644973,0.6269632550885131,-0.11889415946104842,-0.8145608666645545,0.5364374592230281,-0.25148315919210273,-0.4513787497235824,-0.001267532971940044,0.5426672688371981,0.6365449174143565,0.14648975969662126,0.9295785363227529,0.05116870760182368,0.2451141583198575,-0.6693605766008741,0.3187602372480529,-0.6111408181236206,-0.9761622511861028,-0.36286337108076516,0.6475609372559281,0.4658362094305175,0.22225701617808258,-0.8592332301605512,0.34488785667618904,-0.7179830304359018,0.9204667451925403,-0.05925276475525898,-0.886266200448053,0.14552587192069177,0.315600325923872,-0.9135833962835198,0.0574400592441362,-0.43817661721503254,0.7356359918565778,0.22946997110050704,-0.6194074057578822,0.8050509548957039,-0.1328326195146976,-0.4950160371787866,0.639097316561948,0.07117919346775414,-0.12057289724374831,0.10495897906848817,-0.6958711252956145,0.18997419555392736,-0.5504260884764296,-0.5038393878350842,-0.031634533555880306,0.10863238594591751,0.6307760088217107,-0.6827485125290753,-0.8433388423104737,-0.013432360757767547,0.039530540910452716,-0.07269067050423628,0.20945857746344765,0.4427537814474345
-0.5515134006256086,0.5432068132760501,-0.5734000238364804,0.414865952516134,-0.0709545801100101,-0.07290605291416985,-0.30443708301166006,-0.5397881135407772,-0.3279563133880474,-0.3472342599671474,-0.9036792759951775,0.555152932363473,-0.777690474035313,-0.06374066703868897,0.17248302634138435,0.10659942955817803,-0.5773977213506007,-0.4952675368424284,0.37461472058614254,-0.05329316175207033,0.6911780743369502,-0.5148615571024417,-0.26407974691192004,-0.2901240871458024,-0.8412318953787901,-0.10039658223812042,-0.4205890644968797,-0.354067841573534,-0.9950255208509422,-0.2933048593501155,-0.7747533484602401,-0.7305795174507796,-0.018387567517096803,0.35040573996821545,-0.553963924575077,0.8146072188655886,-0.1611416810170906,-0.11732621376783958,-0.8087267970631384,-0.14625274686286893,0.8575418518641533,-0.4558881523117666,-0.7816460433510961,-0.45362506269822434,-0.7847562659551846,-0.36191116075468033,-0.7621641217837769,-0.3807738822602472,0.9518939984566193,-0.3162652763353785,-0.31211408293165765,-0.868764846123385,-0.8947099073829734,-0.07128580350148506,-0.26323398620910865,0.3441943943951109,-0.5829454286842423,0.5288029242470345,-0.11362498075153304,-0.4885428105676438,-0.3394566644059369,-0.9490817354391312,-0.888723873095877,-0.9839578953265546,-0.27021212256600136,-0.6482185755394778,-0.6569691976152889,-0.8012130053970141,-0.16308406710024725,-0.19242641390094084,0.3064274753705425,0.9182357025683026,-0.5689189846931582,-0.05948494437857188,-0.8688025602609283,-0.43806727541690593,-0.24953462189821174,-0.5071911443216339,-0.250474062267273,-0.43932321177538103,0.05607188668487728,-0.3008884716675072,-0.575193773964163,0.5932554174166644,-0.8599838014641519,0.5304952025523939,-0.7907734001489464,-0.7759057726492595,-0.3632358805987982,-0.5058698262006437,-0.01930842684049061,-0.5495826813715896,0.03863770109744369,-0.7701914866195992,-0.49607748254837336,-0.24121886118980562,-0.35442412407703516,-0.6183594177962656,-0.6917063865857729,-0.9857195526498324,-0.7956093518929802,-0.37180514068553994,-0.7601787675330126,-0.7950823594238379,0.15891935651480815,0.9824809845610036,-0.6719522781071829,0.3057560914911446,-0.5361876068322214,-0.39975252053856647,-0.750789490707744,-0.17472044231425987,-0.6679634041978095,-0.21482873493402,-0.4055532453655586,-0.5699067351540744,-0.11941277109283155,-0.018277183076511938,-0.971457542701898,-0.6695300672486015,-0.4562384118628152,-0.6708493475280728,-0.32275425199055996,-0.9167571039608619,-0.23422119493845517,-0.5856964774947828,-0.7033062505884313,-0.48287367327851327,0.20514894206856904,-0.9198487100643034,-0.6212119719278166,0.428434906385154,-0.2699481337060654,-0.14555561441835863,-0.3841046140956792
-0.3760561398661032,-0.05325995492813562,-0.7779963897172024,-0.07130235442272359,-0.6389559874090913,-0.3773983136196385,0.3600597344143215,-0.6909980913138124,-0.20510276644260217,-0.5892599784185166,-0.07481186519005845,-0.8848954568442691,0.5550925906484638,0.9678754586553182,-0.23181615329063288,-0.3386627971324738,0.5483435498124691,-0.35123247871516416,-0.5909876123797695,-0.04930684404984098,-0.22818674832424457,-0.3120236001182566,-0.7318401342192274,-0.538326404145762,-0.6508698374821587,-0.5064317850149268,-0.7643083878024766
0.45937568337375123,0.5149932897461456,-0.08711770637992022,0.5424893936824384,-0.20398754055067814,0.25782364442263517,-0.6027244327296253,-0.5398393317668506,-0.17264012223259861,-0.48564556002393067,0.022861128150713617,0.5082503170563928,-0.37606312074008486,-0.9878819920604724,-0.9889345220291532,0.059138249085261,0.49115807817228196,0.8746223510168398,-0.19093074467073712,0.3081537883633212,0.8596994985933186,0.056779120511597725,-0.4997390118038767,-0.7247951688964724,-0.9743750725211089,0.3828079486629179,-0.03469978927187589,0.3179665972972645,-0.10153797390701169,0.7615774552806107,-0.8514607389517892,-0.8836148160076782,0.4906024573106247,-0.3279531429979594,0.2203099925295413,0.786904120753789,0.7520255185959395,0.4805473852505353,0.9501126239475326,-0.034978325006017164,0.3860262981064473,-0.4919865092108977,-0.3450150900467306,-0.8001806894003918,-0.2098367409424029,0.7845150446046723,0.40085646593227287,-0.1475685187099347,0.6731286762218114,-0.8163428632179544,-0.3302774495543015,-0.8267075340895842,-0.8857589099456746,0.4470068899177877,-0.11687914447556658,0.22887700469176253,0.975662324609788,0.12798923067798396,0.9326982092926108,-0.15979885224934676,-0.007211705826190906,0.8447724942204176,-0.3680158675566563,-0.5267657321472319,-0.4649937386978573,-0.952109462129995,-0.5670674347963311,-0.7201849422574516,-0.689150863219071,0.11236418364775314,-0.9262886441377309,0.08800964111349985,-0.4298698433299877,-0.12747631614409838,0.39417916066782976,-0.08658530273575349,0.8407260153719536,0.8086037625922455,0.3081785754088937,-0.44346577188245284,0.9314109615690316,0.5302224047706625,-0.6681205849461143,-0.3348390400563772,0.5102680920082159,-0.5652672731953765,0.7058031453842535,0.942539659959279,-0.8302610577491201,-0.2820038497039439,-0.05316503549437335,0.7684983777126877,0.5771218057062981,-0.16568579520871984,0.5585823407907513,-0.22271842493397576,-0.09632552529826732,0.9930796842649114,0.7195544425713338,0.739629199272891,0.9079127023219087,0.28226822849493227,-0.3722775132442917,-0.4669177053257154,-0.47320161055417276,0.19920012015067523,-0.8569981393654569,0.7542810811272405,0.25885319182560274,-0.6757094643389268,0.901528802122707,0.6786944485139794,0.6995214296980075,0.9444707613505248,0.12116317654889852,-0.5202638655038685,0.3403343366445497,-0.44188890115528934,0.3078220681204107,-0.3952361523634369,-0.3363637893656153,-0.4320027382419642,0.1935885826045749,-0.3025471227299936,-0.8075241639868953,0.5723054859731795,-0.7641237976696942,-0.2619874459812679,0.38961800076668607,-0.9629397170783345,-0.43164364339734584,0.4470097385160303,-0.8714601517019969,0.8953322191419206,-0.5305270754372284,0.6188865278140023,-0.5221437862283542,0.7709917162311137,-0.4202610847887427,0.19786867580923362,-0.5936366515109142,0.40040447709780436,0.23115134640928603,0.6588211517891469,0.7228827353931626,-0.8992999609497732,-0.10585943322437896,-0.49275511699401386,0.37555653979659076,0.7223976409295425,0.8089647380737495,-0.22014800564658965,-0.5578145059538107,-0.021378075261195617,-0.3974392833675795,-0.26073603173252935,-0.12218937404157093,0.25578030945476127,0.7245662102231127,-0.4251860653785471,0.4134150672076933,-0.24260504897476887,-0.3273368492792301,-0.16829529136550359,0.6239833494981224,-0.45969859321466133,-0.23644526814146993,0.1250740286661336,0.686959613879268,0.9760252557638336,-0.3332887546502292,0.7632051676610743,-0.9875213946757613,-0.2834358955543408,0.0982834139227966,0.1912746901213267,-0.2729853106591389,-0.7598283726481541,-0.8844991390337236,0.5619210673816892,-0.5872166955052727,-0.2554269620080898,0.07116488840907897,0.623608520673854,0.22492033765682073,0.9970620256005684,0.4124810137675232,-0.8156317882556285,0.44163363596698835,-0.09255965387906384,0.8988132787785046,0.6009508609491834,-0.5626648773011842,-0.8346707792383246,0.5109361078976404,0.5750009824901723,0.4745075208680205,0.14367886750361714,-0.9089774355859268,0.7602977674380194,0.649451783519462,-0.9398009240711367,-0.11591348618726038,-0.2752694916863767,0.8655479322714352,-0.518694311508767,-0.8213245232589255,-0.6678214953032917,-0.3819074398591997,-0.41198756957346006,-0.06668912766935486,-0.9562777099253608,-0.4313782545943261,0.19472820846206762,-0.3200735197765745,0.44585034282093483,-0.3148311649335076,0.29440805241768797,0.4325706795149522,0.537856532145796,-0.23983256934994301,0.5191962807783097,0.7702241762355093,0.18357733217456174,-0.29713006440857503,0.6159541101044261,0.687859586935291,0.7077182306959919,-0.1134833415917158,-0.046684779333748816,-0.95586118329569,-0.37257651493948396,-0.04758980423738768,0.6790405277158762,0.8101263952848317,-0.8246568477847636,0.6281652539859413,0.698021986336258,0.09930925650652078,0.13522803841666042,0.744343908736288,-0.38044314276595936,-0.7441133392840442,-0.36480925360513083,0.3994680889933697,0.9327256563540207,0.04780499489761114,-0.8517516450630247,0.7746788055047751,-0.31702591597198126,-0.6551952007598962,0.43390096469857276,-0.7439817135393871,0.47563375319689016,-0.5305515729325017,-0.31423116060552303,0.6320240156854309,0.5780078215696409,0.47185587076474533,-0.850994403089443,0.8399680606003863,0.3185225494035373,0.932940092764184,-0.18941921772791126,-0.5477542775889772,0.7277496325683483,0.5320535634031645,0.37002124990435004,-0.8880700360412204,-0.5383997149246251,-0.4892767198698942,-0.4192329896732625,-0.2662119394548703,0.42563926497725957,-0.9516283401531096,-0.27828833538135345,0.7308603669279783,-0.4778397173544604,0.7696448777013061,0.025050171729079418,0.6532904575294414,-0.8348053450021695,0.3800042559392218,-0.19087186757071883,0.34797100800645553,0.9382103802094375,0.44543859136369135,-0.9863673578866197,0.13348836969635736,-0.9442263018897841,0.1783540989977963,-0.5657855081262058,-0.5956686903850921,0.04574236324391645,0.8870925604264102,-0.2995064400221179,-0.5504320281770765,0.3987290323960906,-0.6383395738100088,0.000821121991368079,-0.7034274634872417,0.7559183292956606,0.5108954664260685,0.5746429339731856,-0.5469983060671919,-0.4335378795066085,0.9127562543497443,0.8055132044037909,0.9388988214539595,-0.2599393307844706,0.2962576332430531,-0.2080252878427029,-0.9083966862098503,-0.6565217531226257,0.5310483256264609,0.08593155979947564,0.7351191973629769,0.4906135276987955,-0.20514719902644973,0.6269632550885131,-0.11889415946104842,-0.8145608666645545,0.5364374592230281,-0.25148315919210273,-0.4513787497235824,-0.001267532971940044,-0.5517690029051998,0.6365449174143565,0.14648975969662126,0.9295785363227529,-0.527126012375853,0.2451141583198575,-0.5264934373692229,0.3421088261943712,-0.6111408181236206,0.4858557769957135,-0.36286337108076516,0.6475609372559281,-0.22037550767986192,0.22225701617808258,-0.8592332301605512,0.34488785667618904,-0.41180900456055824,0.9204667451925403,-0.05925276475525898,-0.886266200448053,0.14552587192069177,0.315600325923872,-0.9135833962835198,0.0574400592441362,-0.43817661721503254,0.7356359918565778,0.22946997110050704,0.685065156853786,-0.3998538716419433,-0.3741272794784565,-0.4950160371787866,-0.12429113757316479,0.07117919346775414,-0.12057289724374831,0.10495897906848817,-0.6958711252956145,0.18997419555392736,-0.5504260884764296,-0.5038393878350842,-0.423879045056625,0.10863238594591751,0.7565528030311381,-0.6827485125290753,-0.8433388423104737,-0.013432360757767547,0.2235419592774912,-0.8123316756238921,0.20945857746344765,0.4427537814474345
-0.5515134006256086,0.5432068132760501,-0.5734000238364804,-0.4670945495893608,-0.0709545801100101,-0.07290605291416985,-0.30443708301166006,-0.5397881135407772,-0.3279563133880474,-0.3472342599671474,-0.9036792759951775,0.555152932363473,-0.777690474035313,-0.06374066703868897,0.17248302634138435,0.10659942955817803,-0.8197481271479754,-0.4952675368424284,0.37461472058614254,-0.05329316175207033,0.6911780743369502,-0.5148615571024417,-0.26407974691192004,-0.2901240871458024,-0.8412318953787901,-0.10039658223812042,0.4546779975414743,-0.354067841573534,-0.9950255208509422,-0.2933048593501155,-0.7747533484602401,-0.4615215766190839,-0.018387567517096803,0.35040573996821545,-0.553963924575077,0.8146072188655886,-0.1611416810170906,-0.11732621376783958,-0.8087267970631384,-0.14625274686286893,-0.12113853938212582,-0.4558881523117666,-0.7816460433510961,-0.45362506269822434,-0.7847562659551846,-0.36191116075468033,-0.7621641217837769,-0.3807738822602472,0.9518939984566193,-0.3162652763353785,-0.31211408293165765,-0.868764846123385,-0.8947099073829734,-0.07128580350148506,-0.26323398620910865,0.3441943943951109,-0.5829454286842423,0.5288029242470345,-0.11362498075153304,-0.4885428105676438,-0.008325049808248997,-0.9490817354391312,-0.888723873095877,-0.9839578953265546,0.26731865927687815,-0.5105682207456939,-0.6569691976152889,-0.8012130053970141,-0.16308406710024725,-0.19242641390094084,0.3064274753705425,0.9182357025683026,-0.5689189846931582,-0.38938585602729714,-0.8688025602609283,-0.43806727541690593,-0.24953462189821174,-0.5071911443216339,-0.250474062267273,-0.43932321177538103,0.05607188668487728,-0.3008884716675072,-0.575193773964163,0.5932554174166644,-0.8599838014641519,0.3402269468836314,-0.7907734001489464,-0.7759057726492595,-0.3632358805987982,-0.5058698262006437,-0.01930842684049061,-0.7921442139310434,0.03863770109744369,-0.7701914866195992,-0.49607748254837336,-0.24121886118980562,-0.35442412407703516,0.03192705251166861,-0.6917063865857729,-0.9857195526498324,-0.7956093518929802,-0.37180514068553994,-0.7601787675330126,-0.7950823594238379,0.15891935651480815,0.6564979871470031,-0.6719522781071829,0.3057560914911446,-0.2271358413475495,-0.39975252053856647,-0.750789490707744,-0.17472044231425987,-0.6679634041978095,-0.21482873493402,-0.740291028842659,-0.5699067351540744,-0.11941277109283155,-0.018277183076511938,-0.971457542701898,-0.6695300672486015,0.09882392343902513,0.984935716896195,-0.32275425199055996,-0.01034737257371443,-0.23422119493845517,-0.5856964774947828,-0.7033062505884313,0.450904514476854,0.20514894206856904,0.946526738896815,-0.6212119719278166,0.428434906385154,-0.6944556679338072,-0.14555561441835863,-0.3841046140956792
0.9805335357920355,-0.05325995492813562,-0.7779963897172024,0.04772583702108801,-0.6389559874090913,-0.3773983136196385,0.3600597344143215,-0.6909980913138124,-0.20510276644260217,-0.5892599784185166,-0.07481186519005845,-0.8848954568442691,0.5550925906484638,0.9678754586553182,-0.23181615329063288,0.9997413201596448,0.5483435498124691,-0.35123247871516416,-0.5909876123797695,-0.04930684404984098,-0.22818674832424457,-0.3120236001182566,-0.7318401342192274,-0.538326404145762,-0.6508698374821587,-0.5064317850149268,-0.7643083878024766
0.45937568337375123,0.5149932897461456,0.660610244438405,0.5424893936824384,-0.20398754055067814,0.25782364442263517,0.5907181663851624,-0.5398393317668506,0.22665058112108327,-0.48564556002393067,0.022861128150713617,0.5082503170563928,-0.37606312074008486,-0.9878819920604724,0.44334802547078933,0.059138249085261,0.49115807817228196,0.8746223510168398,-0.19093074467073712,0.3081537883633212,0.8596994985933186,0.056779120511597725,0.7862077456232006,-0.8952029694466628,-0.43125687654696976,0.3828079486629179,-0.03469978927187589,0.3179665972972645,-0.10153797390701169,0.7615774552806107,-0.8514607389517892,-0.8836148160076782,0.8078147447038715,-0.3279531429979594,0.2203099925295413,0.4619419605198767,0.7520255185959395,0.4805473852505353,0.9501126239475326,-0.034978325006017164,0.3860262981064473,-0.4919865092108977,-0.3450150900467306,-0.8001806894003918,-0.2098367409424029,0.7845150446046723,0.40085646593227287,-0.1475685187099347,0.6731286762218114,-0.8163428632179544,-0.3302774495543015,-0.8267075340895842,0.05044609778544529,0.4470068899177877,0.6092328083495873,0.22887700469176253,0.975662324609788,0.12798923067798396,-0.061760222007069876,-0.15979885224934676,-0.8802316517176929,-0.9526214799461448,-0.3680158675566563,-0.5543753467656385,-0.4649937386978573,-0.952109462129995,-0.5670674347963311,-0.7201849422574516,-0.689150863219071,0.11236418364775314,-0.9262886441377309,0.08800964111349985,-0.28844351568122506,-0.12747631614409838,0.39417916066782976,-0.08658530273575349,0.8407260153719536,0.8086037625922455,0.3081785754088937,-0.44346577188245284,0.9314109615690316,0.5302224047706625,-0.6681205849461143,-0.3348390400563772,0.5102680920082159,-0.5652672731953765,0.1297653860221064,0.942539659959279,-0.8302610577491201,-0.2820038497039439,-0.05316503549437335,0.7684983777126877,0.7175586114487518,-0.16568579520871984,0.5585823407907513,-0.22271842493397576,0.138397161743387,0.9930796842649114,0.7195544425713338,0.739629199272891,0.9079127023219087,0.9849676224174326,-0.3722775132442917,-0.4669177053257154,0.294899696753103,0.19920012015067523,-0.8569981393654569,0.7542810811272405,0.25885319182560274,0.2082342678966871,0.901528802122707,0.6786944485139794,0.6995214296980075,0.9444707613505248,-0.9353168064475375,-0.5202638655038685,0.3403343366445497,-0.553646302073816,0.3078220681204107,-0.3952361523634369,-0.3363637893656153,-0.4320027382419642,0.1935885826045749,-0.3025471227299936,-0.8075241639868953,0.5723054859731795,-0.7641237976696942,-0.2619874459812679,0.8273818958794412,-0.6982131553647857,-0.43164364339734584,0.4470097385160303,-0.8714601517019969,0.8953322191419206,-0.5305270754372284,0.6188865278140023,-0.5221437862283542,0.7709917162311137,-0.4202610847887427,0.19786867580923362,-0.5936366515109142,0.40040447709780436,0.23115134640928603,0.6588211517891469,0.7228827353931626,-0.31572151364721157,-0.10585943322437896,-0.49275511699401386,0.37555653979659076,0.7223976409295425,0.8089647380737495,-0.22014800564658965,-0.5578145059538107,-0.021378075261195617,0.8068185775156533,-0.26073603173252935,-0.12218937404157093,0.25578030945476127,0.7245662102231127,-0.4251860653785471,0.33755251805866493,-0.24260504897476887,0.882781872712294,-0.16829529136550359,0.6239833494981224,-0.45969859321466133,-0.23644526814146993,0.1250740286661336,0.686959613879268,0.9760252557638336,-0.3332887546502292,0.7632051676610743,0.6895663425675842,0.48790198831338216,0.0982834139227966,-0.9692979818806455,-0.2729853106591389,-0.7598283726481541,-0.8844991390337236,-0.8170623325543256,-0.5872166955052727,-0.2554269620080898,0.07116488840907897,-0.22749378863322955,0.22492033765682073,0.9970620256005684,0.4124810137675232,-0.8156317882556285,-0.30378936080066943,-0.09255965387906384,0.8988132787785046,0.6009508609491834,-0.5626648773011842,-0.8346707792383246,0.5109361078976404,-0.6788152782057308,0.4745075208680205,0.14367886750361714,-0.9089774355859268,0.7602977674380194,0.649451783519462,-0.9398009240711367,-0.11591348618726038,-0.2752694916863767,-0.31833919820481604,-0.518694311508767,-0.8213245232589255,-0.9026651796717697,-0.3819074398591997,-0.41198756957346006,-0.06668912766935486,-0.9562777099253608,0.31154082308819153,0.19472820846206762,-0.3200735197765745,0.44585034282093483,-0.3148311649335076,0.29440805241768797,0.4325706795149522,0.537856532145796,-0.23983256934994301,0.5191962807783097,0.7702241762355093,-0.2106847192317589,-0.29713006440857503,0.6159541101044261,0.687859586935291,0.427286569392749,-0.1134833415917158,-0.46935385746524316,-0.33651222129790836,-0.37257651493948396,-0.04758980423738768,-0.48751136483177593,0.8101263952848317,0.7300545566961267,0.8465688128933899,0.698021986336258,0.09930925650652078,0.13522803841666042,0.12927627252479557,-0.38044314276595936,-0.7441133392840442,-0.36480925360513083,0.3994680889933697,-0.5582517563515021,0.04780499489761114,-0.8517516450630247,0.7746788055047751,-0.31702591597198126,-0.4424467834603334,-0.2099328490621879,-0.7439817135393871,0.47563375319689016,-0.5305515729325017,-0.868460721191129,0.6320240156854309,0.5780078215696409,-0.509135894312222,-0.850994403089443,0.8399680606003863,-0.22658916745907165,0.932940092764184,-0.06454417451518712,-0.5477542775889772,-0.16347933536880443,0.5320535634031645,0.37002124990435004,-0.8880700360412204,-0.5383997149246251,-0.5092319495066304,-0.4192329896732625,-0.2662119394548703,0.42563926497725957,-0.9516283401531096,-0.27828833538135345,0.7308603669279783,-0.4778397173544604,0.7696448777013061,-0.5269094546788433,0.4121100757138436,-0.8348053450021695,0.3800042559392218,-0.19087186757071883,0.34797100800645553,0.37858427050325316,-0.10313821853761507,0.49999323868324197,0.13348836969635736,-0.9442263018897841,0.1783540989977963,-0.5657855081262058,-0.5956686903850921,0.04574236324391645,0.8870925604264102,0.8288152777833251,-0.5504320281770765,0.3987290323960906,-0.6383395738100088,0.3160044358281411,-0.7034274634872417,0.7559183292956606,0.5108954664260685,-0.9680163988658477,-0.5469983060671919,-0.4335378795066085,0.9127562543497443,0.8055132044037909,0.9388988214539595,0.15402372558379507,0.175741910479559,-0.2080252878427029,-0.9083966862098503,-0.6565217531226257,0.5310483256264609,0.08593155979947564,-0.4093086865338602,0.45746788034437635,-0.10439607682078189,0.40035151845065964,-0.11889415946104842,-0.8145608666645545,0.24253988313595443,-0.25148315919210273,-0.4513787497235824,-0.001267532971940044,-0.5517690029051998,0.6323753759321116,0.14648975969662126,0.9295785363227529,-0.527126012375853,0.2451141583198575,-0.5264934373692229,0.9285550712995345,-0.6111408181236206,0.4858557769957135,-0.36286337108076516,0.6475609372559281,0.4658362094305175,0.22225701617808258,-0.8592332301605512,0.29980499870929167,-0.7179830304359018,0.9204667451925403,-0.05925276475525898,-0.886266200448053,0.14552587192069177,0.5774234063816632,-0.9135833962835198,0.0574400592441362,-0.43817661721503254,0.7356359918565778,0.22946997110050704,0.685065156853786,-0.3998538716419433,-0.1328326195146976,-0.4950160371787866,-0.12429113757316479,0.07117919346775414,-0.12057289724374831,0.10495897906848817,-0.6958711252956145,0.18997419555392736,-0.5504260884764296,-0.5038393878350842,-0.423879045056625,-0.6688797873243735,0.6307760088217107,-0.6827485125290753,-0.8433388423104737,-0.013432360757767547,0.2235419592774912,-0.8123316756238921,0.20945857746344765,0.4427537814474345
-0.5515134006256086,0.5432068132760501,-0.5734000238364804,-0.4670945495893608,-0.0709545801100101,-0.07290605291416985,-0.30443708301166006,-0.5397881135407772,-0.3279563133880474,-0.3472342599671474,0.7581821641872442,0.555152932363473,-0.777690474035313,-0.06374066703868897,-0.04288567408655397,-0.14330131571764793,-0.5773977213506007,-0.4952675368424284,-0.731755804185209,-0.05329316175207033,0.6911780743369502,-0.5148615571024417,-0.26407974691192004,-0.2901240871458024,-0.8344783000005064,-0.10039658223812042,-0.4205890644968797,-0.354067841573534,-0.9950255208509422,-0.2933048593501155,-0.7747533484602401,-0.4615215766190839,-0.018387567517096803,0.35040573996821545,-0.553963924575077,0.8146072188655886,-0.1611416810170906,-0.11732621376783958,-0.8087267970631384,-0.14625274686286893,-0.42780248053592285,-0.4558881523117666,-0.7816460433510961,-0.45362506269822434,-0.7847562659551846,-0.36191116075468033,-0.7621641217837769,-0.3807738822602472,0.9518939984566193,-0.3162652763353785,-0.31211408293165765,-0.868764846123385,-0.8947099073829734,-0.07128580350148506,-0.26323398620910865,-0.4284074802961739,-0.5829454286842423,0.4372338472794115,-0.11362498075153304,-0.4885428105676438,-0.3394566644059369,-0.9490817354391312,0.8861511584577799,-0.8651560924618142,-0.27021212256600136,-0.6482185755394778,-0.6569691976152889,-0.8012130053970141,-0.16308406710024725,0.922093793679045,-0.34084592565329874,0.9182357025683026,0.09949247700308028,-0.05948494437857188,-0.8688025602609283,-0.43806727541690593,-0.24953462189821174,-0.05395423219853268,-0.250474062267273,-0.43932321177538103,-0.6720663366707726,-0.3008884716675072,-0.8725628831684946,0.9197754611297013,-0.8285186149288913,0.5304952025523939,-0.7907734001489464,-0.7759057726492595,-0.3632358805987982,-0.5058698262006437,-0.01930842684049061,-0.7921442139310434,0.03863770109744369,-0.7701914866195992,-0.49607748254837336,-0.24121886118980562,-0.35442412407703516,-0.6183594177962656,-0.6917063865857729,-0.9857195526498324,-0.7956093518929802,-0.37180514068553994,-0.7601787675330126,-0.7950823594238379,0.9448847562290981,0.6564979871470031,-0.6719522781071829,0.3057560914911446,-0.5361876068322214,-0.39975252053856647,-0.750789490707744,-0.17472044231425987,-0.6679634041978095,-0.21482873493402,-0.4055532453655586,-0.5699067351540744,-0.11941277109283155,-0.018277183076511938,-0.971457542701898,0.35650826446633754,0.21901461729128768,-0.6708493475280728,-0.32275425199055996,-0.9167571039608619,-0.23422119493845517,-0.5856964774947828,-0.7033062505884313,-0.48287367327851327,0.20514894206856904,-0.9198487100643034,-0.6212119719278166,0.9806240510224764,-0.2699481337060654,-0.14555561441835863,-0.3841046140956792
-0.3760561398661032,-0.05325995492813562,-0.7779963897172024,-0.07130235442272359,-0.6389559874090913,0.9697501351128346,0.3600597344143215,-0.6909980913138124,-0.20510276644260217,-0.5892599784185166,-0.025601232749866032,-0.8848954568442691,0.5550925906484638,0.9678754586553182,-0.23181615329063288,-0.3386627971324738,0.5483435498124691,-0.35123247871516416,-0.5909876123797695,-0.04930684404984098,-0.22818674832424457,-0.3120236001182566,-0.7318401342192274,-0.538326404145762,-0.6508698374821587,-0.5064317850149268,-0.7643083878024766
0.45937568337375123,0.5149932897461456,0.660610244438405,0.5424893936824384,-0.20398754055067814,0.25782364442263517,-0.6027244327296253,-0.5398393317668506,0.22665058112108327,-0.48564556002393067,0.022861128150713617,0.5082503170563928,-0.37606312074008486,-0.9878819920604724,-0.9889345220291532,0.059138249085261,0.49115807817228196,0.8746223510168398,-0.19093074467073712,0.3081537883633212,0.8596994985933186,0.056779120511597725,-0.4997390118038767,-0.8952029694466628,-0.6811653996761269,0.3828079486629179,-0.03469978927187589,-0.5344859977726648,-0.10153797390701169,0.7615774552806107,-0.8514607389517892,-0.8836148160076782,0.8078147447038715,-0.3279531429979594,0.2203099925295413,0.786904120753789,0.7520255185959395,0.4805473852505353,0.9501126239475326,-0.034978325006017164,0.3860262981064473,-0.4919865092108977,-0.3450150900467306,-0.8001806894003918,-0.2098367409424029,0.7845150446046723,0.40085646593227287,-0.1475685187099347,0.6731286762218114,-0.08663658125188389,-0.3302774495543015,-0.8267075340895842,-0.8857589099456746,0.4470068899177877,-0.11687914447556658,0.22887700469176253,0.975662324609788,0.12798923067798396,0.9326982092926108,-0.15979885224934676,-0.007211705826190906,-0.5289433432077595,-0.376724674164862,-0.5267657321472319,-0.4649937386978573,-0.952109462129995,-0.5670674347963311,-0.7201849422574516,-0.689150863219071,-0.6502868303940132,-0.9262886441377309,0.08800964111349985,-0.4298698433299877,0.5922305925447504,0.39417916066782976,-0.08658530273575349,0.8407260153719536,0.8086037625922455,0.3081785754088937,-0.44346577188245284,0.9314109615690316,0.5302224047706625,-0.6681205849461143,-0.3348390400563772,0.5102680920082159,-0.5652672731953765,0.7058031453842535,0.942539659959279,-0.8302610577491201,-0.21715385015606548,-0.05316503549437335,-0.33499131906346524,0.7562487274508853,-0.16568579520871984,0.5585823407907513,-0.22271842493397576,0.138397161743387,0.9930796842649114,0.7195544425713338,0.03674864166715741,0.9079127023219087,0.9849676224174326,-0.3722775132442917,-0.4669177053257154,-0.47320161055417276,-0.8644051504293886,-0.8569981393654569,0.7542810811272405,0.5501729090276848,-0.6757094643389268,0.901528802122707,-0.26325176283930474,0.6995214296980075,0.9444707613505248,-0.9353168064475375,-0.39134716000218916,0.3403343366445497,-0.44188890115528934,0.3078220681204107,-0.3952361523634369,-0.3363637893656153,-0.4320027382419642,0.1935885826045749,-0.3025471227299936,-0.8075241639868953,0.5723054859731795,-0.7641237976696942,-0.2619874459812679,0.38961800076668607,-0.6982131553647857,-0.43164364339734584,0.4470097385160303,-0.8714601517019969,0.8953322191419206,-0.5305270754372284,0.6188865278140023,-0.5221437862283542,0.7709917162311137,-0.4202610847887427,-0.6618896038780002,-0.6466082523380328,0.40040447709780436,0.23115134640928603,0.6588211517891469,0.7228827353931626,-0.8992999609497732,-0.10585943322437896,-0.49275511699401386,0.37555653979659076,0.7223976409295425,0.8089647380737495,-0.22014800564658965,-0.5578145059538107,-0.021378075261195617,0.8068185775156533,-0.26073603173252935,-0.12218937404157093,0.25578030945476127,0.7245662102231127,-0.4251860653785471,0.33755251805866493,-0.24260504897476887,-0.27215828468823133,-0.16829529136550359,0.6239833494981224,-0.8860254525458564,-0.37638637318150114,0.1250740286661336,0.686959613879268,0.9760252557638336,-0.3332887546502292,0.7632051676610743,-0.9875213946757613,0.48790198831338216,0.0982834139227966,-0.9692979818806455,-0.2729853106591389,-0.7598283726481541,-0.8844991390337236,-0.8170623325543256,-0.5872166955052727,-0.2554269620080898,0.07116488840907897,-0.22749378863322955,0.22492033765682073,0.9970620256005684,-0.573993270138565,-0.8156317882556285,0.4237033035624447,-0.09255965387906384,0.8988132787785046,0.6009508609491834,-0.5626648773011842,-0.8346707792383246,0.5109361078976404,0.47725000238216553,0.4745075208680205,0.14367886750361714,-0.9089774355859268,0.7602977674380194,0.649451783519462,-0.9398009240711367,-0.11591348618726038,-0.4409429795138502,-0.31833919820481604,-0.518694311508767,-0.8213245232589255,-0.9026651796717697,-0.7073123753157231,-0.41198756957346006,-0.06668912766935486,-0.9562777099253608,0.31154082308819153,0.19472820846206762,-0.3200735197765745,0.44585034282093483,-0.8623461279089202,-0.21964717769215136,0.4325706795149522,0.537856532145796,-0.23983256934994301,0.5191962807783097,0.7702241762355093,-0.2106847192317589,-0.5860750989574668,0.6159541101044261,0.687859586935291,0.7077182306959919,-0.1134833415917158,-0.046684779333748816,-0.95586118329569,-0.37257651493948396,-0.04758980423738768,0.6790405277158762,0.12188062299285174,-0.8246568477847636,0.6281652539859413,0.698021986336258,0.09930925650652078,0.13522803841666042,0.12927627252479557,-0.38044314276595936,-0.7441133392840442,-0.36480925360513083,0.3994680889933697,0.9327256563540207,0.04780499489761114,-0.8517516450630247,0.7746788055047751,-0.31702591597198126,-0.6551952007598962,0.43390096469857276,-0.7439817135393871,0.48197463223328607,-0.26242902417179903,-0.868460721191129,0.6320240156854309,0.5780078215696409,0.47185587076474533,0.8447163637766195,0.8399680606003863,0.3185225494035373,0.932940092764184,-0.18941921772791126,-0.5477542775889772,0.7277496325683483,0.5320535634031645,0.37002124990435004,-0.8880700360412204,-0.5383997149246251,-0.5092319495066304,-0.4192329896732625,-0.2662119394548703,0.42563926497725957,-0.6345175099467693,-0.27828833538135345,0.7308603669279783,-0.4778397173544604,0.7696448777013061,-0.5269094546788433,0.5049756654848028,-0.8348053450021695,0.3800042559392218,0.6384427533930441,0.34797100800645553,0.9382103802094375,0.44543859136369135,-0.9863673578866197,-0.9431606904912782,-0.9442263018897841,0.1783540989977963,-0.5657855081262058,-0.5956686903850921,0.04574236324391645,0.8870925604264102,-0.2995064400221179,-0.5504320281770765,0.3987290323960906,-0.6383395738100088,0.5456722660662565,-0.7034274634872417,0.7559183292956606,-0.4249390224638103,0.5746429339731856,0.1629199797668237,-0.4335378795066085,0.9127562543497443,0.7504114096210317,0.13571056522106062,-0.2599393307844706,0.2962576332430531,-0.2080252878427029,-0.9083966862098503,-0.6565217531226257,0.5310483256264609,0.08593155979947564,0.7351191973629769,0.4906135276987955,-0.20514719902644973,0.6269632550885131,-0.830596142197491,-0.8145608666645545,0.5364374592230281,-0.25148315919210273,-0.4513787497235824,-0.001267532971940044,-0.31891760559473536,0.6323753759321116,0.14648975969662126,0.9295785363227529,-0.527126012375853,0.2451141583198575,-0.5264934373692229,0.9285550712995345,-0.6111408181236206,0.4858557769957135,-0.36286337108076516,0.6475609372559281,-0.4715165050672041,0.22225701617808258,-0.8592332301605512,0.34488785667618904,-0.7112285012168711,0.9204667451925403,-0.05925276475525898,-0.886266200448053,0.14552587192069177,0.315600325923872,-0.9135833962835198,0.0574400592441362,-0.43817661721503254,0.11403452742503695,0.22946997110050704,0.685065156853786,0.8050509548957039,-0.3741272794784565,-0.4950160371787866,-0.4928776918705573,0.07117919346775414,-0.12057289724374831,0.10495897906848817,-0.6958711252956145,0.18997419555392736,-0.5504260884764296,-0.5038393878350842,-0.031634533555880306,-0.6688797873243735,0.7565528030311381,-0.6827485125290753,0.1377557569308021,-0.013432360757767547,0.2235419592774912,-0.07269067050423628,0.20945857746344765,0.4427537814474345
-0.5515134006256086,0.22049875841828248,-0.5734000238364804,-0.4670945495893608,-0.0709545801100101,-0.07290605291416985,-0.30443708301166006,-0.5397881135407772,-0.3279563133880474,-0.3472342599671474,0.7581821641872442,0.555152932363473,-0.777690474035313,-0.06374066703868897,0.17248302634138435,0.10659942955817803,-0.5773977213506007,-0.4952675368424284,-0.8555194812686553,-0.05329316175207033,0.6911780743369502,-0.5148615571024417,-0.26407974691192004,-0.2901240871458024,-0.8412318953787901,-0.10039658223812042,-0.4205890644968797,-0.354067841573534,-0.9950255208509422,-0.2933048593501155,-0.7747533484602401,-0.4615215766190839,-0.018387567517096803,0.35040573996821545,-0.553963924575077,0.8146072188655886,-0.1611416810170906,-0.11732621376783958,-0.8087267970631384,-0.14625274686286893,-0.42780248053592285,-0.4558881523117666,-0.7816460433510961,-0.45362506269822434,-0.7847562659551846,-0.36191116075468033,-0.7621641217837769,-0.3807738822602472,0.9518939984566193,-0.3162652763353785,-0.31211408293165765,-0.868764846123385,-0.8947099073829734,-0.07128580350148506,-0.26323398620910865,0.3441943943951109,-0.5829454286842423,0.5288029242470345,-0.11362498075153304,-0.4885428105676438,-0.3394566644059369,-0.9490817354391312,-0.888723873095877,-0.9839578953265546,-0.27021212256600136,-0.6482185755394778,-0.6569691976152889,-0.8012130053970141,-0.16308406710024725,-0.19242641390094084,0.3064274753705425,0.9182357025683026,-0.5689189846931582,-0.05948494437857188,-0.8688025602609283,-0.43806727541690593,-0.41249351967146297,-0.5071911443216339,-0.250474062267273,-0.43932321177538103,0.05607188668487728,-0.3008884716675072,-0.575193773964163,0.9197754611297013,-0.8599838014641519,-0.08163161220074766,-0.7907734001489464,-0.7759057726492595,-0.3632358805987982,-0.5058698262006437,-0.9491921295552923,-0.7921442139310434,0.03863770109744369,-0.7701914866195992,-0.49607748254837336,-0.24121886118980562,0.6350666103034166,-0.08563659679077018,-0.6917063865857729,-0.9857195526498324,-0.7956093518929802,-0.37180514068553994,-0.7601787675330126,-0.7950823594238379,0.15891935651480815,0.9824809845610036,-0.6719522781071829,0.3057560914911446,-0.2271358413475495,-0.39975252053856647,-0.750789490707744,-0.17472044231425987,-0.6679634041978095,-0.21482873493402,-0.740291028842659,-0.5699067351540744,-0.11941277109283155,-0.018277183076511938,-0.971457542701898,-0.6695300672486015,0.21901461729128768,0.984935716896195,-0.32275425199055996,-0.8082281001495648,-0.23422119493845517,-0.5856964774947828,-0.7033062505884313,0.450904514476854,0.20514894206856904,0.946526738896815,-0.6212119719278166,0.428434906385154,0.7072637699522548,-0.14555561441835863,-0.3841046140956792
-0.3760561398661032,-0.05325995492813562,-0.7779963897172024,-0.07130235442272359,-0.6389559874090913,-0.3773983136196385,0.3600597344143215,-0.6909980913138124,-0.20510276644260217,-0.5892599784185166,-0.07481186519005845,-0.8848954568442691,0.5550925906484638,0.9678754586553182,-0.23181615329063288,-0.3386627971324738,0.5483435498124691,-0.35123247871516416,-0.5909876123797695,-0.04930684404984098,-0.22818674832424457,-0.3120236001182566,-0.7318401342192274,-0.538326404145762,-0.8652764820309129,-0.5064317850149268,-0.7643083878024766
0.45937568337375123,0.5149932897461456,0.660610244438405,0.5424893936824384,-0.20398754055067814,-0.03320985532162579,-0.6027244327296253,-0.5398393317668506,0.22665058112108327,-0.48564556002393067,0.022861128150713617,0.5082503170563928,-0.37606312074008486,-0.9878819920604724,0.44334802547078933,0.059138249085261,-0.6434474280296769,0.8746223510168398,-0.7382606045020828,0.3081537883633212,0.8596994985933186,0.056779120511597725,-0.4997390118038767,-0.8952029694466628,-0.6811653996761269,0.3828079486629179,-0.03469978927187589,-0.5344859977726648,0.2156635497124313,0.7615774552806107,-0.8514607389517892,-0.8836148160076782,0.8078147447038715,-0.3279531429979594,0.2203099925295413,0.786904120753789,0.3395168248012441,0.4805473852505353,0.9501126239475326,-0.034978325006017164,0.3860262981064473,-0.4919865092108977,-0.3450150900467306,-0.8001806894003918,-0.2098367409424029,0.7845150446046723,0.40085646593227287,-0.1475685187099347,0.6731286762218114,-0.012134104659390799,-0.3302774495543015,-0.8267075340895842,-0.8857589099456746,0.4470068899177877,-0.11687914447556658,0.22887700469176253,0.975662324609788,0.12798923067798396,0.9326982092926108,-0.15979885224934676,-0.007211705826190906,0.8447724942204176,-0.013020686720196961,0.5634704701980457,-0.4649937386978573,-0.952109462129995,-0.5670674347963311,-0.7201849422574516,-0.689150863219071,-0.6502868303940132,-0.9262886441377309,0.08800964111349985,-0.4298698433299877,0.5922305925447504,0.39417916066782976,-0.08658530273575349,0.8407260153719536,0.8086037625922455,0.3081785754088937,-0.44346577188245284,0.9314109615690316,0.5302224047706625,-0.6681205849461143,-0.3348390400563772,0.5102680920082159,-0.5652672731953765,-0.041037345943701675,0.942539659959279,-0.8302610577491201,-0.21715385015606548,-0.05316503549437335,-0.33499131906346524,0.7562487274508853,-0.16568579520871984,-0.4350368593505738,-0.22271842493397576,-0.09632552529826732,0.9930796842649114,0.7195544425713338,0.03674864166715741,0.9079127023219087,0.9849676224174326,-0.3722775132442917,-0.4669177053257154,-0.47320161055417276,0.19920012015067523,-0.8569981393654569,0.3646792762954363,0.25885319182560274,-0.6757094643389268,0.901528802122707,-0.26325176283930474,0.6995214296980075,0.9444707613505248,-0.9353168064475375,-0.5202638655038685,0.3403343366445497,-0.44188890115528934,0.3078220681204107,-0.3952361523634369,-0.3363637893656153,-0.4320027382419642,0.1935885826045749,-0.3025471227299936,-0.8075241639868953,0.5723054859731795,-0.08536817054701573,-0.2619874459812679,0.8273818958794412,-0.9629397170783345,-0.43164364339734584,0.4470097385160303,-0.8714601517019969,0.8953322191419206,-0.5305270754372284,0.6188865278140023,-0.5221437862283542,0.7709917162311137,-0.4202610847887427,0.19786867580923362,-0.6466082523380328,0.40040447709780436,0.23115134640928603,0.9553823426442987,0.7228827353931626,-0.8992999609497732,-0.06077809345765872,-0.49275511699401386,0.37555653979659076,0.7223976409295425,0.8089647380737495,-0.22014800564658965,-0.5578145059538107,-0.021378075261195617,0.8068185775156533,-0.26073603173252935,-0.12218937404157093,0.25578030945476127,0.7245662102231127,-0.4251860653785471,0.33755251805866493,-0.24260504897476887,-0.27215828468823133,-0.16829529136550359,0.6239833494981224,-0.45969859321466133,-0.9189736523723497,0.1250740286661336,0.686959613879268,0.9760252557638336,-0.3332887546502292,0.7632051676610743,0.47966152783658056,0.48790198831338216,0.0982834139227966,-0.9692979818806455,-0.2729853106591389,-0.7598283726481541,-0.8844991390337236,-0.8170623325543256,-0.5872166955052727,-0.2554269620080898,0.07116488840907897,-0.22749378863322955,0.22492033765682073,0.9970620256005684,0.4124810137675232,-0.8156317882556285,0.4237033035624447,-0.09255965387906384,0.8988132787785046,0.6009508609491834,-0.5626648773011842,-0.8346707792383246,0.5109361078976404,-0.6788152782057308,0.4745075208680205,0.14367886750361714,-0.9089774355859268,0.7602977674380194,0.649451783519462,-0.9398009240711367,-0.11591348618726038,-0.4409429795138502,-0.31833919820481604,-0.518694311508767,-0.8213245232589255,-0.6678214953032917,-0.3819074398591997,0.923374827624823,-0.06668912766935486,-0.9562777099253608,-0.4313782545943261,0.19472820846206762,-0.3200735197765745,0.44585034282093483,-0.3148311649335076,-0.21964717769215136,0.4325706795149522,0.537856532145796,-0.23983256934994301,0.5191962807783097,0.7702241762355093,0.18357733217456174,-0.5860750989574668,0.6159541101044261,0.687859586935291,0.7077182306959919,-0.1134833415917158,-0.046684779333748816,-0.95586118329569,-0.37257651493948396,-0.04758980423738768,0.6790405277158762,0.12188062299285174,0.7300545566961267,0.6281652539859413,0.698021986336258,0.09930925650652078,0.13522803841666042,0.744343908736288,-0.38044314276595936,-0.7441133392840442,-0.36480925360513083,0.3994680889933697,0.9327256563540207,0.04780499489761114,-0.8517516450630247,0.7746788055047751,-0.5253996364769766,-0.4424467834603334,0.43390096469857276,0.2962231454522022,0.48197463223328607,-0.26242902417179903,-0.868460721191129,0.6320240156854309,0.5932370846114499,0.47185587076474533,0.8447163637766195,0.8399680606003863,-0.22658916745907165,0.932940092764184,-0.18941921772791126,-0.5477542775889772,0.7277496325683483,0.5320535634031645,0.37002124990435004,-0.8880700360412204,-0.5383997149246251,-0.5092319495066304,-0.4192329896732625,-0.2662119394548703,0.45577143952451804,-0.9516283401531096,-0.27828833538135345,0.7308603669279783,-0.4778397173544604,0.7696448777013061,0.025050171729079418,0.6532904575294414,-0.8348053450021695,0.3800042559392218,-0.19087186757071883,0.34797100800645553,0.9382103802094375,0.44543859136369135,-0.9863673578866197,-0.9431606904912782,-0.9442263018897841,0.1783540989977963,-0.5657855081262058,-0.5956686903850921,-0.028244840562680062,0.8870925604264102,0.8516731735108114,-0.5504320281770765,0.3987290323960906,-0.6383395738100088,0.5456722660662565,-0.7034274634872417,0.7559183292956606,0.5108954664260685,0.5746429339731856,-0.5469983060671919,-0.4335378795066085,0.9127562543497443,0.7504114096210317,-0.2371868573032132,-0.2599393307844706,-0.4459975855327907,-0.2080252878427029,-0.9083966862098503,-0.6565217531226257,0.5310483256264609,0.08593155979947564,0.7351191973629769,0.858426025934832,-0.10439607682078189,0.6269632550885131,-0.11889415946104842,-0.8145608666645545,0.5364374592230281,-0.25148315919210273,-0.4513787497235824,-0.001267532971940044,-0.5517690029051998,0.6323753759321116,0.14648975969662126,0.9295785363227529,0.05116870760182368,0.2451141583198575,-0.5264934373692229,0.3187602372480529,-0.6111408181236206,0.4858557769957135,-0.36286337108076516,0.6475609372559281,0.4658362094305175,-0.35260376940842497,-0.8592332301605512,0.34488785667618904,-0.7112285012168711,0.9204667451925403,-0.05925276475525898,-0.886266200448053,0.14552587192069177,0.315600325923872,-0.9135833962835198,0.6017811501424746,-0.43817661721503254,0.7356359918565778,0.22946997110050704,0.685065156853786,0.8050509548957039,-0.1328326195146976,-0.4950160371787866,0.639097316561948,0.07117919346775414,-0.12057289724374831,0.10495897906848817,-0.6958711252956145,0.18997419555392736,-0.5504260884764296,-0.5038393878350842,-0.031634533555880306,0.10863238594591751,0.7565528030311381,-0.6827485125290753,-0.8433388423104737,-0.013432360757767547,0.2235419592774912,-0.8123316756238921,0.20945857746344765,0.4427537814474345
-0.5515134006256086,0.22049875841828248,-0.5734000238364804,-0.4670945495893608,-0.0709545801100101,0.7639043508505263,-0.30443708301166006,-0.5397881135407772,-0.3279563133880474,-0.3472342599671474,0.7581821641872442,0.555152932363473,0.37781197469002636,-0.06374066703868897,0.17248302634138435,0.10659942955817803,-0.5773977213506007,-0.4952675368424284,0.37461472058614254,-0.05329316175207033,0.6911780743369502,-0.4002508816960739,-0.26407974691192004,-0.2901240871458024,-0.8412318953787901,-0.10039658223812042,-0.4205890644968797,-0.354067841573534,-0.9950255208509422,-0.2933048593501155,-0.7747533484602401,-0.7305795174507796,-0.018387567517096803,0.35040573996821545,-0.553963924575077,0.8146072188655886,-0.1611416810170906,-0.11732621376783958,-0.8087267970631384,-0.7790411582578878,-0.42780248053592285,-0.4558881523117666,-0.7816460433510961,-0.45362506269822434,-0.9271390889491595,-0.36191116075468033,-0.7621641217837769,-0.3807738822602472,0.9518939984566193,-0.3162652763353785,-0.31211408293165765,-0.868764846123385,-0.8947099073829734,-0.07128580350148506,-0.26323398620910865,0.3441943943951109,-0.5829454286842423,0.5288029242470345,-0.11362498075153304,-0.4885428105676438,-0.008325049808248997,-0.9490817354391312,-0.888723873095877,-0.9839578953265546,-0.27021212256600136,-0.6482185755394778,-0.6569691976152889,-0.4674410753841083,-0.07333564719474595,-0.19242641390094084,-0.34084592565329874,0.9182357025683026,0.09949247700308028,-0.38938585602729714,-0.8688025602609283,-0.43806727541690593,-0.41249351967146297,-0.5071911443216339,-0.250474062267273,-0.43932321177538103,0.05607188668487728,-0.3008884716675072,-0.575193773964163,0.5932554174166644,-0.8285186149288913,0.5304952025523939,-0.7907734001489464,-0.7759057726492595,-0.3632358805987982,-0.5058698262006437,-0.01930842684049061,-0.7921442139310434,0.03863770109744369,-0.7701914866195992,-0.49607748254837336,-0.24121886118980562,-0.35442412407703516,-0.6183594177962656,-0.6917063865857729,-0.9857195526498324,-0.7956093518929802,-0.37180514068553994,-0.7601787675330126,-0.7950823594238379,0.15891935651480815,0.6564979871470031,-0.6719522781071829,0.3057560914911446,-0.5361876068322214,-0.39975252053856647,-0.750789490707744,-0.17472044231425987,-0.6679634041978095,-0.21482873493402,-0.740291028842659,-0.5699067351540744,-0.11941277109283155,-0.018277183076511938,-0.971457542701898,-0.6695300672486015,-0.4562384118628152,-0.6708493475280728,-0.32275425199055996,-0.9167571039608619,-0.23422119493845517,-0.5856964774947828,-0.7033062505884313,0.450904514476854,0.20514894206856904,0.946526738896815,-0.6212119719278166,0.428434906385154,-0.17085547348253405,-0.14555561441835863,-0.3841046140956792
-0.3760561398661032,-0.05325995492813562,-0.7779963897172024,0.4453020885330643,-0.6389559874090913,-0.3773983136196385,0.3600597344143215,-0.6909980913138124,-0.20510276644260217,-0.5892599784185166,-0.025601232749866032,-0.8848954568442691,0.5550925906484638,0.9678754586553182,-0.23181615329063288,-0.3386627971324738,0.5483435498124691,-0.35123247871516416,-0.5909876123797695,-0.04930684404984098,-0.22818674832424457,-0.3120236001182566,-0.7318401342192274,-0.538326404145762,-0.8652764820309129,-0.5064317850149268,-0.7643083878024766
0.45937568337375123,0.5149932897461456,-0.18533916940380268,0.5424893936824384,-0.20398754055067814,0.25782364442263517,-0.6027244327296253,-0.5398393317668506,0.22665058112108327,-0.48564556002393067,0.022861128150713617,0.5082503170563928,-0.37606312074008486,-0.9878819920604724,-0.9889345220291532,0.059138249085261,0.49115807817228196,0.8746223510168398,-0.19093074467073712,0.3081537883633212,0.8596994985933186,0.056779120511597725,-0.4997390118038767,-0.8952029694466628,-0.6811653996761269,0.3828079486629179,0.3371451382129549,-0.5344859977726648,-0.10153797390701169,0.7615774552806107,-0.8514607389517892,-0.8836148160076782,0.4906024573106247,-0.3279531429979594,0.2203099925295413,0.786904120753789,0.7520255185959395,0.4805473852505353,0.9501126239475326,-0.034978325006017164,0.3860262981064473,-0.4919865092108977,-0.3450150900467306,-0.8001806894003918,-0.2098367409424029,0.7845150446046723,0.40085646593227287,-0.1475685187099347,0.6731286762218114,-0.8163428632179544,-0.3302774495543015,-0.8267075340895842,-0.8857589099456746,0.4470068899177877,-0.11687914447556658,0.22887700469176253,0.975662324609788,0.12798923067798396,0.9326982092926108,-0.15979885224934676,-0.007211705826190906,0.8447724942204176,-0.3680158675566563,-0.5267657321472319,-0.4649937386978573,-0.952109462129995,-0.5670674347963311,-0.7201849422574516,-0.689150863219071,-0.6502868303940132,-0.9262886441377309,0.08800964111349985,-0.4298698433299877,-0.12747631614409838,0.39417916066782976,-0.08658530273575349,0.8407260153719536,0.8086037625922455,0.3081785754088937,0.36305072219179224,0.9314109615690316,0.5302224047706625,-0.6681205849461143,-0.3348390400563772,0.5102680920082159,-0.5652672731953765,0.7058031453842535,0.942539659959279,-0.8302610577491201,-0.21715385015606548,0.06861591364189934,0.7684983777126877,0.5771218057062981,-0.16568579520871984,-0.4350368593505738,-0.22271842493397576,-0.27307720958143644,0.9930796842649114,0.7195544425713338,0.739629199272891,0.9079127023219087,0.9849676224174326,-0.3722775132442917,-0.4669177053257154,-0.47320161055417276,0.19920012015067523,0.6438851559425434,0.7542810811272405,0.25885319182560274,-0.6757094643389268,0.901528802122707,0.6786944485139794,0.6995214296980075,0.9444707613505248,0.12116317654889852,-0.5202638655038685,0.3403343366445497,-0.44188890115528934,0.3078220681204107,-0.3952361523634369,-0.3363637893656153,-0.4320027382419642,0.1935885826045749,-0.3025471227299936,-0.8075241639868953,0.5723054859731795,-0.7641237976696942,-0.2619874459812679,0.8273818958794412,-0.6982131553647857,-0.43164364339734584,0.4470097385160303,-0.8714601517019969,0.8953322191419206,-0.5305270754372284,0.6188865278140023,-0.5221437862283542,0.7709917162311137,-0.4202610847887427,0.19786867580923362,-0.6466082523380328,0.40040447709780436,0.23115134640928603,0.6588211517891469,0.7228827353931626,-0.8992999609497732,-0.10585943322437896,0.6807686057811573,0.4310410061832284,0.7223976409295425,0.8089647380737495,-0.22014800564658965,-0.5578145059538107,-0.021378075261195617,0.8068185775156533,-0.26073603173252935,-0.12218937404157093,0.25578030945476127,0.7245662102231127,-0.4251860653785471,0.33755251805866493,-0.24260504897476887,-0.3273368492792301,-0.16829529136550359,0.6239833494981224,-0.45969859321466133,-0.9189736523723497,0.1250740286661336,0.686959613879268,0.9760252557638336,-0.3332887546502292,0.7632051676610743,-0.9875213946757613,0.48790198831338216,0.0982834139227966,-0.9692979818806455,-0.2729853106591389,-0.7598283726481541,-0.8844991390337236,-0.8170623325543256,-0.5872166955052727,-0.2554269620080898,0.07116488840907897,-0.22749378863322955,0.22492033765682073,0.9970620256005684,-0.573993270138565,-0.8156317882556285,0.1090643465920953,-0.09255965387906384,0.8988132787785046,0.6009508609491834,-0.5626648773011842,-0.8346707792383246,0.5109361078976404,0.47725000238216553,0.4745075208680205,0.14367886750361714,-0.9089774355859268,0.7602977674380194,0.649451783519462,-0.9398009240711367,-0.11591348618726038,-0.2752694916863767,0.8655479322714352,-0.518694311508767,-0.8213245232589255,-0.6678214953032917,-0.3819074398591997,-0.41198756957346006,-0.06668912766935486,-0.9562777099253608,0.31154082308819153,0.19472820846206762,-0.3200735197765745,0.44585034282093483,-0.3148311649335076,0.29440805241768797,0.4325706795149522,0.537856532145796,-0.23983256934994301,0.5191962807783097,0.7702241762355093,-0.2106847192317589,-0.29713006440857503,-0.9331823055068491,0.687859586935291,0.7077182306959919,-0.1134833415917158,-0.046684779333748816,-0.95586118329569,-0.37257651493948396,-0.04758980423738768,0.6790405277158762,0.8101263952848317,-0.8246568477847636,0.6281652539859413,0.698021986336258,0.09930925650652078,0.13522803841666042,0.12927627252479557,-0.38044314276595936,-0.7441133392840442,-0.36480925360513083,0.3994680889933697,0.9327256563540207,0.04780499489761114,-0.8517516450630247,0.7746788055047751,-0.31702591597198126,-0.6551952007598962,0.43390096469857276,-0.7439817135393871,-0.07293900396221997,-0.5305515729325017,-0.868460721191129,0.6320240156854309,0.5780078215696409,0.47185587076474533,-0.850994403089443,0.8399680606003863,0.3185225494035373,0.932940092764184,-0.18941921772791126,-0.5477542775889772,0.7277496325683483,0.5320535634031645,0.37002124990435004,-0.8880700360412204,-0.47850069674101103,-0.5092319495066304,-0.4192329896732625,-0.2662119394548703,0.45577143952451804,-0.9516283401531096,-0.27828833538135345,-0.4837999250106586,-0.4778397173544604,0.7696448777013061,-0.5269094546788433,-0.3217578743895635,-0.8348053450021695,0.3800042559392218,-0.19087186757071883,0.34797100800645553,0.37858427050325316,0.44543859136369135,-0.9863673578866197,0.13348836969635736,-0.9442263018897841,0.1783540989977963,-0.5657855081262058,-0.5956686903850921,-0.028244840562680062,0.8870925604264102,-0.2995064400221179,-0.5504320281770765,0.3987290323960906,-0.6383395738100088,0.5456722660662565,-0.7034274634872417,0.7559183292956606,0.5108954664260685,0.5746429339731856,-0.5469983060671919,-0.4335378795066085,0.9127562543497443,0.10891342964296169,0.13571056522106062,-0.2599393307844706,0.175741910479559,-0.2080252878427029,-0.9083966862098503,-0.6565217531226257,0.5310483256264609,0.08593155979947564,0.7351191973629769,0.858426025934832,-0.20514719902644973,0.6269632550885131,-0.11889415946104842,-0.8145608666645545,0.5364374592230281,-0.25148315919210273,-0.4513787497235824,-0.001267532971940044,-0.31891760559473536,0.6365449174143565,0.05003149363981563,0.9295785363227529,-0.527126012375853,0.2451141583198575,-0.5264934373692229,0.9285550712995345,-0.6111408181236206,0.4858557769957135,-0.36286337108076516,0.6475609372559281,0.4658362094305175,0.22225701617808258,-0.8592332301605512,0.29980499870929167,-0.7112285012168711,0.9204667451925403,-0.05925276475525898,-0.886266200448053,0.14552587192069177,0.315600325923872,-0.9135833962835198,0.0574400592441362,-0.43817661721503254,0.11403452742503695,0.22946997110050704,0.685065156853786,-0.3998538716419433,-0.1328326195146976,-0.4950160371787866,-0.4928776918705573,0.07117919346775414,-0.12057289724374831,0.10495897906848817,-0.6958711252956145,0.18997419555392736,-0.5504260884764296,-0.5038393878350842,-0.031634533555880306,-0.6688797873243735,0.7565528030311381,-0.6827485125290753,-0.8433388423104737,-0.013432360757767547,0.2235419592774912,-0.07269067050423628,0.20945857746344765,0.4427537814474345
-0.5515134006256086,0.5432068132760501,-0.5734000238364804,-0.4670945495893608,-0.0709545801100101,-0.07290605291416985,-0.30443708301166006,-0.5397881135407772,-0.3279563133880474,-0.3472342599671474,0.7581821641872442,0.555152932363473,0.37781197469002636,-0.06374066703868897,0.17248302634138435,0.10659942955817803,-0.5773977213506007,-0.4952675368424284,-0.8555194812686553,-0.05329316175207033,0.6911780743369502,0.199007561896553,-0.26407974691192004,-0.2901240871458024,-0.8412318953787901,-0.10039658223812042,-0.4205890644968797,-0.354067841573534,-0.9950255208509422,-0.2933048593501155,-0.7747533484602401,-0.4615215766190839,-0.018387567517096803,0.35040573996821545,-0.553963924575077,0.8146072188655886,-0.1611416810170906,-0.11732621376783958,-0.8087267970631384,-0.14625274686286893,-0.42780248053592285,-0.4558881523117666,-0.7816460433510961,-0.45362506269822434,-0.9430217794948494,-0.36191116075468033,-0.7621641217837769,-0.3807738822602472,0.9518939984566193,-0.3162652763353785,-0.31211408293165765,-0.868764846123385,-0.8947099073829734,-0.07128580350148506,-0.5704274160371638,0.3441943943951109,-0.5829454286842423,0.5288029242470345,-0.5850071657773808,-0.4885428105676438,-0.3394566644059369,-0.9490817354391312,-0.888723873095877,-0.9839578953265546,0.26731865927687815,-0.1392955303546426,-0.6569691976152889,-0.8012130053970141,-0.16308406710024725,-0.19242641390094084,0.3064274753705425,0.9182357025683026,-0.5689189846931582,-0.05948494437857188,-0.8688025602609283,-0.43806727541690593,-0.41249351967146297,-0.5071911443216339,-0.250474062267273,-0.43932321177538103,0.05607188668487728,-0.3008884716675072,-0.575193773964163,0.5932554174166644,-0.8599838014641519,-0.08163161220074766,-0.7907734001489464,-0.759488211773728,-0.3632358805987982,-0.5058698262006437,-0.9491921295552923,-0.7921442139310434,0.03863770109744369,-0.7701914866195992,-0.49607748254837336,-0.24121886118980562,-0.35442412407703516,-0.6183594177962656,-0.8837972563005754,-0.9857195526498324,-0.7956093518929802,-0.37180514068553994,-0.7601787675330126,-0.7950823594238379,0.15891935651480815,0.6564979871470031,-0.6719522781071829,0.3057560914911446,-0.2271358413475495,-0.39975252053856647,-0.750789490707744,-0.17472044231425987,-0.6679634041978095,-0.21482873493402,-0.4055532453655586,-0.5699067351540744,-0.11941277109283155,-0.018277183076511938,-0.971457542701898,-0.6695300672486015,0.21901461729128768,-0.6708493475280728,-0.32275425199055996,-0.9167571039608619,-0.23422119493845517,-0.5856964774947828,-0.7033062505884313,-0.48287367327851327,-0.09157935044093701,0.946526738896815,0.22269300274160786,0.428434906385154,-0.17085547348253405,-0.14555561441835863,-0.3841046140956792
-0.3760561398661032,-0.05325995492813562,-0.7779963897172024,0.04772583702108801,-0.6389559874090913,-0.3773983136196385,0.3600597344143215,-0.6909980913138124,-0.20510276644260217,-0.5892599784185166,-0.07481186519005845,-0.8848954568442691,0.5550925906484638,-0.2745260452328606,-0.23181615329063288,-0.3386627971324738,0.5483435498124691,-0.35123247871516416,-0.5909876123797695,-0.04930684404984098,-0.22818674832424457,-0.3120236001182566,-0.7318401342192274,-0.538326404145762,-0.8652764820309129,-0.5064317850149268,-0.7643083878024766
0.45937568337375123,0.5149932897461456,0.660610244438405,0.5424893936824384,-0.20398754055067814,0.25782364442263517,-0.6027244327296253,-0.5398393317668506,-0.17264012223259861,-0.48564556002393067,0.022861128150713617,0.5082503170563928,-0.37606312074008486,-0.9878819920604724,0.44334802547078933,0.059138249085261,0.49115807817228196,0.8746223510168398,-0.19093074467073712,0.3081537883633212,0.8596994985933186,0.056779120511597725,-0.4997390118038767,-0.8952029694466628,-0.6811653996761269,0.3828079486629179,-0.03469978927187589,-0.5344859977726648,0.2156635497124313,0.7615774552806107,-0.8514607389517892,-0.8836148160076782,0.8078147447038715,-0.3279531429979594,0.2203099925295413,0.786904120753789,0.7520255185959395,0.4805473852505353,0.9501126239475326,-0.034978325006017164,0.3860262981064473,-0.4919865092108977,-0.3450150900467306,-0.8001806894003918,-0.2098367409424029,0.7845150446046723,0.40085646593227287,-0.1475685187099347,0.6731286762218114,-0.012134104659390799,0.6364474775073894,-0.8267075340895842,-0.8857589099456746,0.4470068899177877,-0.11687914447556658,0.22887700469176253,0.975662324609788,0.12798923067798396,0.9326982092926108,-0.15979885224934676,-0.007211705826190906,0.8447724942204176,-0.013020686720196961,0.5634704701980457,-0.4649937386978573,-0.952109462129995,-0.5670674347963311,-0.7201849422574516,-0.689150863219071,-0.6502868303940132,-0.9262886441377309,0.08800964111349985,-0.4298698433299877,0.5922305925447504,0.39417916066782976,-0.08658530273575349,0.8407260153719536,0.8086037625922455,0.3081785754088937,-0.44346577188245284,0.9314109615690316,0.5302224047706625,-0.6681205849461143,-0.3348390400563772,0.5102680920082159,-0.5652672731953765,-0.041037345943701675,0.942539659959279,-0.8302610577491201,-0.21715385015606548,-0.05316503549437335,-0.33499131906346524,0.5771218057062981,-0.16568579520871984,-0.4350368593505738,-0.22271842493397576,0.138397161743387,0.9930796842649114,0.7195544425713338,0.03674864166715741,0.9079127023219087,0.9849676224174326,-0.3722775132442917,-0.4669177053257154,-0.47320161055417276,0.19920012015067523,-0.8569981393654569,0.7542810811272405,0.25885319182560274,-0.6757094643389268,0.901528802122707,-0.26325176283930474,0.6995214296980075,0.9444707613505248,-0.9353168064475375,-0.5202638655038685,0.3403343366445497,-0.44188890115528934,0.3078220681204107,-0.3952361523634369,-0.3363637893656153,-0.4320027382419642,0.1935885826045749,-0.3025471227299936,-0.8075241639868953,0.5723054859731795,-0.7641237976696942,-0.2619874459812679,0.8273818958794412,-0.9629397170783345,-0.43164364339734584,0.4470097385160303,-0.8714601517019969,0.8953322191419206,-0.5305270754372284,0.6188865278140023,-0.5221437862283542,0.7709917162311137,-0.4202610847887427,0.19786867580923362,-0.6192640234019979,0.40040447709780436,0.23115134640928603,0.9553823426442987,0.7228827353931626,-0.8992999609497732,-0.06077809345765872,-0.49275511699401386,0.37555653979659076,0.7223976409295425,0.8089647380737495,-0.22014800564658965,-0.5578145059538107,-0.021378075261195617,0.8068185775156533,-0.26073603173252935,-0.12218937404157093,0.25578030945476127,0.7245662102231127,-0.4251860653785471,0.4134150672076933,-0.24260504897476887,-0.27215828468823133,-0.16829529136550359,0.6239833494981224,-0.45969859321466133,-0.9189736523723497,0.1250740286661336,0.686959613879268,0.9760252557638336,-0.3332887546502292,0.7632051676610743,-0.9875213946757613,-0.2834358955543408,0.0982834139227966,-0.9692979818806455,-0.2729853106591389,-0.7598283726481541,-0.8844991390337236,-0.8170623325543256,-0.5872166955052727,-0.2554269620080898,0.07116488840907897,-0.22749378863322955,0.22492033765682073,0.9970620256005684,0.4124810137675232,-0.8156317882556285,0.4237033035624447,-0.09255965387906384,0.8988132787785046,0.6009508609491834,-0.5626648773011842,-0.8346707792383246,0.5109361078976404,-0.6788152782057308,0.4745075208680205,0.14367886750361714,-0.9089774355859268,0.7602977674380194,0.649451783519462,-0.9398009240711367,-0.11591348618726038,-0.2752694916863767,-0.31833919820481604,-0.518694311508767,-0.8213245232589255,-0.9026651796717697,-0.3819074398591997,-0.41198756957346006,-0.06668912766935486,-0.9562777099253608,-0.4313782545943261,0.19472820846206762,-0.3200735197765745,0.44585034282093483,-0.3148311649335076,-0.21964717769215136,0.4325706795149522,0.537856532145796,-0.23983256934994301,0.5191962807783097,0.7702241762355093,0.18357733217456174,-0.29713006440857503,0.6159541101044261,0.687859586935291,0.7077182306959919,-0.1134833415917158,-0.046684779333748816,-0.95586118329569,-0.37257651493948396,-0.04758980423738768,0.6790405277158762,0.12188062299285174,0.7300545566961267,0.6281652539859413,0.698021986336258,0.09930925650652078,0.13522803841666042,0.12927627252479557,-0.38044314276595936,-0.7441133392840442,-0.36480925360513083,0.3994680889933697,0.9327256563540207,0.04780499489761114,-0.8517516450630247,0.7746788055047751,-0.31702591597198126,-0.6551952007598962,0.43390096469857276,0.2962231454522022,-0.07293900396221997,-0.26242902417179903,-0.868460721191129,0.6320240156854309,0.5932370846114499,0.47185587076474533,-0.850994403089443,0.8399680606003863,-0.22658916745907165,0.932940092764184,-0.18941921772791126,-0.5477542775889772,0.7277496325683483,0.5320535634031645,0.37002124990435004,-0.8880700360412204,-0.5383997149246251,-0.5092319495066304,-0.4192329896732625,-0.2662119394548703,0.45577143952451804,-0.9516283401531096,-0.8882462355219156,0.7308603669279783,-0.4778397173544604,0.7696448777013061,0.025050171729079418,0.6532904575294414,-0.8348053450021695,0.3800042559392218,-0.19087186757071883,0.34797100800645553,0.37858427050325316,0.44543859136369135,-0.9863673578866197,0.13348836969635736,-0.9442263018897841,0.1783540989977963,-0.5657855081262058,-0.5956686903850921,0.04574236324391645,0.8870925604264102,0.8516731735108114,-0.5504320281770765,0.3987290323960906,-0.6383395738100088,0.5456722660662565,-0.7034274634872417,0.7559183292956606,0.5108954664260685,0.5746429339731856,-0.5469983060671919,-0.4335378795066085,0.9127562543497443,0.7504114096210317,-0.2371868573032132,0.15402372558379507,0.175741910479559,-0.2080252878427029,-0.9083966862098503,-0.6565217531226257,0.5310483256264609,0.08593155979947564,0.7351191973629769,0.858426025934832,-0.10439607682078189,0.40035151845065964,-0.11889415946104842,-0.8145608666645545,0.5364374592230281,-0.25148315919210273,-0.4513787497235824,-0.001267532971940044,-0.5517690029051998,0.6323753759321116,0.14648975969662126,0.9295785363227529,0.05116870760182368,0.2451141583198575,-0.5264934373692229,0.3187602372480529,-0.6111408181236206,0.4858557769957135,-0.36286337108076516,-0.19100714442271371,0.4658362094305175,-0.35260376940842497,-0.8592332301605512,0.34488785667618904,-0.7112285012168711,0.9204667451925403,-0.05925276475525898,-0.886266200448053,0.14552587192069177,0.315600325923872,-0.9135833962835198,0.6017811501424746,-0.43817661721503254,0.7356359918565778,0.22946997110050704,0.685065156853786,0.8050509548957039,-0.1328326195146976,-0.4950160371787866,0.639097316561948,0.07117919346775414,-0.12057289724374831,0.10495897906848817,-0.6958711252956145,0.18997419555392736,-0.5504260884764296,-0.5038393878350842,-0.031634533555880306,0.10863238594591751,0.7565528030311381,-0.6827485125290753,-0.8433388423104737,-0.013432360757767547,0.2235419592774912,-0.8123316756238921,0.20945857746344765,0.4427537814474345
-0.5515134006256086,0.22049875841828248,-0.5734000238364804,-0.4670945495893608,-0.0709545801100101,0.7639043508505263,-0.30443708301166006,-0.5397881135407772,-0.3279563133880474,-0.3472342599671474,-0.9036792759951775,0.555152932363473,0.37781197469002636,-0.06374066703868897,0.17248302634138435,0.10659942955817803,-0.5773977213506007,-0.4952675368424284,0.37461472058614254,-0.05329316175207033,0.6911780743369502,-0.5148615571024417,-0.26407974691192004,-0.2901240871458024,-0.8412318953787901,-0.10039658223812042,-0.4205890644968797,-0.354067841573534,-0.9950255208509422,-0.2933048593501155,-0.7747533484602401,-0.7305795174507796,-0.018387567517096803,0.35040573996821545,-0.553963924575077,0.8146072188655886,-0.1611416810170906,-0.1954669600492629,-0.8087267970631384,-0.7790411582578878,-0.42780248053592285,-0.4558881523117666,-0.7816460433510961,-0.45362506269822434,-0.9271390889491595,-0.36191116075468033,-0.7621641217837769,-0.3807738822602472,0.9518939984566193,-0.3162652763353785,-0.31211408293165765,-0.868764846123385,-0.8947099073829734,-0.07128580350148506,-0.26323398620910865,0.3441943943951109,-0.5829454286842423,0.5288029242470345,-0.11362498075153304,-0.4885428105676438,-0.3394566644059369,-0.9490817354391312,-0.888723873095877,-0.9839578953265546,0.26731865927687815,-0.6482185755394778,-0.6569691976152889,-0.8012130053970141,-0.16308406710024725,-0.19242641390094084,0.3064274753705425,0.9182357025683026,0.09949247700308028,-0.05948494437857188,-0.8688025602609283,-0.43806727541690593,-0.41249351967146297,-0.5071911443216339,-0.250474062267273,-0.43932321177538103,0.05607188668487728,-0.3008884716675072,-0.575193773964163,0.5932554174166644,-0.8285186149288913,0.5304952025523939,-0.7907734001489464,-0.7759057726492595,-0.3632358805987982,-0.5058698262006437,-0.01930842684049061,-0.7921442139310434,0.03863770109744369,-0.7701914866195992,-0.49607748254837336,-0.24121886118980562,-0.35442412407703516,-0.6183594177962656,-0.6917063865857729,-0.9857195526498324,-0.7956093518929802,-0.37180514068553994,-0.7601787675330126,-0.7950823594238379,0.15891935651480815,0.9824809845610036,-0.6719522781071829,0.3057560914911446,-0.5361876068322214,-0.39975252053856647,-0.750789490707744,-0.17472044231425987,-0.6679634041978095,-0.21482873493402,-0.740291028842659,-0.5699067351540744,-0.11941277109283155,0.9060699735208912,-0.971457542701898,-0.6695300672486015,-0.4562384118628152,-0.6708493475280728,-0.32275425199055996,-0.9167571039608619,0.6286420695756278,-0.5856964774947828,-0.7033062505884313,-0.48287367327851327,0.20514894206856904,0.946526738896815,-0.6212119719278166,0.428434906385154,0.7072637699522548,-0.14555561441835863,-0.3841046140956792
-0.3760561398661032,-0.05325995492813562,-0.7779963897172024,0.2885290002860028,-0.6389559874090913,-0.3773983136196385,0.3600597344143215,-0.6909980913138124,-0.20510276644260217,-0.5892599784185166,-0.07481186519005845,-0.8848954568442691,0.5550925906484638,0.9678754586553182,-0.23181615329063288,-0.3386627971324738,0.5483435498124691,-0.35123247871516416,-0.5909876123797695,-0.04930684404984098,-0.22818674832424457,-0.3120236001182566,-0.7318401342192274,-0.538326404145762,-0.8652764820309129,-0.5064317850149268,-0.7643083878024766
0.45937568337375123,0.5149932897461456,0.660610244438405,0.5424893936824384,-0.20398754055067814,0.25782364442263517,-0.6027244327296253,-0.5398393317668506,-0.17264012223259861,-0.48564556002393067,0.022861128150713617,0.5082503170563928,-0.37606312074008486,-0.9878819920604724,-0.9889345220291532,0.059138249085261,0.49115807817228196,0.8746223510168398,-0.19093074467073712,0.3081537883633212,0.8596994985933186,0.056779120511597725,-0.4997390118038767,-0.4802246553077578,-0.6811653996761269,0.3828079486629179,-0.03469978927187589,-0.5344859977726648,-0.10153797390701169,0.7615774552806107,-0.8514607389517892,-0.8836148160076782,0.4906024573106247,-0.3279531429979594,0.2203099925295413,0.786904120753789,0.7520255185959395,0.4805473852505353,0.9501126239475326,-0.034978325006017164,0.3860262981064473,-0.4919865092108977,-0.3450150900467306,-0.8001806894003918,-0.2098367409424029,0.7845150446046723,0.40085646593227287,-0.1475685187099347,0.6731286762218114,-0.8163428632179544,-0.3302774495543015,-0.13479584158114966,-0.8857589099456746,-0.7402409463738182,-0.11687914447556658,0.22887700469176253,0.975662324609788,0.12798923067798396,0.5102703500740444,-0.8775137926060264,-0.007211705826190906,0.8447724942204176,-0.3680158675566563,-0.5267657321472319,-0.4649937386978573,-0.952109462129995,-0.5670674347963311,-0.7201849422574516,-0.689150863219071,-0.6502868303940132,-0.9262886441377309,0.08800964111349985,-0.4298698433299877,0.5922305925447504,0.39417916066782976,-0.08658530273575349,0.8407260153719536,0.8086037625922455,0.3081785754088937,-0.44346577188245284,0.9314109615690316,0.5302224047706625,-0.6681205849461143,-0.3348390400563772,0.5102680920082159,-0.5652672731953765,-0.041037345943701675,0.942539659959279,-0.8302610577491201,-0.21715385015606548,-0.05316503549437335,0.7684983777126877,0.5771218057062981,-0.16568579520871984,-0.4350368593505738,-0.22271842493397576,0.138397161743387,0.9930796842649114,0.7195544425713338,0.03674864166715741,0.9079127023219087,0.9849676224174326,-0.3722775132442917,-0.4669177053257154,-0.47320161055417276,0.19920012015067523,-0.8569981393654569,0.7542810811272405,0.25885319182560274,0.6210762010302027,0.901528802122707,-0.26325176283930474,0.6995214296980075,0.9444707613505248,-0.9353168064475375,-0.5202638655038685,0.3403343366445497,-0.44188890115528934,0.3078220681204107,-0.3952361523634369,-0.3363637893656153,-0.4320027382419642,0.1935885826045749,-0.3025471227299936,-0.8075241639868953,0.5723054859731795,-0.7641237976696942,-0.2619874459812679,0.38961800076668607,-0.6982131553647857,-0.43164364339734584,0.4470097385160303,-0.8714601517019969,0.8953322191419206,-0.5305270754372284,0.6188865278140023,-0.5221437862283542,0.7709917162311137,-0.4202610847887427,0.19786867580923362,-0.6192640234019979,0.40040447709780436,0.23115134640928603,0.6588211517891469,0.7228827353931626,-0.8992999609497732,-0.06077809345765872,-0.49275511699401386,0.4310410061832284,0.7223976409295425,0.8089647380737495,-0.22014800564658965,-0.5578145059538107,-0.021378075261195617,-0.3974392833675795,-0.26073603173252935,-0.12218937404157093,0.25578030945476127,0.7245662102231127,-0.4251860653785471,0.4134150672076933,-0.24260504897476887,-0.27215828468823133,-0.16829529136550359,0.6239833494981224,-0.45969859321466133,-0.37638637318150114,0.1250740286661336,0.686959613879268,0.9760252557638336,-0.3332887546502292,0.7632051676610743,-0.9875213946757613,-0.2834358955543408,0.0982834139227966,-0.9692979818806455,-0.2729853106591389,-0.7598283726481541,-0.8844991390337236,-0.8170623325543256,-0.5872166955052727,-0.2554269620080898,0.07116488840907897,-0.22749378863322955,0.22492033765682073,0.9970620256005684,0.4124810137675232,-0.8156317882556285,0.4237033035624447,-0.09255965387906384,0.8988132787785046,0.6009508609491834,-0.5626648773011842,-0.8346707792383246,0.5109361078976404,-0.6788152782057308,0.4745075208680205,0.14367886750361714,-0.9089774355859268,0.7602977674380194,0.649451783519462,-0.9398009240711367,-0.11591348618726038,-0.2752694916863767,-0.31833919820481604,-0.518694311508767,-0.8213245232589255,-0.9026651796717697,-0.3819074398591997,-0.41198756957346006,-0.06668912766935486,-0.9562777099253608,-0.4313782545943261,0.19472820846206762,-0.3200735197765745,0.44585034282093483,-0.8623461279089202,-0.21964717769215136,0.4325706795149522,0.537856532145796,-0.23983256934994301,0.5191962807783097,0.7702241762355093,0.18357733217456174,-0.29713006440857503,0.6159541101044261,0.687859586935291,0.7077182306959919,-0.1134833415917158,-0.046684779333748816,-0.95586118329569,-0.37257651493948396,-0.04758980423738768,0.6790405277158762,0.12188062299285174,0.7300545566961267,0.6281652539859413,0.698021986336258,0.09930925650652078,0.13522803841666042,0.744343908736288,-0.38044314276595936,-0.7441133392840442,-0.36480925360513083,0.3994680889933697,0.9327256563540207,0.04780499489761114,-0.8517516450630247,0.7746788055047751,-0.31702591597198126,-0.6551952007598962,0.43390096469857276,0.2962231454522022,-0.07293900396221997,-0.5305515729325017,-0.868460721191129,0.6320240156854309,0.5932370846114499,0.47185587076474533,-0.850994403089443,0.8399680606003863,-0.22658916745907165,0.932940092764184,-0.18941921772791126,-0.5477542775889772,0.7277496325683483,0.5320535634031645,0.37002124990435004,-0.8880700360412204,-0.5383997149246251,-0.5092319495066304,-0.4192329896732625,-0.2662119394548703,0.42563926497725957,-0.9516283401531096,-0.8882462355219156,0.7308603669279783,-0.4778397173544604,0.7696448777013061,-0.5269094546788433,0.6532904575294414,-0.8348053450021695,0.3800042559392218,-0.19087186757071883,0.34797100800645553,0.37858427050325316,0.44543859136369135,0.49999323868324197,0.13348836969635736,-0.9442263018897841,0.1783540989977963,-0.5657855081262058,-0.5956686903850921,0.04574236324391645,0.8870925604264102,0.8516731735108114,-0.5504320281770765,0.3987290323960906,-0.6383395738100088,0.5456722660662565,-0.7034274634872417,0.7559183292956606,0.5108954664260685,0.5746429339731856,-0.5469983060671919,-0.4335378795066085,0.9127562543497443,0.7504114096210317,-0.2371868573032132,-0.8649086551281158,0.175741910479559,-0.2080252878427029,-0.9083966862098503,-0.6565217531226257,0.5310483256264609,0.08593155979947564,0.7351191973629769,0.4906135276987955,-0.10439607682078189,0.40035151845065964,-0.11889415946104842,-0.8145608666645545,0.5364374592230281,-0.25148315919210273,-0.4513787497235824,-0.001267532971940044,-0.5517690029051998,0.6323753759321116,0.14648975969662126,0.9295785363227529,0.05116870760182368,0.2451141583198575,-0.5264934373692229,0.3187602372480529,-0.6111408181236206,-0.9761622511861028,-0.36286337108076516,-0.19100714442271371,0.4658362094305175,-0.35260376940842497,-0.8592332301605512,0.34488785667618904,0.32533527230997294,0.9204667451925403,-0.7181343179365531,-0.886266200448053,0.14552587192069177,0.315600325923872,-0.9135833962835198,0.0574400592441362,-0.43817661721503254,0.7356359918565778,0.22946997110050704,0.685065156853786,0.8050509548957039,-0.1328326195146976,-0.4950160371787866,0.639097316561948,0.07117919346775414,-0.12057289724374831,0.10495897906848817,-0.6958711252956145,0.18997419555392736,-0.5504260884764296,-0.5038393878350842,-0.031634533555880306,0.10863238594591751,0.7565528030311381,-0.6827485125290753,-0.8433388423104737,-0.013432360757767547,0.2235419592774912,-0.8123316756238921,0.20945857746344765,-0.16498459081754113
-0.5515134006256086,0.22049875841828248,-0.5734000238364804,-0.4670945495893608,-0.0709545801100101,-0.07290605291416985,-0.30443708301166006,-0.5397881135407772,-0.3279563133880474,-0.3472342599671474,-0.9036792759951775,0.555152932363473,0.37781197469002636,-0.06374066703868897,0.17248302634138435,0.10659942955817803,-0.5773977213506007,-0.4952675368424284,0.37461472058614254,-0.05329316175207033,0.6911780743369502,-0.5148615571024417,-0.26407974691192004,-0.2901240871458024,-0.8412318953787901,-0.10039658223812042,-0.4205890644968797,0.945737820909796,-0.9950255208509422,-0.2933048593501155,-0.7747533484602401,-0.7305795174507796,-0.018387567517096803,0.35040573996821545,-0.553963924575077,0.8146072188655886,-0.1611416810170906,-0.1954669600492629,-0.8087267970631384,-0.7790411582578878,0.8575418518641533,-0.4558881523117666,-0.7816460433510961,-0.45362506269822434,-0.9271390889491595,-0.36191116075468033,-0.7621641217837769,-0.3807738822602472,0.9518939984566193,-0.3162652763353785,-0.31211408293165765,-0.868764846123385,-0.8947099073829734,-0.07128580350148506,-0.33043760514757203,0.3441943943951109,-0.5829454286842423,0.5288029242470345,-0.11362498075153304,-0.4885428105676438,-0.3394566644059369,-0.9490817354391312,-0.888723873095877,-0.9839578953265546,0.26731865927687815,-0.1392955303546426,-0.6569691976152889,-0.8012130053970141,-0.16308406710024725,-0.19242641390094084,0.3064274753705425,0.9182357025683026,0.09949247700308028,-0.05948494437857188,-0.8688025602609283,-0.43806727541690593,-0.41249351967146297,-0.5071911443216339,-0.250474062267273,-0.43932321177538103,0.05607188668487728,-0.3008884716675072,-0.575193773964163,0.5932554174166644,-0.8285186149288913,0.5304952025523939,-0.7907734001489464,-0.7759057726492595,-0.3632358805987982,-0.5058698262006437,-0.01930842684049061,-0.7921442139310434,0.03863770109744369,-0.7701914866195992,-0.49607748254837336,-0.24121886118980562,-0.35442412407703516,-0.08563659679077018,-0.6917063865857729,-0.9857195526498324,-0.7956093518929802,-0.37180514068553994,-0.7601787675330126,-0.7950823594238379,0.15891935651480815,0.9824809845610036,-0.6719522781071829,0.3057560914911446,-0.5361876068322214,-0.39975252053856647,-0.750789490707744,-0.17472044231425987,-0.6679634041978095,-0.21482873493402,-0.740291028842659,-0.5699067351540744,-0.11941277109283155,-0.018277183076511938,-0.971457542701898,-0.6695300672486015,-0.4562384118628152,-0.6708493475280728,-0.32275425199055996,-0.9167571039608619,0.6286420695756278,-0.5856964774947828,-0.7033062505884313,-0.48287367327851327,0.20514894206856904,-0.9198487100643034,-0.6212119719278166,0.428434906385154,0.7072637699522548,-0.14555561441835863,-0.3841046140956792
-0.3760561398661032,-0.05325995492813562,-0.7779963897172024,-0.07130235442272359,-0.6389559874090913,-0.3773983136196385,0.3600597344143215,-0.6909980913138124,-0.20510276644260217,-0.5892599784185166,-0.07481186519005845,-0.8848954568442691,0.5550925906484638,0.9678754586553182,-0.23181615329063288,-0.3386627971324738,0.5483435498124691,-0.35123247871516416,-0.5909876123797695,-0.04930684404984098,-0.22818674832424457,-0.3120236001182566,-0.7318401342192274,-0.538326404145762,-0.8652764820309129,-0.5064317850149268,-0.7643083878024766
0.45937568337375123,0.5149932897461456,0.660610244438405,0.5424893936824384,-0.20398754055067814,0.25782364442263517,0.5907181663851624,-0.5398393317668506,-0.17264012223259861,-0.48564556002393067,0.022861128150713617,0.5082503170563928,-0.37606312074008486,-0.9878819920604724,0.44334802547078933,0.059138249085261,0.49115807817228196,0.8746223510168398,-0.19093074467073712,0.3081537883633212,0.8596994985933186,0.056779120511597725,0.7862077456232006,-0.8952029694466628,-0.9743750725211089,0.3828079486629179,-0.03469978927187589,0.3179665972972645,-0.10153797390701169,0.7615774552806107,-0.8514607389517892,-0.8836148160076782,0.8078147447038715,-0.3279531429979594,0.2203099925295413,0.4619419605198767,0.7520255185959395,0.4805473852505353,0.9501126239475326,-0.034978325006017164,0.3860262981064473,-0.4919865092108977,-0.3450150900467306,-0.8001806894003918,-0.2098367409424029,0.7845150446046723,0.40085646593227287,-0.1475685187099347,0.6731286762218114,-0.8163428632179544,-0.3302774495543015,-0.8267075340895842,-0.8857589099456746,0.4470068899177877,-0.11687914447556658,0.22887700469176253,0.975662324609788,0.12798923067798396,0.9326982092926108,-0.15979885224934676,-0.8802316517176929,-0.9526214799461448,-0.3680158675566563,-0.5543753467656385,-0.4649937386978573,-0.952109462129995,-0.5670674347963311,-0.45671133755017346,-0.689150863219071,-0.6502868303940132,-0.9262886441377309,0.08800964111349985,-0.4298698433299877,0.5922305925447504,0.39417916066782976,-0.08658530273575349,0.8407260153719536,0.8086037625922455,0.3081785754088937,-0.44346577188245284,0.9314109615690316,0.5302224047706625,-0.6681205849461143,-0.3348390400563772,0.5102680920082159,-0.5652672731953765,0.1297653860221064,0.942539659959279,-0.8302610577491201,-0.2820038497039439,-0.05316503549437335,0.7684983777126877,0.7175586114487518,-0.16568579520871984,0.5585823407907513,-0.22271842493397576,0.138397161743387,0.9930796842649114,0.7195544425713338,0.739629199272891,0.9079127023219087,0.9849676224174326,-0.3722775132442917,-0.4669177053257154,0.294899696753103,-0.04439761254635832,-0.8569981393654569,0.7542810811272405,0.25885319182560274,0.2082342678966871,0.901528802122707,0.6786944485139794,0.6995214296980075,0.9444707613505248,-0.9353168064475375,-0.5202638655038685,0.3403343366445497,-0.553646302073816,0.3078220681204107,-0.3952361523634369,-0.3363637893656153,-0.4320027382419642,0.1935885826045749,-0.3025471227299936,-0.8075241639868953,0.5723054859731795,-0.08536817054701573,-0.2619874459812679,0.8273818958794412,-0.6982131553647857,-0.43164364339734584,0.4470097385160303,-0.8714601517019969,0.8953322191419206,-0.5305270754372284,0.6188865278140023,-0.5221437862283542,0.7709917162311137,-0.4202610847887427,0.19786867580923362,-0.5936366515109142,0.40040447709780436,0.23115134640928603,0.6588211517891469,0.7228827353931626,-0.31572151364721157,-0.10585943322437896,-0.49275511699401386,0.37555653979659076,0.7223976409295425,0.8089647380737495,0.5864218990666983,-0.5578145059538107,-0.021378075261195617,0.8068185775156533,-0.26073603173252935,-0.12218937404157093,0.25578030945476127,0.7245662102231127,-0.4251860653785471,0.33755251805866493,-0.24260504897476887,-0.05250953259307889,-0.16829529136550359,0.6239833494981224,0.7053835453734028,-0.23644526814146993,0.1250740286661336,0.686959613879268,0.9760252557638336,-0.3332887546502292,0.7632051676610743,0.47966152783658056,0.48790198831338216,0.0982834139227966,-0.2423125355035598,-0.2729853106591389,-0.7598283726481541,-0.8844991390337236,-0.8170623325543256,-0.5872166955052727,-0.2554269620080898,0.07116488840907897,-0.22749378863322955,0.22492033765682073,0.9970620256005684,0.4124810137675232,-0.8156317882556285,-0.30378936080066943,-0.09255965387906384,0.8988132787785046,0.6009508609491834,-0.5626648773011842,-0.8346707792383246,-0.005572848444864276,-0.6788152782057308,0.4745075208680205,0.14367886750361714,-0.9089774355859268,0.7602977674380194,0.649451783519462,-0.9398009240711367,-0.11591348618726038,-0.2752694916863767,-0.31833919820481604,-0.518694311508767,-0.8213245232589255,-0.9026651796717697,-0.3819074398591997,-0.41198756957346006,-0.06668912766935486,-0.9562777099253608,0.31154082308819153,0.19472820846206762,-0.3200735197765745,0.44585034282093483,-0.3148311649335076,0.29440805241768797,0.4325706795149522,0.537856532145796,-0.23983256934994301,0.5191962807783097,0.7702241762355093,-0.2106847192317589,-0.29713006440857503,0.6159541101044261,0.687859586935291,0.427286569392749,-0.1134833415917158,-0.46935385746524316,-0.95586118329569,-0.37257651493948396,-0.04758980423738768,-0.48751136483177593,0.8101263952848317,0.7300545566961267,0.8465688128933899,0.698021986336258,0.09930925650652078,0.13522803841666042,0.744343908736288,-0.38044314276595936,-0.7441133392840442,-0.36480925360513083,0.3994680889933697,0.9327256563540207,0.04780499489761114,-0.8517516450630247,0.7746788055047751,-0.31702591597198126,-0.4424467834603334,0.43390096469857276,-0.7439817135393871,0.47563375319689016,-0.5305515729325017,-0.31423116060552303,0.6320240156854309,0.5780078215696409,-0.509135894312222,-0.850994403089443,0.8399680606003863,0.3185225494035373,0.932940092764184,-0.4311344310764149,-0.5477542775889772,0.7277496325683483,0.5320535634031645,0.37002124990435004,-0.8880700360412204,-0.5383997149246251,-0.4892767198698942,-0.4192329896732625,-0.2662119394548703,0.42563926497725957,-0.9516283401531096,-0.27828833538135345,0.7308603669279783,-0.4778397173544604,0.7696448777013061,-0.5269094546788433,0.4121100757138436,-0.8348053450021695,0.3800042559392218,-0.19087186757071883,0.34797100800645553,0.37858427050325316,-0.10313821853761507,-0.9863673578866197,0.13348836969635736,-0.9442263018897841,0.1783540989977963,-0.5657855081262058,-0.5956686903850921,0.04574236324391645,0.8870925604264102,-0.2995064400221179,-0.5504320281770765,0.3987290323960906,-0.6383395738100088,0.3160044358281411,-0.7034274634872417,0.7559183292956606,0.5108954664260685,-0.9680163988658477,-0.5469983060671919,-0.4335378795066085,0.9127562543497443,0.8055132044037909,0.9388988214539595,-0.2599393307844706,0.175741910479559,-0.2080252878427029,-0.9083966862098503,-0.6565217531226257,0.5310483256264609,0.08593155979947564,-0.4093086865338602,0.45746788034437635,-0.10439607682078189,0.40035151845065964,-0.11889415946104842,-0.8145608666645545,0.24253988313595443,-0.25148315919210273,-0.4513787497235824,-0.001267532971940044,-0.5517690029051998,0.6323753759321116,0.5718628568846242,0.9295785363227529,-0.527126012375853,0.2451141583198575,-0.5264934373692229,0.3187602372480529,-0.6111408181236206,-0.9761622511861028,-0.36286337108076516,0.6475609372559281,0.4658362094305175,0.22225701617808258,-0.8592332301605512,0.34488785667618904,-0.7179830304359018,0.9204667451925403,-0.05925276475525898,-0.886266200448053,0.14552587192069177,0.5774234063816632,-0.9135833962835198,0.0574400592441362,-0.43817661721503254,0.7356359918565778,0.22946997110050704,0.685065156853786,-0.3998538716419433,-0.1328326195146976,-0.4950160371787866,-0.12429113757316479,0.07117919346775414,-0.12057289724374831,0.10495897906848817,-0.6958711252956145,0.18997419555392736,-0.5504260884764296,-0.5038393878350842,-0.031634533555880306,-0.6688797873243735,0.6973235215572795,-0.6827485125290753,-0.8433388423104737,-0.013432360757767547,0.2235419592774912,-0.8123316756238921,0.20945857746344765,0.4427537814474345
-0.5515134006256086,0.5432068132760501,-0.5734000238364804,-0.4670945495893608,-0.0709545801100101,-0.07290605291416985,-0.30443708301166006,-0.5397881135407772,-0.3279563133880474,-0.3472342599671474,-0.9036792759951775,0.555152932363473,-0.777690474035313,-0.06374066703868897,0.17248302634138435,0.10659942955817803,-0.5773977213506007,-0.4952675368424284,-0.731755804185209,-0.05329316175207033,0.6911780743369502,-0.5148615571024417,-0.26407974691192004,-0.2901240871458024,-0.8412318953787901,-0.10039658223812042,-0.4205890644968797,-0.354067841573534,-0.9950255208509422,-0.2933048593501155,-0.7747533484602401,-0.4615215766190839,-0.018387567517096803,0.35040573996821545,-0.553963924575077,0.8146072188655886,-0.1611416810170906,-0.11732621376783958,-0.8087267970631384,-0.14625274686286893,-0.42780248053592285,-0.4558881523117666,-0.7816460433510961,-0.45362506269822434,-0.9430217794948494,-0.36191116075468033,-0.7621641217837769,-0.3807738822602472,0.9518939984566193,-0.3162652763353785,-0.31211408293165765,-0.868764846123385,-0.8947099073829734,-0.07128580350148506,-0.26323398620910865,0.3441943943951109,-0.5829454286842423,0.4372338472794115,-0.11362498075153304,-0.4885428105676438,-0.3394566644059369,-0.9490817354391312,0.8861511584577799,-0.8651560924618142,-0.27021212256600136,-0.6482185755394778,-0.6569691976152889,-0.8012130053970141,-0.16308406710024725,0.922093793679045,0.3064274753705425,0.9182357025683026,0.09949247700308028,-0.38938585602729714,-0.8688025602609283,-0.43806727541690593,-0.24953462189821174,-0.05395423219853268,-0.250474062267273,-0.43932321177538103,-0.6720663366707726,-0.3008884716675072,-0.5002331089146129,0.9197754611297013,-0.8285186149288913,0.5304952025523939,-0.7907734001489464,-0.7759057726492595,-0.3632358805987982,-0.5058698262006437,-0.01930842684049061,-0.7921442139310434,0.03863770109744369,-0.7701914866195992,-0.49607748254837336,-0.24121886118980562,0.6350666103034166,-0.6183594177962656,-0.6917063865857729,-0.9857195526498324,-0.7956093518929802,-0.37180514068553994,-0.7601787675330126,-0.7950823594238379,0.9448847562290981,0.6564979871470031,-0.6719522781071829,0.3057560914911446,-0.5361876068322214,-0.39975252053856647,-0.7166982691093658,-0.17472044231425987,-0.6679634041978095,-0.21482873493402,-0.4055532453655586,-0.5699067351540744,-0.11941277109283155,-0.018277183076511938,-0.971457542701898,-0.6695300672486015,0.21901461729128768,-0.6708493475280728,-0.32275425199055996,-0.9167571039608619,-0.23422119493845517,-0.5856964774947828,-0.7033062505884313,-0.48287367327851327,0.20514894206856904,0.946526738896815,-0.6212119719278166,0.9806240510224764,-0.6944556679338072,-0.14555561441835863,-0.6604155733937758
-0.42909045896767517,-0.05325995492813562,-0.7779963897172024,0.04772583702108801,-0.6389559874090913,0.9697501351128346,0.3600597344143215,-0.6909980913138124,-0.20510276644260217,-0.5892599784185166,-0.07481186519005845,-0.8848954568442691,0.5550925906484638,0.9678754586553182,-0.23181615329063288,-0.3386627971324738,0.5483435498124691,-0.35123247871516416,-0.5909876123797695,-0.04930684404984098,-0.22818674832424457,-0.3120236001182566,-0.7318401342192274,-0.538326404145762,-0.6508698374821587,-0.5064317850149268,-0.7643083878024766
