-0.9091136832104003,0.9034114201357633,-0.7425693166839944,-0.9520445953862864,-0.8076120041472712,-0.061190112441226185,-0.05087892152218321,0.4661183327759255,0.8709000379795182,0.9590241821163146,0.13073220338320257,-0.5494796539032798,-0.529665940771979,0.020086158154148492,0.19434064286097064,-0.5931655920850436,-0.22790213387707836,0.9871844048610203,0.9814470840703573,0.13944507545908102,0.42661034754544724,-0.8847852478791265,-0.5852667938111067,0.046617016392755284,-0.7092761023567882,-0.702349621429265,-0.3248597746312345,0.14863733478997498,0.9894659344435319,0.281928356685454,0.01078497118239885,0.9453072763512897,-0.6894131575596572,0.5392681379604325,-0.8350518196059604,0.448091597471691,-0.4551472788901949,-0.32649965054445684,0.48154619597609494,-0.3046338182899384,-0.5699788730455715,0.18374104404367886,0.439747521439247,0.1610900770372019,-0.8320015155863429,-0.36738344413526836,0.9922323504127488,0.6592330730536116,-0.45290236709850373,0.9451338555872157,0.5345855469203575,-0.33519556916426363,-0.6551581069744759,-0.9454092272863406,-0.04356167492408081,-0.8178332671616289,0.9735723499729487,-0.47438426490918917,0.3654467668592769,0.17361717151918232,-0.7794520841345576,0.2058922519924642,-0.762518943815824,-0.30042201648497313,0.897922852264986,0.7060768183622914,0.6934857105324594,-0.14360444602665456,0.4791257739560335,-0.3367759208431791,0.1560374283454451,0.9242531576868405
-0.13029383263677008,-0.15711919822544906,0.2075912026191984,-0.8861380789920796,-0.6021859121948138,0.6642791053007979,0.5472748279399484,0.5351325868936614,0.6315480361542871,-0.5514029380623287,-0.46950658565407866,-0.19775902753574748,-0.13612292800048242,-0.2745354788060872,-0.2246052347743005,-0.10962301637884342,-0.22365418437032314,-0.5998996752265595,0.20711685517208833,-0.3445796076581371,-0.29165619357016315,-0.9042274289351537,-0.8405120484967692,-0.9587150687393811,-0.7086341030552149,0.7486115022272948,-0.9428084978568875,0.270861224533943,-0.4997769765780846,-0.13741227212586238,-0.810088775633859,-0.9281489064497391,-0.6970181945472886,-0.8953984668818855,-0.8618807186898492,-0.8329188429362724,-0.16830835602407124,-0.9074463451445938,-0.9172400422229383,-0.5837359202006718,-0.2777430476941243,-0.027324253024706202,0.015784067932248957,0.5824075697678586,-0.9636063159085613,0.8309224643614397,-0.33923352389953565,0.6814367292828449,-0.16088253608333325,0.32134487757504493,-0.6861129014760947,0.9479692613524475,-0.36428763642446516,-0.9058813821349907,-0.4710203032483111,-0.8998025233181507,0.521769223143385,-0.5870416752431535,-0.29354730223504033,-0.7379279700621699,-0.8887200463050904,-0.07901849038138198,-0.3732868555959987,-0.5051637296433477,-0.6338695217768318,-0.5394913885236448,-0.4777499007995196,-0.5175956880856648,0.42562851454019945,-0.6088718664274082,0.8147091373264501,0.4078175152728931,-0.9409290680606277,-0.27831038328265123,-0.10744575700761194,-0.740778115303173,-0.6356569211291534,0.22164936667256563,-0.41075882924898477,0.32455408573043476,0.182180901897687,0.1632942914666844,-0.05517776912942762,-0.5826110943158748,0.3522778028192539,-0.2932414912357957,-0.6299204203728308,-0.8807173252079444,-0.636584155328624,-0.27354530324154414,-0.4863919683993867,-0.1063531817660579,0.45828717288734233,-0.5160426782569814,-0.6793249095313282,-0.6865254829075411,-0.12215563245435845,-0.6361067780426928,0.198632170077518,-0.5783006132446996,-0.3363846327027086,-0.40600019959854206,-0.19220363238847016,0.33949440173876533,0.8591602922950143,-0.23402780368462928,-0.24691552530246108,-0.7644522118326824,-0.9642639585022876,0.10502920694869067,-0.515846119822225,-0.9091445109018312,0.061283853848837166,-0.36044555489511176,-0.5470818478929849,-0.2928882179935982,0.8925220393326974,0.32381047865683654,-0.13119576390382948,-0.5199377167976817,-0.6875557579856397,-0.1100076297853464,-0.4250548589981642,-0.44572747711173744,-0.7224724044731063,0.9612052377068807,0.6380416940538098,-0.7605391208545687,-0.16895260059468142,-0.03272481686917117,0.17081198836187195,-0.8199326972077503,0.7525468889491616,0.01095942656708182,-0.7459460058137948
-0.6614392188418785,-0.6393696593849095,0.22512913378545307,-0.34030159176707864,-0.617682090174633,0.8765524932202806,0.09083073897232663,-0.7313926682920453,-0.25033144088868986,-0.8878545276078574,0.7173515633360998,-0.709529323853802,-0.6124817508568949,-0.7229684085800745,0.6992478080469275,0.0012677817315274176,0.1891549365891516,0.0022953637976876884,0.45199297184939113,0.6072929970758421,-0.33028555056995323,0.8898700858270223,0.7386087961154719,-0.44617844599759193,0.2651981309348399,-0.40930082941565404,0.8242184482663097,-0.4720714328391631,-0.42000817574472915,-0.2408821953145236,0.480532315575414,-0.7693171179499934,0.7620875083259044,-0.9482169020348694,0.9515971402256052,-0.46524428370059356,0.3462586559449228,0.7813319413997433,-0.07894171713879916,0.24455630771679737,0.6683250129587093,0.5695599404992091,0.6509953535970932,-0.19010173021335008,-0.8675118121509842
-0.9091136832104003,-0.8732089743896869,-0.7425693166839944,-0.9520445953862864,-0.8076120041472712,-0.061190112441226185,-0.05087892152218321,0.4661183327759255,0.8709000379795182,0.9590241821163146,0.13073220338320257,-0.5494796539032798,-0.529665940771979,0.020086158154148492,-0.02378019976271828,-0.5931655920850436,-0.22790213387707836,0.9871844048610203,0.9814470840703573,0.13944507545908102,0.42661034754544724,-0.8847852478791265,-0.5852667938111067,-0.6338515601300874,-0.7092761023567882,-0.702349621429265,-0.25309245745818876,0.14863733478997498,0.9611968427026794,0.281928356685454,0.01078497118239885,0.9453072763512897,-0.6894131575596572,0.5392681379604325,-0.8350518196059604,0.448091597471691,-0.4551472788901949,-0.32649965054445684,0.48154619597609494,-0.3046338182899384,-0.5699788730455715,0.18374104404367886,0.439747521439247,0.1610900770372019,-0.8320015155863429,-0.36738344413526836,0.9922323504127488,0.6592330730536116,-0.6133304217248499,0.9451338555872157,0.5345855469203575,0.05808849474083155,-0.6551581069744759,-0.9454092272863406,-0.04356167492408081,-0.8178332671616289,0.9735723499729487,-0.6132961633409177,0.3654467668592769,0.17361717151918232,-0.7794520841345576,0.5935862443817708,-0.762518943815824,-0.30042201648497313,0.897922852264986,0.7060768183622914,0.5646700429462226,-0.14360444602665456,0.4791257739560335,-0.3367759208431791,0.1560374283454451,0.9242531576868405
-0.13029383263677008,0.18376000251101066,0.2075912026191984,-0.8861380789920796,-0.6021859121948138,0.6642791053007979,0.5472748279399484,-0.23091525731887708,0.6315480361542871,-0.5514029380623287,-0.46950658565407866,-0.19775902753574748,-0.13612292800048242,-0.2745354788060872,-0.2246052347743005,-0.10962301637884342,-0.22365418437032314,-0.5998996752265595,0.20711685517208833,-0.3445796076581371,-0.29165619357016315,-0.9042274289351537,-0.8405120484967692,-0.9587150687393811,-0.7086341030552149,0.7486115022272948,-0.9428084978568875,0.270861224533943,-0.4997769765780846,-0.13741227212586238,-0.810088775633859,-0.9281489064497391,-0.06461194358994826,-0.8953984668818855,-0.8618807186898492,-0.8329188429362724,-0.16830835602407124,-0.9074463451445938,-0.9172400422229383,-0.9164980827331657,-0.2777430476941243,-0.027324253024706202,0.015784067932248957,0.5824075697678586,-0.9636063159085613,-0.07928825945790408,-0.33923352389953565,0.1662258969296979,-0.16088253608333325,0.32134487757504493,-0.6861129014760947,0.9479692613524475,-0.36428763642446516,-0.9058813821349907,0.6251207907854566,-0.8998025233181507,-0.056103916495832795,-0.5870416752431535,-0.29354730223504033,-0.7379279700621699,-0.8887200463050904,0.9647647193483195,-0.3732868555959987,-0.5051637296433477,-0.6338695217768318,-0.5394913885236448,-0.4777499007995196,-0.5175956880856648,0.42562851454019945,-0.4656509923304548,0.8147091373264501,0.4078175152728931,-0.9409290680606277,-0.2713493479550604,-0.10744575700761194,-0.740778115303173,-0.6356569211291534,0.22164936667256563,-0.41075882924898477,-0.5504094830130366,0.182180901897687,0.1632942914666844,-0.05517776912942762,-0.5850104155281008,0.2546930970051855,-0.2932414912357957,-0.6299204203728308,-0.8807173252079444,-0.636584155328624,-0.27354530324154414,-0.4863919683993867,-0.1063531817660579,-0.2398460608010775,-0.5160426782569814,-0.6793249095313282,0.14670459386331247,-0.12215563245435845,-0.6361067780426928,-0.029894037991764266,-0.5783006132446996,-0.3363846327027086,-0.40600019959854206,-0.19220363238847016,0.33949440173876533,0.8591602922950143,-0.23402780368462928,-0.3836633615098023,-0.7644522118326824,-0.9642639585022876,0.10502920694869067,-0.515846119822225,-0.9091445109018312,0.061283853848837166,-0.36044555489511176,-0.5470818478929849,-0.2928882179935982,-0.9017769818666719,0.32381047865683654,-0.13119576390382948,-0.5199377167976817,-0.6875557579856397,-0.1100076297853464,-0.7496746115765418,-0.44572747711173744,-0.7224724044731063,0.9933927242901492,0.6380416940538098,0.48742090481961076,-0.16895260059468142,-0.43776222311010005,0.17081198836187195,-0.8199326972077503,0.7525468889491616,0.01095942656708182,-0.7459460058137948
-0.6614392188418785,-0.6393696593849095,0.22512913378545307,-0.34030159176707864,-0.617682090174633,0.07211952793742027,0.09083073897232663,-0.7313926682920453,-0.25033144088868986,-0.8878545276078574,0.7173515633360998,-0.709529323853802,-0.6124817508568949,-0.7229684085800745,0.6992478080469275,-0.5651971234515054,-0.9609497801876602,0.0022953637976876884,0.45199297184939113,0.6072929970758421,-0.33028555056995323,0.8898700858270223,0.7386087961154719,-0.44617844599759193,0.2651981309348399,-0.40930082941565404,0.8242184482663097,-0.4720714328391631,-0.42000817574472915,-0.2408821953145236,-0.2952048313246878,-0.7693171179499934,0.7620875083259044,-0.9482169020348694,0.9515971402256052,-0.46524428370059356,0.3462586559449228,0.7813319413997433,-0.07894171713879916,0.24455630771679737,-0.41263136964467007,0.5695599404992091,0.6509953535970932,-0.19010173021335008,-0.8675118121509842
-0.9091136832104003,-0.8732089743896869,0.7134729162336781,-0.9520445953862864,-0.8076120041472712,-0.061190112441226185,-0.05087892152218321,0.4661183327759255,0.8709000379795182,0.9590241821163146,0.13073220338320257,-0.12050787671708374,-0.529665940771979,0.020086158154148492,0.19434064286097064,-0.5931655920850436,-0.22790213387707836,0.9871844048610203,0.9814470840703573,0.13944507545908102,0.42661034754544724,-0.8847852478791265,-0.5852667938111067,-0.6338515601300874,-0.7092761023567882,-0.702349621429265,-0.3248597746312345,0.14863733478997498,0.9894659344435319,0.281928356685454,0.01078497118239885,0.9453072763512897,-0.6894131575596572,0.5392681379604325,-0.8350518196059604,0.448091597471691,-0.4551472788901949,-0.32649965054445684,0.48154619597609494,-0.3046338182899384,-0.5699788730455715,0.18374104404367886,0.439747521439247,0.1610900770372019,-0.8320015155863429,-0.36738344413526836,0.9922323504127488,0.6592330730536116,-0.45290236709850373,0.9451338555872157,0.5345855469203575,-0.33519556916426363,-0.6551581069744759,-0.9454092272863406,-0.04356167492408081,-0.8178332671616289,0.9735723499729487,-0.47438426490918917,0.3654467668592769,0.8037077974131597,-0.7794520841345576,0.5935862443817708,-0.762518943815824,-0.30042201648497313,0.897922852264986,0.7060768183622914,0.6934857105324594,-0.14360444602665456,0.4791257739560335,-0.3367759208431791,0.1560374283454451,0.9242531576868405
-0.13029383263677008,0.4949276775330993,0.2075912026191984,-0.8861380789920796,-0.6021859121948138,0.6642791053007979,0.5472748279399484,0.5351325868936614,0.6315480361542871,-0.5514029380623287,-0.46950658565407866,-0.19775902753574748,-0.13612292800048242,-0.2745354788060872,-0.2246052347743005,-0.10962301637884342,-0.22365418437032314,-0.5998996752265595,0.20711685517208833,-0.3445796076581371,-0.29165619357016315,-0.9042274289351537,-0.8405120484967692,-0.9587150687393811,-0.7086341030552149,0.7486115022272948,-0.9428084978568875,0.270861224533943,-0.4997769765780846,-0.13741227212586238,-0.810088775633859,-0.9281489064497391,-0.06461194358994826,-0.8953984668818855,-0.8618807186898492,-0.8329188429362724,-0.16830835602407124,-0.9074463451445938,-0.9172400422229383,-0.9164980827331657,-0.2777430476941243,-0.027324253024706202,0.015784067932248957,0.5824075697678586,-0.9636063159085613,0.8309224643614397,0.7713737241939975,0.1662258969296979,-0.16088253608333325,0.32134487757504493,-0.6764654846306337,0.9479692613524475,-0.36428763642446516,-0.6362816969750389,0.6251207907854566,-0.8998025233181507,0.521769223143385,-0.5870416752431535,-0.29354730223504033,-0.7379279700621699,-0.8887200463050904,-0.07901849038138198,-0.3732868555959987,-0.5051637296433477,-0.6338695217768318,-0.5394913885236448,-0.4777499007995196,-0.5175956880856648,0.42562851454019945,0.7774022593935059,0.8147091373264501,0.4078175152728931,-0.9409290680606277,-0.2713493479550604,-0.10744575700761194,-0.740778115303173,-0.6356569211291534,0.22164936667256563,-0.41075882924898477,0.32455408573043476,0.182180901897687,0.1632942914666844,-0.05517776912942762,-0.5826110943158748,0.2546930970051855,-0.2932414912357957,-0.6299204203728308,-0.8807173252079444,-0.636584155328624,-0.27354530324154414,-0.4863919683993867,0.2184975312891948,-0.2398460608010775,-0.5160426782569814,-0.6793249095313282,0.14670459386331247,-0.12215563245435845,-0.6361067780426928,-0.029894037991764266,-0.5783006132446996,-0.3363846327027086,-0.40600019959854206,-0.19220363238847016,0.33949440173876533,0.8591602922950143,-0.23402780368462928,-0.24691552530246108,-0.7644522118326824,-0.9642639585022876,0.10502920694869067,-0.515846119822225,-0.9091445109018312,0.061283853848837166,-0.36044555489511176,-0.5470818478929849,-0.2928882179935982,-0.9017769818666719,0.32381047865683654,-0.13119576390382948,-0.5199377167976817,-0.6875557579856397,-0.1100076297853464,-0.4250548589981642,-0.44572747711173744,-0.7224724044731063,0.9933927242901492,0.6380416940538098,-0.7605391208545687,-0.16895260059468142,-0.43776222311010005,0.17081198836187195,-0.8199326972077503,0.7525468889491616,0.01095942656708182,-0.7459460058137948
-0.6614392188418785,-0.6393696593849095,0.22512913378545307,-0.34030159176707864,-0.617682090174633,0.8765524932202806,0.09083073897232663,-0.7313926682920453,-0.25033144088868986,-0.8878545276078574,0.7173515633360998,-0.709529323853802,-0.6124817508568949,-0.7229684085800745,0.6992478080469275,-0.5651971234515054,0.1891549365891516,0.0022953637976876884,0.45199297184939113,0.6072929970758421,-0.33028555056995323,0.8898700858270223,0.7386087961154719,-0.44617844599759193,0.2651981309348399,-0.40930082941565404,0.8242184482663097,-0.4720714328391631,-0.42000817574472915,-0.2408821953145236,-0.2952048313246878,-0.7693171179499934,0.7620875083259044,-0.9482169020348694,-0.928128407310848,-0.46524428370059356,0.3462586559449228,0.7813319413997433,-0.07894171713879916,0.24455630771679737,0.6683250129587093,0.5695599404992091,0.8687314576672818,-0.19010173021335008,-0.8675118121509842
-0.9091136832104003,0.9034114201357633,-0.7425693166839944,-0.9520445953862864,-0.8076120041472712,-0.061190112441226185,-0.05087892152218321,0.4661183327759255,0.8709000379795182,0.9590241821163146,0.13073220338320257,-0.12050787671708374,-0.529665940771979,0.020086158154148492,0.19434064286097064,-0.5931655920850436,-0.22790213387707836,0.9871844048610203,0.9814470840703573,0.13944507545908102,0.42661034754544724,-0.8847852478791265,-0.5852667938111067,-0.6338515601300874,-0.7092761023567882,-0.702349621429265,-0.3248597746312345,0.14863733478997498,0.9894659344435319,0.281928356685454,0.01078497118239885,0.9453072763512897,-0.6894131575596572,0.5392681379604325,-0.8350518196059604,0.448091597471691,-0.4551472788901949,-0.32649965054445684,0.48154619597609494,-0.3046338182899384,-0.5699788730455715,0.18374104404367886,0.439747521439247,0.1610900770372019,-0.8320015155863429,-0.36738344413526836,0.9922323504127488,0.6592330730536116,-0.45290236709850373,0.9451338555872157,0.08833292788440872,0.05808849474083155,-0.6551581069744759,-0.9454092272863406,-0.04356167492408081,-0.8178332671616289,0.9735723499729487,-0.47438426490918917,0.3654467668592769,0.17361717151918232,-0.7794520841345576,0.2058922519924642,-0.762518943815824,-0.30042201648497313,0.897922852264986,0.7060768183622914,0.6934857105324594,-0.14360444602665456,0.4791257739560335,-0.3367759208431791,0.1560374283454451,0.9242531576868405
-0.13029383263677008,-0.15711919822544906,0.2075912026191984,-0.8861380789920796,-0.6021859121948138,0.6642791053007979,0.5472748279399484,-0.23091525731887708,0.6315480361542871,-0.5514029380623287,-0.46950658565407866,-0.19775902753574748,-0.13612292800048242,-0.2745354788060872,-0.2246052347743005,-0.10962301637884342,-0.22365418437032314,-0.5998996752265595,0.20711685517208833,-0.3445796076581371,-0.29165619357016315,-0.9042274289351537,-0.8405120484967692,-0.9587150687393811,-0.7086341030552149,0.7486115022272948,-0.9428084978568875,0.270861224533943,-0.4997769765780846,-0.13741227212586238,-0.810088775633859,-0.9281489064497391,-0.06461194358994826,-0.8953984668818855,-0.8618807186898492,-0.8329188429362724,-0.16830835602407124,-0.9074463451445938,-0.9172400422229383,-0.9164980827331657,-0.2777430476941243,-0.027324253024706202,0.015784067932248957,0.5824075697678586,-0.9636063159085613,-0.07928825945790408,0.7713737241939975,0.1662258969296979,-0.16088253608333325,0.32134487757504493,-0.6861129014760947,0.9479692613524475,-0.36428763642446516,-0.9058813821349907,-0.4710203032483111,-0.8998025233181507,0.521769223143385,-0.5870416752431535,-0.29354730223504033,-0.7379279700621699,-0.8887200463050904,0.9647647193483195,-0.3732868555959987,-0.5051637296433477,-0.6338695217768318,-0.5394913885236448,-0.4777499007995196,-0.5175956880856648,0.42562851454019945,-0.4656509923304548,0.8147091373264501,0.4078175152728931,-0.9409290680606277,-0.27831038328265123,-0.10744575700761194,-0.740778115303173,-0.6356569211291534,0.22164936667256563,-0.41075882924898477,0.32455408573043476,0.182180901897687,0.1632942914666844,-0.05517776912942762,-0.5826110943158748,0.2546930970051855,-0.2932414912357957,-0.6299204203728308,-0.8807173252079444,-0.636584155328624,-0.27354530324154414,-0.4863919683993867,0.2184975312891948,-0.2398460608010775,-0.5160426782569814,-0.6793249095313282,0.14670459386331247,-0.12215563245435845,-0.6361067780426928,-0.029894037991764266,-0.5783006132446996,-0.3363846327027086,-0.40600019959854206,-0.19220363238847016,0.33949440173876533,0.8591602922950143,-0.23402780368462928,-0.3836633615098023,-0.7644522118326824,-0.9642639585022876,0.10502920694869067,-0.515846119822225,-0.9091445109018312,0.061283853848837166,-0.36044555489511176,-0.5470818478929849,-0.2928882179935982,0.8925220393326974,0.32381047865683654,-0.13119576390382948,-0.5199377167976817,-0.6875557579856397,-0.1100076297853464,-0.4250548589981642,-0.44572747711173744,-0.7224724044731063,0.9933927242901492,0.6380416940538098,-0.4730228407236463,-0.16895260059468142,-0.43776222311010005,0.17081198836187195,-0.8199326972077503,-0.20588614159821927,0.01095942656708182,-0.7459460058137948
-0.6614392188418785,-0.6393696593849095,0.22512913378545307,-0.34030159176707864,-0.617682090174633,0.8765524932202806,0.09083073897232663,-0.7313926682920453,-0.25033144088868986,-0.8878545276078574,0.7173515633360998,-0.709529323853802,-0.6124817508568949,-0.6036756960228987,0.6992478080469275,0.0012677817315274176,-0.9609497801876602,0.0022953637976876884,0.45199297184939113,0.6072929970758421,-0.33028555056995323,0.8898700858270223,0.7386087961154719,-0.44617844599759193,0.2651981309348399,-0.40930082941565404,0.8242184482663097,-0.4720714328391631,-0.42000817574472915,-0.2408821953145236,0.480532315575414,-0.7693171179499934,0.06351244579232018,-0.9482169020348694,-0.928128407310848,-0.46524428370059356,0.3462586559449228,0.7813319413997433,-0.07894171713879916,0.24455630771679737,0.6683250129587093,0.5695599404992091,0.6509953535970932,-0.19010173021335008,-0.8675118121509842
-0.9091136832104003,0.9034114201357633,-0.7425693166839944,-0.9520445953862864,-0.8076120041472712,-0.061190112441226185,-0.05087892152218321,0.4661183327759255,0.7392510194038244,0.04293023277011132,0.13073220338320257,-0.5494796539032798,-0.529665940771979,0.7206764200321865,0.19434064286097064,0.2190970138842283,-0.22790213387707836,0.9871844048610203,0.9814470840703573,0.13944507545908102,0.42661034754544724,-0.8847852478791265,-0.5852667938111067,-0.6338515601300874,-0.7092761023567882,-0.702349621429265,-0.25309245745818876,0.14863733478997498,0.9894659344435319,-0.4956320889998296,0.01078497118239885,0.9453072763512897,-0.6894131575596572,0.5392681379604325,-0.8350518196059604,0.448091597471691,-0.4551472788901949,-0.32649965054445684,0.48154619597609494,-0.3046338182899384,-0.5699788730455715,0.18374104404367886,0.439747521439247,0.1610900770372019,-0.8320015155863429,-0.36738344413526836,0.9922323504127488,0.6592330730536116,-0.45290236709850373,-0.47724307089853846,0.5345855469203575,-0.33519556916426363,-0.6551581069744759,-0.9454092272863406,-0.04356167492408081,-0.8178332671616289,0.9735723499729487,-0.6132961633409177,0.3654467668592769,0.17361717151918232,-0.7794520841345576,0.5935862443817708,-0.762518943815824,-0.30042201648497313,0.897922852264986,0.7060768183622914,0.5646700429462226,-0.14360444602665456,0.4791257739560335,-0.3367759208431791,0.1560374283454451,0.9242531576868405
-0.13029383263677008,-0.15711919822544906,0.2075912026191984,-0.8861380789920796,-0.6021859121948138,0.6642791053007979,0.5472748279399484,0.5351325868936614,0.6315480361542871,-0.5514029380623287,-0.46950658565407866,-0.19775902753574748,-0.11010119533394236,-0.2745354788060872,-0.2246052347743005,-0.10962301637884342,-0.22365418437032314,-0.5998996752265595,0.20711685517208833,-0.3445796076581371,-0.29165619357016315,-0.9042274289351537,-0.8405120484967692,-0.9587150687393811,-0.7086341030552149,0.7486115022272948,-0.9428084978568875,0.9363087687558282,-0.6155410956397545,-0.13741227212586238,-0.810088775633859,-0.9281489064497391,0.2155963995087833,-0.8953984668818855,-0.8618807186898492,-0.8329188429362724,-0.16830835602407124,-0.9074463451445938,-0.9172400422229383,-0.6327968950518905,-0.2777430476941243,-0.027324253024706202,0.015784067932248957,0.5824075697678586,-0.9636063159085613,-0.07928825945790408,0.7713737241939975,0.6814367292828449,-0.16088253608333325,0.32134487757504493,-0.6861129014760947,0.9479692613524475,-0.36428763642446516,-0.9058813821349907,-0.4710203032483111,-0.8998025233181507,0.521769223143385,-0.5870416752431535,-0.29354730223504033,-0.7379279700621699,-0.8887200463050904,-0.07901849038138198,-0.3732868555959987,-0.5051637296433477,-0.6338695217768318,-0.5394913885236448,-0.4777499007995196,-0.5175956880856648,0.42562851454019945,-0.6088718664274082,0.8147091373264501,0.4078175152728931,-0.9409290680606277,-0.2713493479550604,-0.10744575700761194,-0.7452673112610932,-0.6356569211291534,0.22164936667256563,-0.41075882924898477,0.32455408573043476,0.182180901897687,0.1632942914666844,-0.05517776912942762,-0.5826110943158748,0.2546930970051855,0.5481931050849831,-0.6299204203728308,-0.8807173252079444,-0.636584155328624,-0.27354530324154414,-0.4863919683993867,-0.1063531817660579,0.45828717288734233,-0.578326450090651,-0.6793249095313282,-0.06197118475835639,-0.12215563245435845,-0.6361067780426928,-0.029894037991764266,0.9022301593569764,-0.3363846327027086,-0.40600019959854206,-0.19220363238847016,0.33949440173876533,0.8591602922950143,-0.23402780368462928,-0.3836633615098023,-0.7644522118326824,-0.9642639585022876,0.10502920694869067,-0.515846119822225,-0.9091445109018312,0.061283853848837166,-0.36044555489511176,-0.5470818478929849,-0.2928882179935982,-0.9017769818666719,0.32381047865683654,-0.13119576390382948,-0.5199377167976817,-0.6875557579856397,-0.1100076297853464,-0.4250548589981642,-0.44572747711173744,-0.7224724044731063,0.9933927242901492,0.6380416940538098,0.48742090481961076,-0.16895260059468142,-0.43776222311010005,0.17081198836187195,-0.8199326972077503,0.7525468889491616,0.01095942656708182,-0.7459460058137948
-0.6614392188418785,-0.6393696593849095,0.22512913378545307,-0.34030159176707864,-0.617682090174633,0.8765524932202806,0.09083073897232663,-0.2114522829271881,-0.25033144088868986,-0.8878545276078574,0.7173515633360998,-0.709529323853802,-0.6124817508568949,-0.6036756960228987,0.6992478080469275,-0.5651971234515054,-0.9609497801876602,0.0022953637976876884,0.45199297184939113,0.6072929970758421,-0.33028555056995323,0.8898700858270223,0.7386087961154719,-0.44617844599759193,0.2651981309348399,-0.40930082941565404,0.8242184482663097,-0.4720714328391631,-0.42000817574472915,-0.2408821953145236,-0.730615387204733,-0.7693171179499934,0.06351244579232018,-0.9482169020348694,0.9515971402256052,-0.46524428370059356,0.3462586559449228,0.7813319413997433,-0.07894171713879916,0.24455630771679737,0.6683250129587093,0.5695599404992091,0.6509953535970932,-0.19010173021335008,-0.8675118121509842
-0.9091136832104003,-0.8732089743896869,-0.7425693166839944,-0.9520445953862864,-0.8076120041472712,-0.061190112441226185,-0.05087892152218321,0.4661183327759255,0.7392510194038244,0.9590241821163146,0.13073220338320257,-0.5494796539032798,-0.529665940771979,-0.7215754432972483,-0.02378019976271828,-0.5931655920850436,-0.22790213387707836,0.9871844048610203,0.9814470840703573,0.13944507545908102,0.42661034754544724,-0.8847852478791265,-0.5852667938111067,-0.6338515601300874,-0.7092761023567882,-0.702349621429265,-0.3248597746312345,0.14863733478997498,0.9611968427026794,0.281928356685454,0.01078497118239885,0.9453072763512897,-0.6894131575596572,0.5392681379604325,-0.8350518196059604,0.448091597471691,-0.4551472788901949,-0.32649965054445684,0.48154619597609494,-0.3046338182899384,-0.5699788730455715,0.18374104404367886,0.6951601760007147,0.1610900770372019,-0.8320015155863429,-0.36738344413526836,0.9922323504127488,0.6592330730536116,-0.45290236709850373,0.9451338555872157,0.5345855469203575,0.05808849474083155,-0.6551581069744759,-0.9454092272863406,-0.04356167492408081,-0.8178332671616289,0.9735723499729487,-0.47438426490918917,0.3654467668592769,0.17361717151918232,-0.7794520841345576,0.5935862443817708,-0.762518943815824,-0.051025560323715524,0.897922852264986,0.7060768183622914,0.5646700429462226,-0.14360444602665456,0.4791257739560335,-0.3367759208431791,0.1560374283454451,0.9242531576868405
-0.13029383263677008,-0.15711919822544906,0.2075912026191984,-0.8861380789920796,-0.6021859121948138,0.6642791053007979,0.5472748279399484,-0.23091525731887708,0.6315480361542871,-0.5514029380623287,-0.46950658565407866,-0.19775902753574748,-0.13612292800048242,-0.2745354788060872,-0.2246052347743005,-0.10962301637884342,-0.22365418437032314,-0.5998996752265595,0.20711685517208833,-0.3445796076581371,-0.29165619357016315,-0.9042274289351537,-0.8405120484967692,-0.9587150687393811,-0.7086341030552149,0.7486115022272948,-0.9428084978568875,0.270861224533943,-0.4997769765780846,-0.13741227212586238,-0.810088775633859,-0.9281489064497391,-0.06461194358994826,-0.8953984668818855,-0.8618807186898492,-0.8329188429362724,-0.16830835602407124,-0.9074463451445938,-0.9172400422229383,-0.9164980827331657,-0.2777430476941243,-0.027324253024706202,0.015784067932248957,0.5824075697678586,-0.9636063159085613,0.35425778635447824,0.7713737241939975,0.1662258969296979,-0.16088253608333325,0.32134487757504493,-0.6861129014760947,0.9479692613524475,-0.36428763642446516,-0.6362816969750389,0.6251207907854566,-0.8998025233181507,0.521769223143385,-0.5870416752431535,-0.29354730223504033,-0.7379279700621699,-0.8887200463050904,0.9647647193483195,-0.3732868555959987,-0.5051637296433477,-0.6338695217768318,-0.5394913885236448,-0.4777499007995196,-0.5379679650252802,0.42562851454019945,-0.4656509923304548,0.8147091373264501,0.4078175152728931,-0.9409290680606277,-0.27831038328265123,-0.10744575700761194,-0.740778115303173,-0.6356569211291534,0.22164936667256563,-0.41075882924898477,-0.5504094830130366,0.182180901897687,0.1632942914666844,-0.05517776912942762,-0.5826110943158748,0.2546930970051855,-0.2932414912357957,-0.8118692563623795,-0.8807173252079444,-0.636584155328624,-0.27354530324154414,-0.4863919683993867,0.2184975312891948,-0.5785020548318816,-0.578326450090651,-0.6793249095313282,0.14670459386331247,-0.12215563245435845,-0.6361067780426928,-0.029894037991764266,-0.5783006132446996,-0.3363846327027086,-0.40600019959854206,-0.19220363238847016,0.33949440173876533,0.8591602922950143,-0.23402780368462928,-0.24691552530246108,-0.7644522118326824,-0.9642639585022876,0.10502920694869067,-0.515846119822225,-0.9091445109018312,0.061283853848837166,-0.36044555489511176,-0.5470818478929849,-0.2928882179935982,-0.9017769818666719,0.32381047865683654,-0.13119576390382948,-0.5199377167976817,-0.6875557579856397,-0.1100076297853464,0.005201965165841704,-0.44572747711173744,-0.7224724044731063,0.9933927242901492,0.6380416940538098,0.48742090481961076,-0.16895260059468142,-0.43776222311010005,0.17081198836187195,-0.8199326972077503,0.7525468889491616,0.01095942656708182,-0.7459460058137948
-0.6614392188418785,-0.6393696593849095,0.22512913378545307,-0.34030159176707864,-0.617682090174633,0.07211952793742027,0.09083073897232663,-0.7313926682920453,-0.25033144088868986,-0.6632593006619751,0.7173515633360998,-0.709529323853802,-0.6124817508568949,-0.7229684085800745,0.6992478080469275,-0.5651971234515054,-0.9609497801876602,-0.18228641669005885,0.45199297184939113,0.6072929970758421,-0.33028555056995323,0.8898700858270223,0.7386087961154719,-0.44617844599759193,0.744012683877429,0.3051860633674359,0.8242184482663097,-0.4720714328391631,-0.42000817574472915,-0.2408821953145236,-0.2952048313246878,-0.7693171179499934,0.7620875083259044,-0.9482169020348694,0.9515971402256052,-0.46524428370059356,0.3462586559449228,0.7813319413997433,-0.07894171713879916,0.24455630771679737,-0.41263136964467007,0.5695599404992091,0.8687314576672818,-0.19010173021335008,-0.8675118121509842
-0.9091136832104003,-0.8732089743896869,-0.7425693166839944,-0.9520445953862864,-0.8076120041472712,-0.061190112441226185,-0.05087892152218321,0.4661183327759255,0.7392510194038244,0.9590241821163146,0.5493835510790968,-0.12050787671708374,-0.529665940771979,0.7206764200321865,0.19434064286097064,0.2190970138842283,-0.22790213387707836,0.9871844048610203,0.9814470840703573,0.13944507545908102,0.42661034754544724,-0.8847852478791265,-0.5852667938111067,-0.6338515601300874,-0.7092761023567882,-0.702349621429265,-0.3248597746312345,0.14863733478997498,0.9894659344435319,0.281928356685454,0.01078497118239885,0.9453072763512897,-0.6894131575596572,0.5392681379604325,-0.8350518196059604,0.448091597471691,-0.4551472788901949,-0.32649965054445684,0.48154619597609494,-0.3046338182899384,-0.5699788730455715,0.18374104404367886,0.439747521439247,0.1610900770372019,-0.8320015155863429,-0.36738344413526836,0.9922323504127488,0.6592330730536116,-0.45290236709850373,0.9451338555872157,0.5345855469203575,-0.33519556916426363,-0.6551581069744759,-0.9454092272863406,-0.04356167492408081,-0.8178332671616289,0.9735723499729487,-0.6132961633409177,0.3654467668592769,0.17361717151918232,-0.7794520841345576,0.5935862443817708,-0.762518943815824,-0.30042201648497313,0.897922852264986,0.7060768183622914,0.5646700429462226,-0.14360444602665456,0.4791257739560335,-0.3367759208431791,0.1560374283454451,0.9242531576868405
-0.13029383263677008,0.4949276775330993,0.2075912026191984,-0.8861380789920796,-0.6021859121948138,0.6642791053007979,0.5472748279399484,0.5351325868936614,0.6315480361542871,-0.5514029380623287,-0.46950658565407866,-0.19775902753574748,-0.13612292800048242,-0.2745354788060872,-0.2246052347743005,-0.10962301637884342,-0.22365418437032314,-0.5998996752265595,0.20711685517208833,-0.3445796076581371,-0.29165619357016315,-0.9042274289351537,-0.8405120484967692,0.9168597421964146,-0.7086341030552149,0.7486115022272948,-0.9428084978568875,0.270861224533943,-0.4997769765780846,-0.13741227212586238,-0.810088775633859,-0.9281489064497391,-0.06461194358994826,-0.8953984668818855,-0.8618807186898492,-0.8329188429362724,-0.16830835602407124,-0.9074463451445938,-0.9172400422229383,-0.9164980827331657,-0.4463933810426244,-0.027324253024706202,0.015784067932248957,0.5824075697678586,-0.9636063159085613,0.8309224643614397,0.7713737241939975,0.6814367292828449,-0.16088253608333325,0.32134487757504493,-0.6764654846306337,0.9479692613524475,-0.36428763642446516,-0.6362816969750389,-0.4710203032483111,-0.8998025233181507,0.521769223143385,-0.5870416752431535,-0.29354730223504033,-0.7379279700621699,-0.8887200463050904,-0.07901849038138198,-0.3732868555959987,-0.5051637296433477,-0.6338695217768318,-0.17195373447758167,-0.4777499007995196,-0.5175956880856648,0.42562851454019945,0.7774022593935059,0.8147091373264501,-0.7142409269988148,-0.9409290680606277,-0.2713493479550604,-0.10744575700761194,-0.740778115303173,-0.5176873391417269,0.22164936667256563,-0.41075882924898477,0.32455408573043476,0.182180901897687,0.1632942914666844,-0.05517776912942762,-0.5826110943158748,0.3522778028192539,-0.2932414912357957,-0.6299204203728308,-0.8807173252079444,-0.636584155328624,-0.27354530324154414,-0.4863919683993867,0.2184975312891948,-0.2398460608010775,-0.5160426782569814,-0.6793249095313282,0.14670459386331247,-0.12215563245435845,-0.6361067780426928,-0.029894037991764266,-0.5783006132446996,-0.3363846327027086,-0.40600019959854206,-0.19220363238847016,0.33949440173876533,0.8591602922950143,-0.23402780368462928,-0.24691552530246108,-0.7644522118326824,-0.9642639585022876,0.10502920694869067,-0.515846119822225,-0.9091445109018312,0.061283853848837166,-0.36044555489511176,-0.5470818478929849,-0.2928882179935982,-0.9017769818666719,0.32381047865683654,-0.13119576390382948,-0.5199377167976817,-0.6875557579856397,-0.1100076297853464,-0.7496746115765418,-0.44572747711173744,-0.7224724044731063,0.9933927242901492,0.6380416940538098,-0.7605391208545687,-0.16895260059468142,-0.03272481686917117,0.17081198836187195,-0.8199326972077503,0.7525468889491616,0.01095942656708182,-0.7459460058137948
-0.6614392188418785,-0.6393696593849095,0.22512913378545307,-0.34030159176707864,-0.617682090174633,0.8765524932202806,0.09083073897232663,-0.7313926682920453,-0.25033144088868986,-0.8878545276078574,-0.44053868618784975,-0.709529323853802,-0.6124817508568949,-0.6036756960228987,0.6992478080469275,-0.5651971234515054,-0.9609497801876602,-0.18228641669005885,0.45199297184939113,0.6072929970758421,-0.33028555056995323,0.8898700858270223,0.7386087961154719,-0.44617844599759193,0.2651981309348399,-0.40930082941565404,0.8242184482663097,-0.4720714328391631,-0.42000817574472915,-0.2408821953145236,-0.2952048313246878,-0.7693171179499934,0.7620875083259044,-0.9482169020348694,0.9515971402256052,-0.46524428370059356,0.3462586559449228,0.7813319413997433,-0.07894171713879916,0.24455630771679737,0.6683250129587093,0.5695599404992091,0.6509953535970932,-0.19010173021335008,-0.8675118121509842
-0.9091136832104003,0.9034114201357633,-0.7425693166839944,-0.9520445953862864,-0.8076120041472712,-0.061190112441226185,-0.05087892152218321,0.4661183327759255,0.7392510194038244,0.9590241821163146,0.13073220338320257,-0.5494796539032798,-0.529665940771979,-0.7215754432972483,0.19434064286097064,-0.5931655920850436,-0.22790213387707836,0.9871844048610203,0.9814470840703573,0.13944507545908102,0.42661034754544724,-0.8847852478791265,-0.5852667938111067,-0.6338515601300874,-0.7092761023567882,-0.702349621429265,-0.3248597746312345,0.14863733478997498,0.9894659344435319,-0.4956320889998296,0.01078497118239885,0.9453072763512897,-0.6894131575596572,0.5392681379604325,-0.8350518196059604,0.448091597471691,-0.4551472788901949,-0.32649965054445684,0.48154619597609494,-0.3046338182899384,-0.5699788730455715,0.18374104404367886,0.439747521439247,0.1610900770372019,-0.8320015155863429,-0.36738344413526836,0.9922323504127488,0.6592330730536116,-0.45290236709850373,0.9451338555872157,0.5345855469203575,0.05808849474083155,-0.6551581069744759,-0.9454092272863406,-0.04356167492408081,-0.8178332671616289,0.9735723499729487,-0.6132961633409177,0.3654467668592769,0.17361717151918232,-0.7794520841345576,0.5935862443817708,-0.762518943815824,-0.30042201648497313,0.897922852264986,0.7060768183622914,0.6934857105324594,-0.14360444602665456,0.4791257739560335,-0.3367759208431791,0.1560374283454451,0.9242531576868405
-0.13029383263677008,0.4949276775330993,0.2075912026191984,-0.8861380789920796,-0.6021859121948138,0.8666147135148192,0.5472748279399484,0.5351325868936614,0.6315480361542871,-0.5514029380623287,-0.46950658565407866,-0.19775902753574748,-0.13612292800048242,-0.2745354788060872,-0.2246052347743005,-0.10962301637884342,-0.22365418437032314,-0.5998996752265595,0.20711685517208833,-0.3445796076581371,-0.29165619357016315,-0.9042274289351537,-0.8405120484967692,-0.9587150687393811,-0.7086341030552149,0.7486115022272948,-0.9428084978568875,0.270861224533943,-0.4997769765780846,-0.13741227212586238,-0.810088775633859,-0.9281489064497391,-0.06461194358994826,-0.8953984668818855,-0.8618807186898492,-0.8329188429362724,-0.16830835602407124,-0.9074463451445938,-0.9172400422229383,-0.9164980827331657,-0.2777430476941243,-0.027324253024706202,0.015784067932248957,0.5824075697678586,-0.9636063159085613,0.35425778635447824,0.7713737241939975,0.1662258969296979,-0.16088253608333325,0.32134487757504493,-0.6764654846306337,0.9479692613524475,-0.36428763642446516,-0.6362816969750389,-0.4710203032483111,-0.8998025233181507,0.521769223143385,-0.5870416752431535,-0.29354730223504033,-0.7379279700621699,-0.8887200463050904,-0.07901849038138198,-0.3732868555959987,-0.5051637296433477,-0.6338695217768318,-0.17195373447758167,-0.4777499007995196,-0.5175956880856648,0.42562851454019945,0.7774022593935059,0.8147091373264501,0.4078175152728931,-0.9409290680606277,-0.27831038328265123,-0.10744575700761194,-0.7452673112610932,-0.5176873391417269,0.22164936667256563,-0.41075882924898477,0.32455408573043476,0.182180901897687,0.1632942914666844,-0.05517776912942762,-0.5826110943158748,0.2546930970051855,-0.2932414912357957,-0.6299204203728308,-0.8807173252079444,-0.636584155328624,-0.27354530324154414,-0.4863919683993867,-0.1063531817660579,-0.5785020548318816,-0.578326450090651,-0.6793249095313282,0.14670459386331247,-0.12215563245435845,-0.6361067780426928,-0.029894037991764266,-0.5783006132446996,-0.3363846327027086,-0.40600019959854206,-0.19220363238847016,0.33949440173876533,0.8591602922950143,-0.23402780368462928,-0.24691552530246108,-0.7644522118326824,-0.9642639585022876,0.10502920694869067,-0.515846119822225,-0.9091445109018312,0.061283853848837166,-0.36044555489511176,-0.5470818478929849,-0.2928882179935982,-0.9017769818666719,0.32381047865683654,-0.13119576390382948,-0.5199377167976817,-0.6875557579856397,-0.9829529791656744,-0.7496746115765418,-0.44572747711173744,-0.7224724044731063,0.9933927242901492,0.6380416940538098,0.48742090481961076,-0.16895260059468142,-0.43776222311010005,0.17081198836187195,-0.8199326972077503,0.7525468889491616,0.01095942656708182,-0.7459460058137948
-0.6614392188418785,-0.6393696593849095,0.22512913378545307,-0.34030159176707864,-0.617682090174633,0.8765524932202806,0.09083073897232663,-0.7313926682920453,-0.25033144088868986,-0.6632593006619751,0.7173515633360998,-0.709529323853802,-0.6124817508568949,-0.7229684085800745,0.6992478080469275,-0.5651971234515054,-0.9609497801876602,-0.18228641669005885,0.45199297184939113,0.6072929970758421,-0.33028555056995323,0.8898700858270223,0.7386087961154719,-0.44617844599759193,0.2651981309348399,0.3051860633674359,0.8242184482663097,-0.4720714328391631,-0.42000817574472915,-0.2408821953145236,-0.2952048313246878,-0.7693171179499934,0.7620875083259044,-0.9482169020348694,-0.928128407310848,-0.46524428370059356,0.3462586559449228,0.7813319413997433,-0.07894171713879916,0.24455630771679737,0.6683250129587093,0.5695599404992091,0.8687314576672818,-0.19010173021335008,-0.8675118121509842
-0.9091136832104003,-0.8732089743896869,-0.7425693166839944,-0.9520445953862864,-0.8076120041472712,-0.061190112441226185,-0.05087892152218321,0.4661183327759255,0.7392510194038244,0.9590241821163146,0.13073220338320257,-0.12050787671708374,-0.529665940771979,0.020086158154148492,0.19434064286097064,-0.5931655920850436,-0.22790213387707836,0.9871844048610203,0.9814470840703573,0.13944507545908102,0.42661034754544724,-0.8847852478791265,-0.5852667938111067,-0.6338515601300874,-0.7092761023567882,-0.702349621429265,-0.3248597746312345,0.14863733478997498,0.9894659344435319,0.281928356685454,0.01078497118239885,0.9453072763512897,-0.6894131575596572,0.5392681379604325,-0.8350518196059604,0.448091597471691,-0.4551472788901949,-0.6724684032462545,0.48154619597609494,-0.3046338182899384,-0.5699788730455715,0.18374104404367886,0.439747521439247,0.1610900770372019,-0.8320015155863429,-0.36738344413526836,0.9922323504127488,0.6592330730536116,-0.45290236709850373,0.9451338555872157,0.5345855469203575,0.05808849474083155,-0.6551581069744759,-0.9454092272863406,-0.04356167492408081,-0.8178332671616289,0.9735723499729487,-0.6132961633409177,0.3654467668592769,0.17361717151918232,-0.7794520841345576,0.5935862443817708,-0.762518943815824,-0.30042201648497313,0.897922852264986,0.7060768183622914,0.6934857105324594,-0.14360444602665456,0.4791257739560335,-0.3367759208431791,0.1560374283454451,0.9242531576868405
-0.13029383263677008,0.4949276775330993,0.2075912026191984,-0.8861380789920796,-0.6021859121948138,0.6642791053007979,0.5472748279399484,0.5351325868936614,0.6315480361542871,-0.5514029380623287,-0.46950658565407866,-0.19775902753574748,-0.13612292800048242,-0.2745354788060872,-0.2246052347743005,-0.10962301637884342,-0.22365418437032314,-0.5998996752265595,0.20711685517208833,-0.3445796076581371,-0.29165619357016315,-0.9042274289351537,-0.8405120484967692,-0.9587150687393811,-0.7086341030552149,0.7486115022272948,-0.9428084978568875,0.270861224533943,-0.4997769765780846,-0.13741227212586238,-0.810088775633859,-0.9281489064497391,-0.06461194358994826,-0.8953984668818855,-0.8618807186898492,-0.8329188429362724,-0.16830835602407124,-0.9074463451445938,-0.9172400422229383,-0.9164980827331657,-0.2777430476941243,-0.027324253024706202,0.015784067932248957,0.5824075697678586,-0.9636063159085613,0.8309224643614397,0.7713737241939975,0.1662258969296979,-0.16088253608333325,0.32134487757504493,-0.6764654846306337,0.9479692613524475,-0.36428763642446516,-0.9058813821349907,0.6251207907854566,-0.8998025233181507,0.521769223143385,-0.5870416752431535,-0.29354730223504033,-0.7379279700621699,-0.8887200463050904,-0.07901849038138198,-0.3732868555959987,-0.5051637296433477,-0.6338695217768318,-0.17195373447758167,-0.4777499007995196,-0.5175956880856648,0.42562851454019945,0.7774022593935059,0.8147091373264501,0.4078175152728931,-0.9409290680606277,-0.2713493479550604,-0.10744575700761194,-0.740778115303173,-0.6356569211291534,0.22164936667256563,-0.41075882924898477,0.32455408573043476,0.182180901897687,0.1632942914666844,-0.05517776912942762,-0.5826110943158748,0.2546930970051855,-0.2932414912357957,-0.6299204203728308,-0.8807173252079444,-0.636584155328624,-0.27354530324154414,-0.4863919683993867,0.2184975312891948,-0.2398460608010775,-0.5160426782569814,-0.6793249095313282,0.14670459386331247,-0.12215563245435845,-0.6361067780426928,-0.029894037991764266,-0.5783006132446996,-0.3363846327027086,-0.40600019959854206,-0.19220363238847016,0.33949440173876533,0.8591602922950143,-0.23402780368462928,-0.24691552530246108,-0.7644522118326824,-0.9642639585022876,0.10502920694869067,-0.515846119822225,-0.9091445109018312,0.061283853848837166,-0.36044555489511176,-0.5470818478929849,-0.2928882179935982,0.8925220393326974,0.32381047865683654,-0.13119576390382948,-0.5199377167976817,-0.6875557579856397,-0.1100076297853464,-0.7496746115765418,-0.44572747711173744,-0.7224724044731063,0.9612052377068807,0.6380416940538098,-0.7605391208545687,-0.16895260059468142,-0.43776222311010005,0.17081198836187195,-0.8199326972077503,0.7525468889491616,0.01095942656708182,-0.6509258875531132
-0.6614392188418785,-0.6393696593849095,0.22512913378545307,-0.34030159176707864,-0.617682090174633,0.8765524932202806,0.09083073897232663,-0.7313926682920453,-0.41049676489795583,-0.8878545276078574,0.7173515633360998,-0.709529323853802,-0.6124817508568949,-0.7229684085800745,0.6992478080469275,-0.5651971234515054,-0.9609497801876602,0.0022953637976876884,0.45199297184939113,0.6072929970758421,-0.33028555056995323,0.8898700858270223,0.7386087961154719,-0.44617844599759193,0.2651981309348399,-0.40930082941565404,0.8242184482663097,-0.4720714328391631,-0.42000817574472915,-0.2408821953145236,0.480532315575414,-0.7693171179499934,0.7620875083259044,-0.9482169020348694,-0.928128407310848,-0.46524428370059356,0.3462586559449228,0.7813319413997433,-0.07894171713879916,0.24455630771679737,0.6683250129587093,0.5695599404992091,0.6509953535970932,-0.19010173021335008,-0.8675118121509842
-0.9091136832104003,0.9034114201357633,-0.7425693166839944,-0.9520445953862864,0.22607925205126223,-0.061190112441226185,-0.05087892152218321,0.4661183327759255,0.7392510194038244,0.04293023277011132,0.13073220338320257,-0.5494796539032798,-0.529665940771979,0.020086158154148492,-0.02378019976271828,0.2190970138842283,-0.22790213387707836,0.9871844048610203,0.9814470840703573,0.13944507545908102,0.42661034754544724,-0.8847852478791265,-0.5852667938111067,-0.6338515601300874,-0.7092761023567882,-0.702349621429265,-0.25309245745818876,0.14863733478997498,0.9894659344435319,-0.4956320889998296,0.01078497118239885,0.9453072763512897,-0.6894131575596572,0.5392681379604325,-0.8350518196059604,0.448091597471691,-0.4551472788901949,-0.32649965054445684,0.48154619597609494,-0.3046338182899384,-0.5699788730455715,0.18374104404367886,0.439747521439247,0.1610900770372019,-0.8320015155863429,-0.36738344413526836,0.9922323504127488,0.6592330730536116,-0.45290236709850373,0.9451338555872157,0.5345855469203575,-0.33519556916426363,-0.6551581069744759,-0.9454092272863406,-0.04356167492408081,-0.8178332671616289,0.9735723499729487,-0.47438426490918917,0.3654467668592769,0.17361717151918232,-0.7794520841345576,0.2058922519924642,-0.762518943815824,-0.30042201648497313,0.897922852264986,0.7060768183622914,0.5646700429462226,-0.14360444602665456,0.4791257739560335,-0.3367759208431791,0.1560374283454451,0.9242531576868405
-0.13029383263677008,-0.15711919822544906,0.2075912026191984,-0.8861380789920796,-0.6021859121948138,0.6642791053007979,0.5472748279399484,0.5351325868936614,0.6315480361542871,-0.5514029380623287,-0.46950658565407866,-0.19775902753574748,-0.13612292800048242,-0.2745354788060872,-0.2246052347743005,-0.10962301637884342,-0.22365418437032314,-0.5998996752265595,0.20711685517208833,-0.3445796076581371,-0.29165619357016315,-0.9042274289351537,-0.8405120484967692,-0.9587150687393811,-0.7086341030552149,0.7486115022272948,-0.9428084978568875,0.270861224533943,-0.4997769765780846,-0.13741227212586238,-0.810088775633859,-0.9281489064497391,0.2155963995087833,-0.8953984668818855,-0.8618807186898492,-0.8329188429362724,-0.16830835602407124,-0.9074463451445938,-0.9172400422229383,-0.9164980827331657,-0.2777430476941243,-0.027324253024706202,0.015784067932248957,0.5824075697678586,-0.9636063159085613,-0.07928825945790408,0.7713737241939975,0.6814367292828449,-0.16088253608333325,0.32134487757504493,-0.6861129014760947,0.9479692613524475,-0.36428763642446516,-0.9058813821349907,-0.4710203032483111,-0.8998025233181507,-0.056103916495832795,-0.5870416752431535,-0.29354730223504033,-0.7379279700621699,-0.8887200463050904,-0.07901849038138198,-0.3732868555959987,-0.5051637296433477,-0.6338695217768318,-0.5394913885236448,-0.4777499007995196,-0.5175956880856648,0.42562851454019945,-0.4656509923304548,0.8147091373264501,0.4078175152728931,-0.9409290680606277,-0.2713493479550604,-0.10744575700761194,-0.7452673112610932,-0.6356569211291534,0.22164936667256563,-0.41075882924898477,-0.5504094830130366,0.182180901897687,0.1632942914666844,-0.05517776912942762,-0.5826110943158748,0.2546930970051855,-0.2932414912357957,-0.6299204203728308,-0.8807173252079444,-0.636584155328624,-0.27354530324154414,-0.4863919683993867,0.2184975312891948,-0.2398460608010775,-0.578326450090651,-0.6793249095313282,0.14670459386331247,-0.12215563245435845,-0.6361067780426928,-0.029894037991764266,-0.5783006132446996,-0.3363846327027086,-0.40600019959854206,-0.19220363238847016,-0.9966808595188819,0.8591602922950143,-0.23402780368462928,-0.3836633615098023,-0.7644522118326824,-0.9642639585022876,0.10502920694869067,-0.515846119822225,-0.9091445109018312,0.061283853848837166,-0.36044555489511176,-0.5470818478929849,-0.2928882179935982,-0.9017769818666719,0.11982993425243205,-0.13119576390382948,-0.5199377167976817,-0.6875557579856397,-0.1100076297853464,-0.4250548589981642,-0.44572747711173744,-0.7224724044731063,0.9933927242901492,0.6380416940538098,0.48742090481961076,-0.16895260059468142,-0.43776222311010005,0.17081198836187195,-0.8199326972077503,0.7525468889491616,0.01095942656708182,-0.7459460058137948
-0.6614392188418785,-0.6393696593849095,0.22512913378545307,-0.34030159176707864,-0.617682090174633,0.8765524932202806,0.09083073897232663,-0.7313926682920453,-0.25033144088868986,-0.8878545276078574,0.7173515633360998,-0.709529323853802,-0.6124817508568949,-0.6036756960228987,0.6992478080469275,-0.5651971234515054,-0.9609497801876602,0.0022953637976876884,0.45199297184939113,0.6072929970758421,-0.33028555056995323,0.8898700858270223,0.7386087961154719,-0.44617844599759193,0.2651981309348399,-0.40930082941565404,0.8242184482663097,-0.4720714328391631,-0.42000817574472915,-0.2408821953145236,-0.2952048313246878,-0.7693171179499934,0.7620875083259044,-0.9482169020348694,0.9515971402256052,0.4928514998707003,0.3462586559449228,0.7813319413997433,-0.07894171713879916,0.24455630771679737,0.6683250129587093,0.5695599404992091,0.6509953535970932,-0.19010173021335008,-0.8675118121509842
