0.12403192546723374,0.24754437295266252,-0.20180581974219702,-0.3317107786215914,-0.11536208838980944,-0.21665034607991962,0.23044592126645336,0.9586683308417958,-0.13510487445981534,-0.7853121355137387,0.4488563202880267,-0.5860180611528476,0.3837270482165078,0.23656064549177636,0.8416842880720923,0.4798839782309876,0.42417910260603153,0.2152521680299435,-0.18711891559986893,-0.6427131151231726,0.12614871314167164,-0.6041363342133454,0.41010595114673665,0.03041348939747124,0.036971907429573125,0.8795298927348165,0.1148387920969729,0.42636603292658326,-0.9602989688459467,0.26783514579158463,-0.5426532904443311,0.3869585736541026,-0.5192868381594096,-0.10769169390819822,-0.2078921678321901,-0.20716839697485745,-0.20721407830872018,-0.30980338751104375,-0.68878332204129,0.36069695909080046,-0.2995480796683694,0.4914319642379923,-0.9670806575169157,-0.3873907954392155,-0.3242223351929241,-0.6189095094209627,0.9970388972939486,-0.08230668329866697,0.8358085065115923,-0.14792526014773943,0.6406075729754983,0.35818732171835865,-0.2574480866202946,0.6052001761702355,0.24494859848098804,0.7025024610148587,0.967761457473596,0.8008691620796331,-0.43599545931712425,-0.8383200679898668,0.9537880028796428,0.7843296463836456,0.8913864190195935
-0.4615973935415103,0.3834221035151848,0.16385022222119305,-0.3914283390685389,0.4866604413324289,-0.31236850772758085,0.4362131934419129,-0.9457859253901719,0.4399678237620053,-0.04450535742549944,-0.511921171364699,0.8467707572664958,0.0288824856980181,-0.6776685299032439,-0.25183522833695116,-0.34766922727577954,0.5836662644989783,0.17073121840879768,0.2117985604711614,0.645451230959736,0.29132479670036826,-0.9864310521643707,0.174441428631243,0.435694539726901,-0.6269166428157942,-0.1902073753004354,-0.5839170686765751,0.9762764771757102,-0.20382252901205988,-0.5845149313026199,0.1333012410301304,0.08330369332474996,-0.09748538360664316,-0.05237025498351833,0.6161527926222239,-0.6882419634534356,0.0240469619481396,-0.397500009245211,0.6493585280357106,0.6337078739374145,0.1272617074192739,-0.6611586114501571,0.5673375275015695,-0.36902433803473444,-0.22308345477346436,-0.1544047465118552,-0.9657796344241063,-0.9173269132930135,0.7939273375323004,-0.12965714421314978,0.44775566996984706,-0.8467369526256507,0.6380404029693025,0.6469166208109656,-0.48171853173626733,-0.452067442479843,-0.5531831353855334,-0.7941133173384631,-0.8570932587174338,0.025368921114216292,-0.2915666274932609,0.2532625651884861,-0.5942455280287176,-0.3824172972680491,0.8048636101184776,0.733458907469283,-0.8985010914403648,-0.9889786077427043,-0.5944861494597196,0.10024044948171262,-0.7986171524622536,0.830874080889834,0.6971889515568386,0.3416060397739751,-0.010613050157152193,-0.03267664241781221,-0.41927418505385905,0.3512554295506818,0.2984496849133016,-0.33443515342818886,0.9373003434909262,0.761347074028256,0.3145984389685972,0.16990255306889845,-0.011811435551873695,0.04305226248412808,-0.8544390073966155,0.37435488703165687,0.16803668168208974,-0.685713970979299,-0.09329209919873183,0.3824490033051764,-0.42671729088534427,-0.3067502083513276,-0.43731655453265894,-0.9995797276220333,0.7462516368094088,-0.6298745092937368,-0.49160772697382393,-0.45841551299813177,0.5254374051578734,-0.39467592040772015,-0.687926021238787,-0.9531944726926971,0.22683044564780386,0.26711828728325404,-0.4432659829986618,-0.6800984456029722,-0.027789903917158965,-0.71005988787522,0.6311304075175814,0.45347410961972434,0.9489551620070806,0.261942912179292,0.5199886105740232,0.20882482014926462,0.2807170618110586,-0.5836993086797502,-0.22095692923206411,-0.997159192551726,-0.3409591027813068,-0.7173115470933931,-0.6137503213977575,0.7596905616155167,0.6025618337049281,-0.9501012157119053,-0.014824203524394175,-0.011846155392957192,-0.8904842015370531,0.5887330374727466,-0.009384657698438659,0.01138482713535982,0.5681047295743604,0.21231905084103664,0.5652528996088471
0.8749063737909093,-0.8199481681895004,0.08852982663074394,0.8055508544171581,0.23008775126973458,0.2129593982310447,-0.17524303823310095,-0.8775235559602985,-0.7016170623897253,0.782996799279382,0.049506888166420904,0.9432727488255581,0.7765022963124151,0.027965500256552867,0.6083968222763272,-0.1612366423368079,0.25142583108125804,0.22811344420856794,0.6972385133446242,0.48677515735260424,-0.32903755162056947,-0.6022575893279436,0.9561525953218617,0.9945875937218507,-0.5859644862944431,0.23646408035542787,-0.066670420334491,-0.6238736319322846,0.18767712281608673,-0.9995917579569122,-0.34872137184694174,-0.8917887214714308,-0.3947744040945733,0.23488516831811346,-0.15380176474482687,-0.15811934302149067,0.48229602696466767,-0.9397901274241678,0.3697349020276488,0.04962918253321802,0.13017124304495198,-0.16739888810841141,-0.037953280945036916,-0.5836541483455961,0.5013223761340613
0.12403192546723374,0.24754437295266252,-0.20180581974219702,-0.3317107786215914,-0.11536208838980944,-0.21665034607991962,0.23044592126645336,0.9586683308417958,-0.13510487445981534,-0.7853121355137387,0.4488563202880267,-0.5860180611528476,0.3837270482165078,0.23656064549177636,0.8416842880720923,0.4798839782309876,0.42417910260603153,0.2152521680299435,-0.18711891559986893,-0.6427131151231726,0.9595984053116193,-0.6041363342133454,0.41010595114673665,0.03041348939747124,0.036971907429573125,0.8795298927348165,0.1148387920969729,0.42636603292658326,-0.9602989688459467,0.44140629878804893,-0.5426532904443311,0.3869585736541026,-0.5192868381594096,-0.10769169390819822,-0.2078921678321901,-0.20716839697485745,-0.20721407830872018,-0.30980338751104375,-0.68878332204129,0.36069695909080046,-0.2995480796683694,0.15830183636654138,0.6071312649110252,-0.3873907954392155,-0.3242223351929241,-0.6189095094209627,0.9970388972939486,-0.08230668329866697,0.8358085065115923,-0.14792526014773943,0.6406075729754983,0.35818732171835865,-0.2574480866202946,0.6052001761702355,0.24494859848098804,0.7025024610148587,0.967761457473596,0.7282051013795212,-0.43599545931712425,-0.8383200679898668,0.9537880028796428,0.7843296463836456,0.8913864190195935
-0.4615973935415103,0.3834221035151848,0.16385022222119305,-0.3914283390685389,-0.38311285300394404,-0.31236850772758085,0.4362131934419129,-0.9457859253901719,0.4399678237620053,-0.04450535742549944,-0.511921171364699,0.8467707572664958,0.0288824856980181,-0.6776685299032439,-0.25183522833695116,-0.34766922727577954,0.5836662644989783,0.17073121840879768,0.2117985604711614,0.645451230959736,0.29132479670036826,-0.9864310521643707,0.174441428631243,0.435694539726901,-0.6269166428157942,-0.1902073753004354,-0.5839170686765751,0.9762764771757102,-0.20382252901205988,-0.5845149313026199,0.1333012410301304,0.08330369332474996,-0.09748538360664316,-0.05237025498351833,0.6161527926222239,-0.6882419634534356,0.0240469619481396,-0.397500009245211,0.6493585280357106,0.6337078739374145,0.1272617074192739,-0.6611586114501571,0.5673375275015695,-0.36902433803473444,-0.22308345477346436,-0.062236256255796096,-0.9657796344241063,-0.9173269132930135,0.7939273375323004,-0.12965714421314978,0.44775566996984706,0.13406672438821965,0.6380404029693025,0.6469166208109656,-0.48171853173626733,-0.452067442479843,-0.5531831353855334,-0.7941133173384631,-0.8570932587174338,0.025368921114216292,-0.2915666274932609,0.2532625651884861,-0.5942455280287176,-0.3824172972680491,0.8048636101184776,0.733458907469283,-0.8985010914403648,-0.9889786077427043,-0.5944861494597196,0.10024044948171262,-0.7986171524622536,0.830874080889834,0.9530496969990139,0.3416060397739751,-0.010613050157152193,-0.03267664241781221,-0.41927418505385905,0.3512554295506818,0.2984496849133016,-0.33443515342818886,0.9373003434909262,0.761347074028256,0.3145984389685972,0.16990255306889845,0.015368364128409695,0.04305226248412808,-0.8544390073966155,0.37435488703165687,0.16803668168208974,-0.685713970979299,-0.09329209919873183,0.3824490033051764,-0.42671729088534427,-0.3067502083513276,0.08517013592905465,-0.9995797276220333,0.7462516368094088,-0.6298745092937368,-0.49160772697382393,-0.45841551299813177,0.5254374051578734,-0.39467592040772015,-0.687926021238787,-0.9531944726926971,0.22683044564780386,0.26711828728325404,-0.4432659829986618,-0.6800984456029722,-0.027789903917158965,-0.71005988787522,-0.686310903867221,0.45347410961972434,0.9489551620070806,0.261942912179292,-0.690659941531778,0.20882482014926462,0.2807170618110586,-0.37643883046029125,-0.22095692923206411,-0.997159192551726,-0.3409591027813068,-0.7173115470933931,-0.6137503213977575,0.7596905616155167,0.6025618337049281,-0.9501012157119053,-0.014824203524394175,-0.011846155392957192,-0.8904842015370531,0.5887330374727466,-0.009384657698438659,0.01138482713535982,0.5681047295743604,0.21231905084103664,0.5652528996088471
0.8749063737909093,-0.8199481681895004,0.08852982663074394,0.007266208452586298,0.23008775126973458,0.2129593982310447,-0.17524303823310095,-0.8775235559602985,-0.7016170623897253,0.24977506937379457,0.049506888166420904,0.9432727488255581,0.7765022963124151,0.027965500256552867,0.6083968222763272,-0.1612366423368079,0.25142583108125804,0.22811344420856794,0.6972385133446242,0.48677515735260424,-0.32903755162056947,-0.6022575893279436,0.9561525953218617,0.9945875937218507,-0.5859644862944431,0.23646408035542787,-0.066670420334491,-0.6238736319322846,-0.7527213284941918,-0.9995917579569122,0.6328792281778264,-0.8917887214714308,-0.3947744040945733,0.23488516831811346,-0.15380176474482687,-0.44050468654674146,0.48229602696466767,-0.9397901274241678,0.3697349020276488,0.04962918253321802,0.12341692893370948,-0.16739888810841141,-0.037953280945036916,-0.5836541483455961,0.5013223761340613
0.12403192546723374,0.24754437295266252,-0.20180581974219702,-0.3317107786215914,-0.11536208838980944,-0.039430454680061455,0.23044592126645336,0.9586683308417958,-0.13510487445981534,-0.7853121355137387,0.4488563202880267,-0.5860180611528476,0.3837270482165078,0.23656064549177636,0.8416842880720923,0.4798839782309876,0.42417910260603153,0.2152521680299435,-0.18711891559986893,-0.6427131151231726,0.12614871314167164,-0.5390568105291762,0.41010595114673665,0.03041348939747124,0.036971907429573125,0.8795298927348165,0.1148387920969729,0.42636603292658326,-0.9602989688459467,0.44140629878804893,-0.5426532904443311,0.3869585736541026,-0.5192868381594096,-0.10769169390819822,-0.2078921678321901,-0.20716839697485745,-0.20721407830872018,-0.30980338751104375,-0.68878332204129,0.36069695909080046,-0.2995480796683694,0.15830183636654138,-0.9670806575169157,-0.3873907954392155,-0.3242223351929241,-0.6189095094209627,0.9970388972939486,-0.6381139397891209,0.8358085065115923,-0.12840638229658397,0.6406075729754983,0.35818732171835865,-0.2574480866202946,0.6052001761702355,0.24494859848098804,0.7025024610148587,0.967761457473596,0.8008691620796331,0.4393819467368061,-0.8383200679898668,0.9537880028796428,0.7843296463836456,0.8913864190195935
-0.4615973935415103,0.3834221035151848,0.16385022222119305,-0.3914283390685389,-0.38311285300394404,-0.31236850772758085,0.4362131934419129,-0.9457859253901719,0.4399678237620053,-0.04450535742549944,-0.511921171364699,0.8467707572664958,0.0288824856980181,-0.6776685299032439,-0.25183522833695116,-0.34766922727577954,0.5836662644989783,0.17073121840879768,0.2117985604711614,0.645451230959736,0.29132479670036826,-0.9864310521643707,0.174441428631243,0.435694539726901,-0.6269166428157942,-0.1902073753004354,-0.5839170686765751,0.9762764771757102,-0.20382252901205988,-0.5845149313026199,0.0454782974037935,-0.6390530219531652,-0.09748538360664316,-0.05237025498351833,0.6161527926222239,-0.6882419634534356,0.0240469619481396,-0.397500009245211,0.6493585280357106,0.6337078739374145,0.1272617074192739,-0.6611586114501571,0.5673375275015695,-0.36902433803473444,-0.22308345477346436,-0.1544047465118552,-0.9657796344241063,-0.9173269132930135,0.7939273375323004,-0.12965714421314978,0.44775566996984706,-0.8467369526256507,0.6380404029693025,0.6469166208109656,-0.48171853173626733,-0.452067442479843,-0.5531831353855334,-0.7941133173384631,-0.8570932587174338,-0.06387270199235329,0.3200169863345368,0.2532625651884861,-0.5942455280287176,-0.3824172972680491,0.21136217145344172,0.733458907469283,-0.8985010914403648,-0.9889786077427043,-0.5944861494597196,0.10024044948171262,-0.7986171524622536,0.830874080889834,0.6971889515568386,0.3416060397739751,-0.010613050157152193,-0.03267664241781221,-0.41927418505385905,0.3512554295506818,0.2984496849133016,-0.33443515342818886,0.9373003434909262,0.761347074028256,0.3145984389685972,0.16990255306889845,-0.011811435551873695,0.04305226248412808,-0.8544390073966155,0.37435488703165687,0.16803668168208974,-0.685713970979299,-0.09329209919873183,0.3824490033051764,-0.42671729088534427,-0.3067502083513276,-0.43731655453265894,0.3981303990734062,0.7462516368094088,0.820419540562102,0.9712265267281257,0.7736220973586985,0.5254374051578734,-0.39467592040772015,-0.687926021238787,-0.9531944726926971,0.22683044564780386,0.26711828728325404,-0.4432659829986618,-0.6800984456029722,-0.027789903917158965,-0.71005988787522,0.6311304075175814,0.45347410961972434,0.9489551620070806,0.261942912179292,0.9965194074458115,0.20882482014926462,0.2807170618110586,-0.5836993086797502,-0.22095692923206411,-0.997159192551726,-0.3409591027813068,-0.7173115470933931,-0.6137503213977575,0.7596905616155167,0.6025618337049281,-0.9501012157119053,-0.014824203524394175,-0.011846155392957192,-0.8904842015370531,0.5887330374727466,-0.009384657698438659,0.01138482713535982,0.5681047295743604,0.17161496817527633,0.5652528996088471
0.8749063737909093,-0.8199481681895004,0.08852982663074394,0.007266208452586298,0.23008775126973458,0.2129593982310447,-0.17524303823310095,-0.8775235559602985,-0.7016170623897253,0.782996799279382,0.049506888166420904,0.40511254497021265,0.7765022963124151,0.027965500256552867,0.6083968222763272,0.2273943394544593,0.25142583108125804,0.22811344420856794,0.6972385133446242,0.48677515735260424,-0.32903755162056947,-0.6022575893279436,0.9561525953218617,0.9945875937218507,-0.5859644862944431,0.23646408035542787,-0.066670420334491,-0.6238736319322846,0.18767712281608673,-0.9995917579569122,-0.34872137184694174,-0.8917887214714308,-0.3947744040945733,0.23488516831811346,-0.15380176474482687,-0.15811934302149067,0.48229602696466767,-0.9397901274241678,-0.4451288295468332,0.04962918253321802,0.13017124304495198,-0.16739888810841141,-0.037953280945036916,-0.5836541483455961,0.5013223761340613
0.12403192546723374,0.24754437295266252,-0.20180581974219702,-0.3317107786215914,-0.11536208838980944,-0.21665034607991962,0.23044592126645336,0.9586683308417958,-0.13510487445981534,0.40540683887198603,0.4488563202880267,-0.5860180611528476,0.3837270482165078,0.23656064549177636,0.8416842880720923,-0.3569868962966858,0.42417910260603153,0.2152521680299435,-0.18711891559986893,-0.6427131151231726,0.12614871314167164,-0.5390568105291762,0.41010595114673665,0.03041348939747124,0.036971907429573125,0.8795298927348165,0.1148387920969729,0.42636603292658326,-0.9602989688459467,0.26783514579158463,-0.5426532904443311,0.3869585736541026,-0.5192868381594096,-0.10769169390819822,-0.2078921678321901,-0.20716839697485745,-0.20721407830872018,-0.30980338751104375,-0.68878332204129,0.36069695909080046,-0.2995480796683694,0.15830183636654138,0.6071312649110252,-0.3873907954392155,-0.3242223351929241,-0.6189095094209627,0.9970388972939486,-0.6381139397891209,0.5072088255828231,-0.12840638229658397,0.6406075729754983,0.35818732171835865,-0.2574480866202946,0.8579613183816293,0.24494859848098804,0.8262724226285785,0.967761457473596,0.7282051013795212,-0.43599545931712425,-0.8383200679898668,0.9537880028796428,0.7843296463836456,0.8913864190195935
-0.4615973935415103,0.3834221035151848,0.16385022222119305,-0.3914283390685389,-0.38311285300394404,-0.31236850772758085,-0.7558708940993197,-0.9457859253901719,0.4399678237620053,-0.04450535742549944,-0.511921171364699,0.8467707572664958,0.0288824856980181,-0.6776685299032439,-0.25183522833695116,-0.34766922727577954,0.5836662644989783,0.17073121840879768,0.2117985604711614,0.645451230959736,0.29132479670036826,-0.9864310521643707,0.174441428631243,0.435694539726901,-0.6269166428157942,-0.1902073753004354,-0.5839170686765751,0.9762764771757102,-0.20382252901205988,-0.5845149313026199,0.1333012410301304,0.08330369332474996,-0.09748538360664316,-0.05237025498351833,0.6161527926222239,-0.6882419634534356,0.0240469619481396,-0.397500009245211,0.6493585280357106,0.6337078739374145,0.1272617074192739,-0.6611586114501571,0.5673375275015695,-0.36902433803473444,-0.22308345477346436,-0.1544047465118552,-0.9657796344241063,-0.9173269132930135,0.7939273375323004,-0.12965714421314978,0.5992964202630191,-0.6645908716535824,0.6380404029693025,0.3833104034967618,-0.48171853173626733,-0.452067442479843,-0.5531831353855334,-0.7941133173384631,-0.8570932587174338,-0.06387270199235329,-0.2915666274932609,0.2532625651884861,-0.5942455280287176,-0.3824172972680491,0.21136217145344172,0.733458907469283,-0.8985010914403648,-0.9889786077427043,-0.5944861494597196,0.10024044948171262,-0.7986171524622536,0.5038979018246514,0.9530496969990139,0.3416060397739751,-0.010613050157152193,-0.03267664241781221,-0.41927418505385905,0.3512554295506818,0.2984496849133016,-0.33443515342818886,0.9373003434909262,0.761347074028256,0.3145984389685972,0.16990255306889845,0.015368364128409695,0.04305226248412808,-0.8544390073966155,0.37435488703165687,0.2765514501420998,-0.685713970979299,-0.09329209919873183,0.3824490033051764,-0.42671729088534427,-0.3067502083513276,-0.43731655453265894,-0.9995797276220333,0.7462516368094088,-0.6298745092937368,0.9712265267281257,-0.45841551299813177,0.5254374051578734,-0.39467592040772015,-0.687926021238787,-0.9531944726926971,0.22683044564780386,-0.11654492272755346,-0.4432659829986618,-0.6800984456029722,-0.027789903917158965,-0.71005988787522,0.6311304075175814,0.45347410961972434,0.9489551620070806,0.261942912179292,-0.690659941531778,0.20882482014926462,0.2807170618110586,-0.37643883046029125,-0.22095692923206411,-0.997159192551726,-0.3409591027813068,-0.7173115470933931,-0.6137503213977575,0.7596905616155167,0.6025618337049281,-0.9501012157119053,-0.014824203524394175,-0.011846155392957192,-0.8904842015370531,0.5887330374727466,-0.009384657698438659,0.01138482713535982,0.5681047295743604,0.17161496817527633,0.5652528996088471
0.8749063737909093,-0.8199481681895004,0.08852982663074394,0.007266208452586298,0.23008775126973458,0.2129593982310447,-0.17524303823310095,-0.8775235559602985,-0.7016170623897253,0.24977506937379457,0.049506888166420904,0.9432727488255581,0.7765022963124151,0.25849247821512544,0.6083968222763272,-0.1612366423368079,0.25142583108125804,0.22811344420856794,0.6972385133446242,-0.7949481190525396,-0.32903755162056947,-0.6022575893279436,0.9561525953218617,0.9945875937218507,-0.0780606742629002,-0.43295042184422106,-0.066670420334491,-0.6238736319322846,0.18767712281608673,-0.9995917579569122,0.6328792281778264,-0.8917887214714308,-0.3947744040945733,0.23488516831811346,-0.15380176474482687,-0.44050468654674146,0.48229602696466767,-0.9397901274241678,0.3697349020276488,0.04962918253321802,0.12341692893370948,-0.41299251602420406,-0.037953280945036916,-0.5836541483455961,0.5013223761340613
0.12403192546723374,0.24754437295266252,-0.20180581974219702,-0.3317107786215914,-0.11536208838980944,-0.039430454680061455,0.23044592126645336,0.9586683308417958,-0.13510487445981534,-0.7853121355137387,0.4488563202880267,-0.5860180611528476,0.3837270482165078,-0.611195832470478,0.8416842880720923,0.4798839782309876,0.42417910260603153,0.2152521680299435,-0.18711891559986893,-0.6427131151231726,0.12614871314167164,-0.6041363342133454,0.41010595114673665,0.03041348939747124,0.036971907429573125,0.8795298927348165,0.1148387920969729,0.42636603292658326,-0.9602989688459467,0.44140629878804893,-0.5426532904443311,0.3869585736541026,-0.5192868381594096,-0.10769169390819822,-0.2078921678321901,-0.20716839697485745,-0.20721407830872018,-0.30980338751104375,-0.68878332204129,0.36069695909080046,-0.2995480796683694,0.15830183636654138,0.6071312649110252,-0.3873907954392155,-0.3242223351929241,-0.6189095094209627,0.9970388972939486,-0.6381139397891209,0.8358085065115923,-0.14792526014773943,0.6406075729754983,0.35818732171835865,-0.2574480866202946,0.6052001761702355,0.24494859848098804,0.7025024610148587,0.967761457473596,0.8008691620796331,0.4393819467368061,-0.8383200679898668,0.9537880028796428,0.7843296463836456,0.8913864190195935
-0.4615973935415103,0.3834221035151848,0.16385022222119305,-0.3914283390685389,0.4866604413324289,-0.31236850772758085,0.4362131934419129,-0.9457859253901719,0.4399678237620053,-0.04450535742549944,-0.511921171364699,0.8467707572664958,0.0288824856980181,-0.6776685299032439,-0.25183522833695116,-0.34766922727577954,0.5836662644989783,0.17073121840879768,0.2117985604711614,0.645451230959736,0.29132479670036826,-0.9864310521643707,0.174441428631243,0.435694539726901,-0.6269166428157942,-0.1902073753004354,-0.5839170686765751,0.9762764771757102,-0.20382252901205988,-0.5845149313026199,-0.6760094739811997,-0.6390530219531652,-0.09748538360664316,-0.05237025498351833,0.6161527926222239,-0.6882419634534356,0.0240469619481396,-0.397500009245211,0.6493585280357106,0.6337078739374145,0.1272617074192739,-0.6611586114501571,0.5673375275015695,-0.36902433803473444,-0.22308345477346436,-0.1544047465118552,-0.9657796344241063,-0.9173269132930135,0.7939273375323004,-0.12965714421314978,0.44775566996984706,-0.8467369526256507,0.6380404029693025,0.6469166208109656,-0.48171853173626733,-0.452067442479843,-0.5531831353855334,-0.7941133173384631,-0.8570932587174338,-0.06387270199235329,0.3200169863345368,0.2532625651884861,-0.5942455280287176,-0.3824172972680491,0.21136217145344172,0.733458907469283,-0.8985010914403648,-0.9889786077427043,-0.5944861494597196,0.10024044948171262,-0.7986171524622536,0.830874080889834,0.6971889515568386,0.3416060397739751,-0.010613050157152193,-0.03267664241781221,-0.41927418505385905,0.3512554295506818,0.2984496849133016,-0.33443515342818886,0.9373003434909262,0.761347074028256,0.3145984389685972,0.16990255306889845,-0.13531782955901428,0.04305226248412808,-0.8544390073966155,0.37435488703165687,0.16803668168208974,-0.685713970979299,-0.09329209919873183,0.3824490033051764,-0.42671729088534427,-0.3067502083513276,-0.43731655453265894,-0.9995797276220333,0.7462516368094088,-0.6298745092937368,0.9712265267281257,0.7736220973586985,0.5254374051578734,-0.39467592040772015,-0.687926021238787,-0.9531944726926971,0.22683044564780386,0.26711828728325404,-0.4432659829986618,-0.6800984456029722,-0.027789903917158965,-0.71005988787522,0.6311304075175814,0.45347410961972434,0.9489551620070806,0.261942912179292,0.9965194074458115,0.20882482014926462,0.2807170618110586,-0.5836993086797502,-0.22095692923206411,-0.997159192551726,-0.3409591027813068,-0.7173115470933931,-0.6137503213977575,0.7596905616155167,-0.17393324966799506,-0.9501012157119053,-0.014824203524394175,-0.011846155392957192,-0.8904842015370531,0.5887330374727466,-0.009384657698438659,0.01138482713535982,0.5681047295743604,0.21231905084103664,0.5652528996088471
0.8749063737909093,-0.8199481681895004,0.08852982663074394,0.8055508544171581,0.23008775126973458,0.2129593982310447,-0.17524303823310095,-0.8775235559602985,-0.7016170623897253,0.782996799279382,0.049506888166420904,0.9432727488255581,0.7765022963124151,0.027965500256552867,0.6083968222763272,-0.1612366423368079,0.25142583108125804,0.22811344420856794,0.6972385133446242,0.48677515735260424,-0.32903755162056947,-0.6022575893279436,0.9561525953218617,0.9945875937218507,-0.5859644862944431,0.23646408035542787,-0.066670420334491,-0.6238736319322846,0.18767712281608673,-0.9995917579569122,-0.34872137184694174,-0.8917887214714308,-0.3947744040945733,0.23488516831811346,-0.15380176474482687,-0.15811934302149067,0.48229602696466767,-0.9397901274241678,-0.4451288295468332,0.04962918253321802,0.12341692893370948,-0.16739888810841141,-0.037953280945036916,-0.5836541483455961,0.5013223761340613
0.12403192546723374,0.24754437295266252,-0.20180581974219702,-0.3317107786215914,-0.11536208838980944,-0.039430454680061455,0.23044592126645336,0.9586683308417958,-0.13510487445981534,0.3084495540203205,0.4488563202880267,-0.5860180611528476,0.3837270482165078,0.012168761914812753,0.8416842880720923,0.4798839782309876,0.42417910260603153,0.2152521680299435,-0.18711891559986893,-0.6427131151231726,0.12614871314167164,-0.6041363342133454,0.41010595114673665,0.03041348939747124,0.036971907429573125,0.8795298927348165,0.1148387920969729,0.42636603292658326,-0.9602989688459467,0.26783514579158463,-0.5426532904443311,0.3869585736541026,-0.5192868381594096,-0.478511157086726,-0.2078921678321901,-0.6332266962972357,-0.20721407830872018,-0.30980338751104375,-0.68878332204129,0.36069695909080046,-0.2995480796683694,0.15830183636654138,0.6071312649110252,-0.3873907954392155,-0.3242223351929241,-0.6189095094209627,0.9970388972939486,-0.6381139397891209,0.5072088255828231,-0.12840638229658397,0.6406075729754983,0.2732236452477157,-0.2574480866202946,0.6052001761702355,0.24494859848098804,0.8262724226285785,0.967761457473596,0.7282051013795212,0.4393819467368061,-0.8383200679898668,0.9537880028796428,0.7843296463836456,0.8913864190195935
-0.4615973935415103,0.3834221035151848,0.16385022222119305,-0.3914283390685389,-0.38311285300394404,-0.31236850772758085,0.4362131934419129,-0.9457859253901719,0.4399678237620053,-0.04450535742549944,-0.511921171364699,0.8467707572664958,0.0288824856980181,-0.6776685299032439,-0.25183522833695116,-0.34766922727577954,0.5836662644989783,0.17073121840879768,0.2117985604711614,0.645451230959736,0.29132479670036826,-0.9864310521643707,0.174441428631243,0.435694539726901,-0.6269166428157942,-0.1902073753004354,-0.5839170686765751,0.9762764771757102,-0.20382252901205988,-0.5845149313026199,0.1333012410301304,-0.6390530219531652,-0.09748538360664316,-0.05237025498351833,0.6161527926222239,-0.6882419634534356,0.8660993247362043,-0.397500009245211,0.6493585280357106,0.6337078739374145,0.1272617074192739,-0.6611586114501571,0.5673375275015695,-0.36902433803473444,-0.22308345477346436,-0.1544047465118552,-0.9657796344241063,-0.9173269132930135,0.7939273375323004,-0.12965714421314978,0.5992964202630191,-0.6645908716535824,0.6380404029693025,0.6469166208109656,-0.48171853173626733,-0.452067442479843,-0.2644133493403211,-0.7941133173384631,-0.8570932587174338,0.025368921114216292,-0.2915666274932609,0.2532625651884861,-0.5942455280287176,-0.3824172972680491,0.21136217145344172,0.733458907469283,-0.8985010914403648,-0.9889786077427043,-0.5944861494597196,0.10024044948171262,0.29186137081362085,0.830874080889834,0.9530496969990139,0.3416060397739751,-0.010613050157152193,-0.03267664241781221,-0.41927418505385905,0.3512554295506818,0.2984496849133016,-0.33443515342818886,0.9373003434909262,0.761347074028256,0.3145984389685972,0.16990255306889845,-0.13531782955901428,0.04305226248412808,-0.8544390073966155,0.37435488703165687,0.2765514501420998,-0.685713970979299,-0.09329209919873183,0.3824490033051764,-0.42671729088534427,-0.3067502083513276,0.866441286953942,-0.9995797276220333,0.7462516368094088,-0.6298745092937368,-0.49160772697382393,-0.45841551299813177,0.5254374051578734,-0.39467592040772015,-0.687926021238787,-0.9531944726926971,0.22683044564780386,0.26711828728325404,-0.4432659829986618,-0.6800984456029722,-0.027789903917158965,-0.71005988787522,0.6311304075175814,0.45347410961972434,-0.4731984960003526,0.261942912179292,-0.690659941531778,0.20882482014926462,0.2807170618110586,-0.5836993086797502,-0.22095692923206411,-0.997159192551726,-0.3409591027813068,-0.7173115470933931,-0.6137503213977575,0.7596905616155167,0.6025618337049281,-0.9501012157119053,-0.014824203524394175,-0.011846155392957192,-0.8904842015370531,0.5887330374727466,-0.009384657698438659,0.01138482713535982,0.5681047295743604,0.17161496817527633,0.5652528996088471
0.8749063737909093,-0.8199481681895004,0.08852982663074394,0.46831330597371124,0.23008775126973458,0.2129593982310447,-0.17524303823310095,-0.8775235559602985,-0.7016170623897253,0.24977506937379457,0.049506888166420904,0.9432727488255581,0.7765022963124151,0.027965500256552867,0.6083968222763272,-0.1612366423368079,0.25142583108125804,0.22811344420856794,0.6972385133446242,-0.7949481190525396,-0.32903755162056947,-0.6022575893279436,0.9561525953218617,0.9945875937218507,-0.5859644862944431,-0.43295042184422106,-0.066670420334491,-0.6238736319322846,0.4282535306409798,-0.9995917579569122,0.6328792281778264,-0.8917887214714308,-0.3947744040945733,0.23488516831811346,-0.15380176474482687,-0.15811934302149067,0.48229602696466767,-0.9397901274241678,-0.5696604951637456,0.04962918253321802,-0.0252282090751903,-0.16739888810841141,-0.037953280945036916,-0.5836541483455961,0.5013223761340613
0.12403192546723374,0.24754437295266252,-0.20180581974219702,-0.3317107786215914,-0.11536208838980944,-0.039430454680061455,0.23044592126645336,0.9586683308417958,-0.9180431600348202,-0.7853121355137387,0.4488563202880267,-0.5860180611528476,0.3837270482165078,-0.611195832470478,0.8416842880720923,0.4798839782309876,0.42417910260603153,0.2152521680299435,-0.18711891559986893,-0.6427131151231726,0.12614871314167164,-0.5390568105291762,0.41010595114673665,0.03041348939747124,0.036971907429573125,0.8795298927348165,0.1148387920969729,0.42636603292658326,-0.9602989688459467,0.26783514579158463,-0.5426532904443311,0.3869585736541026,-0.5192868381594096,-0.10769169390819822,-0.2078921678321901,-0.20716839697485745,-0.20721407830872018,-0.30980338751104375,-0.68878332204129,0.36069695909080046,-0.2995480796683694,0.4914319642379923,0.6071312649110252,-0.3873907954392155,-0.3242223351929241,-0.6189095094209627,0.9970388972939486,-0.6381139397891209,0.5072088255828231,-0.12840638229658397,0.6406075729754983,0.35818732171835865,-0.2574480866202946,0.6052001761702355,0.24494859848098804,0.7025024610148587,0.967761457473596,0.7282051013795212,-0.43599545931712425,-0.8383200679898668,0.9537880028796428,0.7843296463836456,0.8913864190195935
-0.4615973935415103,-0.1615053422294257,0.16385022222119305,-0.3914283390685389,-0.38311285300394404,-0.31236850772758085,-0.7558708940993197,-0.9457859253901719,0.4399678237620053,-0.04450535742549944,-0.511921171364699,0.8467707572664958,-0.8457006215965959,-0.6776685299032439,-0.8929816562578852,-0.34766922727577954,0.5836662644989783,0.17073121840879768,0.2117985604711614,0.645451230959736,0.29132479670036826,-0.9864310521643707,0.174441428631243,0.435694539726901,-0.6269166428157942,-0.1902073753004354,-0.5839170686765751,0.9762764771757102,-0.20382252901205988,-0.5845149313026199,-0.6760094739811997,0.08330369332474996,-0.09748538360664316,-0.05237025498351833,0.8725828264756104,-0.6882419634534356,0.0240469619481396,-0.397500009245211,0.6493585280357106,0.6337078739374145,0.1272617074192739,-0.6611586114501571,0.5673375275015695,-0.36902433803473444,-0.22308345477346436,-0.1544047465118552,-0.9657796344241063,-0.9173269132930135,0.7939273375323004,-0.12965714421314978,0.5992964202630191,-0.6645908716535824,0.6380404029693025,0.6469166208109656,-0.48171853173626733,-0.452067442479843,-0.5531831353855334,-0.7941133173384631,-0.8570932587174338,-0.06387270199235329,0.3200169863345368,0.2532625651884861,-0.5942455280287176,-0.3824172972680491,0.21136217145344172,0.733458907469283,-0.8985010914403648,-0.9889786077427043,-0.5944861494597196,0.10024044948171262,-0.7986171524622536,0.830874080889834,0.6971889515568386,0.3416060397739751,-0.010613050157152193,-0.03267664241781221,-0.41927418505385905,0.3512554295506818,0.2984496849133016,-0.33443515342818886,0.9373003434909262,0.8813225615003732,0.3145984389685972,0.16990255306889845,-0.13531782955901428,0.04305226248412808,-0.8544390073966155,0.37435488703165687,0.16803668168208974,-0.685713970979299,-0.09329209919873183,0.3824490033051764,-0.42671729088534427,-0.3067502083513276,0.866441286953942,-0.9995797276220333,0.7462516368094088,-0.6298745092937368,0.9712265267281257,0.9390117179979873,0.5254374051578734,-0.39467592040772015,-0.687926021238787,-0.9531944726926971,0.22683044564780386,0.26711828728325404,-0.4432659829986618,-0.6800984456029722,-0.027789903917158965,-0.71005988787522,0.6311304075175814,0.45347410961972434,0.9489551620070806,0.261942912179292,-0.690659941531778,0.20882482014926462,0.2807170618110586,-0.5836993086797502,-0.22095692923206411,-0.997159192551726,-0.03306292982264103,-0.7173115470933931,-0.6137503213977575,0.5014528956227229,0.6025618337049281,-0.9501012157119053,-0.014824203524394175,-0.011846155392957192,-0.8904842015370531,0.5887330374727466,-0.009384657698438659,0.01138482713535982,0.5681047295743604,0.17161496817527633,0.5652528996088471
0.8749063737909093,-0.8199481681895004,0.08852982663074394,0.007266208452586298,0.23008775126973458,0.2129593982310447,-0.17524303823310095,-0.8775235559602985,-0.7016170623897253,0.24977506937379457,0.049506888166420904,0.9432727488255581,0.7765022963124151,0.027965500256552867,0.6083968222763272,-0.1612366423368079,0.25142583108125804,0.22811344420856794,0.6972385133446242,0.48677515735260424,-0.32903755162056947,-0.6022575893279436,0.9561525953218617,0.9945875937218507,-0.5859644862944431,0.23646408035542787,-0.066670420334491,-0.9100460386319746,0.18767712281608673,-0.9995917579569122,-0.34872137184694174,-0.8917887214714308,-0.3947744040945733,0.23488516831811346,-0.15380176474482687,-0.15811934302149067,0.48229602696466767,-0.9397901274241678,-0.4451288295468332,0.04962918253321802,0.12341692893370948,-0.16739888810841141,-0.037953280945036916,-0.5836541483455961,0.5013223761340613
0.12403192546723374,0.24754437295266252,-0.20180581974219702,-0.3317107786215914,-0.11536208838980944,-0.039430454680061455,0.23044592126645336,0.9586683308417958,-0.13510487445981534,-0.7853121355137387,0.4488563202880267,-0.5860180611528476,0.3837270482165078,-0.611195832470478,0.37561095850876636,0.4798839782309876,0.42417910260603153,0.2152521680299435,-0.18711891559986893,-0.6427131151231726,0.12614871314167164,-0.5390568105291762,0.41010595114673665,0.03041348939747124,0.036971907429573125,0.8795298927348165,0.1148387920969729,0.42636603292658326,-0.9602989688459467,0.26783514579158463,-0.5426532904443311,0.3869585736541026,-0.5192868381594096,-0.10769169390819822,-0.2078921678321901,-0.20716839697485745,-0.20721407830872018,-0.30980338751104375,-0.68878332204129,0.36069695909080046,-0.2995480796683694,0.15830183636654138,-0.9670806575169157,-0.3873907954392155,-0.3242223351929241,-0.6189095094209627,0.9970388972939486,-0.6381139397891209,0.5072088255828231,-0.12840638229658397,0.6406075729754983,0.35818732171835865,-0.2574480866202946,0.6052001761702355,0.24494859848098804,0.7025024610148587,0.967761457473596,0.7282051013795212,-0.43599545931712425,-0.8383200679898668,0.9537880028796428,0.7843296463836456,0.8913864190195935
-0.4615973935415103,0.3834221035151848,0.16385022222119305,-0.3914283390685389,0.4866604413324289,-0.31236850772758085,0.4362131934419129,-0.9457859253901719,0.4399678237620053,-0.04450535742549944,-0.511921171364699,0.8467707572664958,0.0288824856980181,-0.6776685299032439,-0.8929816562578852,-0.34766922727577954,0.5836662644989783,0.17073121840879768,0.2117985604711614,0.645451230959736,0.29132479670036826,-0.9864310521643707,0.174441428631243,0.435694539726901,-0.6269166428157942,-0.1902073753004354,-0.5839170686765751,0.9762764771757102,-0.20382252901205988,-0.5845149313026199,-0.6760094739811997,0.08330369332474996,-0.09748538360664316,-0.05237025498351833,-0.31600145457673867,-0.6882419634534356,0.0240469619481396,-0.397500009245211,0.6493585280357106,0.6337078739374145,0.1272617074192739,-0.6611586114501571,0.5673375275015695,-0.36902433803473444,-0.22308345477346436,-0.1544047465118552,-0.9657796344241063,-0.9173269132930135,0.7939273375323004,-0.12965714421314978,0.5992964202630191,-0.6645908716535824,0.6380404029693025,0.6469166208109656,-0.48171853173626733,-0.452067442479843,0.7053716053082146,-0.7941133173384631,-0.8570932587174338,-0.06387270199235329,0.3200169863345368,0.2532625651884861,-0.5942455280287176,-0.3824172972680491,0.21136217145344172,0.733458907469283,-0.8985010914403648,-0.9889786077427043,-0.5944861494597196,0.10024044948171262,0.29186137081362085,0.830874080889834,0.6971889515568386,0.3416060397739751,-0.010613050157152193,-0.03267664241781221,-0.41927418505385905,0.3512554295506818,0.2984496849133016,-0.33443515342818886,0.9373003434909262,0.761347074028256,0.3145984389685972,0.16990255306889845,-0.13531782955901428,0.04305226248412808,-0.8544390073966155,0.37435488703165687,-0.6755204829135875,-0.685713970979299,-0.09329209919873183,0.3824490033051764,-0.42671729088534427,-0.3067502083513276,0.866441286953942,-0.9995797276220333,0.7462516368094088,-0.6298745092937368,0.9712265267281257,0.7736220973586985,0.5254374051578734,-0.39467592040772015,-0.687926021238787,-0.9531944726926971,-0.7998192078720945,0.26711828728325404,-0.4432659829986618,-0.6800984456029722,-0.027789903917158965,-0.71005988787522,0.6311304075175814,0.45347410961972434,0.9489551620070806,0.261942912179292,-0.690659941531778,0.20882482014926462,0.2807170618110586,-0.5836993086797502,-0.22095692923206411,-0.997159192551726,-0.03306292982264103,-0.7173115470933931,-0.6137503213977575,0.7596905616155167,0.6025618337049281,-0.9501012157119053,-0.014824203524394175,-0.011846155392957192,-0.8904842015370531,0.5887330374727466,-0.009384657698438659,0.01138482713535982,0.5681047295743604,-0.4612226879388128,0.5652528996088471
0.8749063737909093,-0.8199481681895004,0.08852982663074394,0.007266208452586298,0.23008775126973458,0.2129593982310447,-0.17524303823310095,-0.8775235559602985,-0.7016170623897253,0.24977506937379457,0.049506888166420904,0.9432727488255581,0.7765022963124151,0.027965500256552867,0.6083968222763272,-0.1612366423368079,0.25142583108125804,0.22811344420856794,0.6972385133446242,-0.7949481190525396,-0.32903755162056947,-0.6022575893279436,0.9561525953218617,0.9945875937218507,-0.5859644862944431,-0.43295042184422106,-0.066670420334491,-0.6238736319322846,-0.7527213284941918,-0.9995917579569122,-0.34872137184694174,-0.8917887214714308,-0.3947744040945733,0.23488516831811346,-0.15380176474482687,-0.15811934302149067,0.48229602696466767,-0.9397901274241678,-0.5696604951637456,0.04962918253321802,0.12341692893370948,-0.16739888810841141,-0.037953280945036916,-0.5836541483455961,0.5013223761340613
0.12403192546723374,0.24754437295266252,-0.20180581974219702,-0.3317107786215914,-0.11536208838980944,-0.21665034607991962,0.23044592126645336,0.9586683308417958,-0.13510487445981534,-0.7853121355137387,0.4488563202880267,-0.5860180611528476,0.3837270482165078,0.23656064549177636,0.8416842880720923,0.4798839782309876,0.42417910260603153,0.2152521680299435,-0.18711891559986893,-0.6427131151231726,0.12614871314167164,-0.6041363342133454,0.41010595114673665,0.03041348939747124,0.036971907429573125,0.8795298927348165,0.1148387920969729,0.42636603292658326,-0.9602989688459467,0.44140629878804893,-0.5426532904443311,0.3869585736541026,-0.5192868381594096,-0.10769169390819822,-0.2078921678321901,-0.20716839697485745,-0.20721407830872018,-0.30980338751104375,-0.68878332204129,0.36069695909080046,-0.2995480796683694,0.15830183636654138,-0.9670806575169157,-0.3873907954392155,-0.3242223351929241,-0.6189095094209627,0.9970388972939486,-0.6381139397891209,0.8358085065115923,-0.14792526014773943,0.6406075729754983,0.35818732171835865,-0.2574480866202946,0.6052001761702355,0.24494859848098804,0.7025024610148587,0.967761457473596,0.8008691620796331,0.4393819467368061,-0.8383200679898668,0.9537880028796428,0.7843296463836456,0.8913864190195935
-0.4615973935415103,0.3834221035151848,0.16385022222119305,-0.3914283390685389,0.4866604413324289,-0.31236850772758085,0.4362131934419129,-0.9457859253901719,0.4399678237620053,-0.04450535742549944,-0.511921171364699,0.8467707572664958,0.0288824856980181,-0.6776685299032439,-0.25183522833695116,-0.34766922727577954,0.5836662644989783,0.17073121840879768,0.2117985604711614,0.645451230959736,0.29132479670036826,-0.9864310521643707,0.174441428631243,0.435694539726901,-0.6269166428157942,-0.1902073753004354,-0.5839170686765751,0.9762764771757102,-0.20382252901205988,-0.5845149313026199,0.0454782974037935,0.08330369332474996,-0.09748538360664316,-0.05237025498351833,0.6161527926222239,-0.6882419634534356,0.0240469619481396,-0.397500009245211,0.6493585280357106,0.6337078739374145,0.1272617074192739,-0.6611586114501571,0.5673375275015695,-0.36902433803473444,-0.22308345477346436,-0.1544047465118552,-0.9657796344241063,-0.9173269132930135,0.7939273375323004,-0.12965714421314978,0.44775566996984706,-0.8467369526256507,0.6380404029693025,0.6469166208109656,-0.48171853173626733,-0.452067442479843,-0.5531831353855334,-0.7941133173384631,-0.8570932587174338,-0.06387270199235329,0.3200169863345368,0.2532625651884861,-0.5942455280287176,-0.3824172972680491,0.21136217145344172,0.733458907469283,-0.8985010914403648,-0.9889786077427043,-0.5944861494597196,0.10024044948171262,-0.7986171524622536,0.830874080889834,0.6971889515568386,0.3416060397739751,-0.010613050157152193,-0.03267664241781221,-0.41927418505385905,0.3512554295506818,0.2984496849133016,-0.33443515342818886,0.9373003434909262,0.761347074028256,0.3145984389685972,0.16990255306889845,-0.011811435551873695,0.04305226248412808,-0.8544390073966155,0.37435488703165687,0.16803668168208974,-0.685713970979299,-0.09329209919873183,0.3824490033051764,-0.42671729088534427,-0.3067502083513276,-0.43731655453265894,-0.9995797276220333,0.7462516368094088,-0.6298745092937368,0.9712265267281257,0.7736220973586985,0.5254374051578734,-0.39467592040772015,-0.687926021238787,-0.9531944726926971,0.22683044564780386,0.26711828728325404,-0.4432659829986618,-0.6800984456029722,-0.027789903917158965,-0.71005988787522,0.6311304075175814,0.45347410961972434,0.9489551620070806,0.261942912179292,0.9965194074458115,0.20882482014926462,0.2807170618110586,-0.5836993086797502,-0.22095692923206411,-0.7280676893708125,-0.3409591027813068,-0.7173115470933931,-0.6137503213977575,0.7596905616155167,-0.17393324966799506,-0.9501012157119053,-0.014824203524394175,-0.011846155392957192,-0.8904842015370531,0.5887330374727466,-0.009384657698438659,0.01138482713535982,0.5681047295743604,0.21231905084103664,0.5652528996088471
0.8749063737909093,-0.8199481681895004,0.08852982663074394,0.8055508544171581,0.23008775126973458,0.2129593982310447,-0.17524303823310095,-0.8775235559602985,-0.7016170623897253,0.782996799279382,0.049506888166420904,0.9432727488255581,0.7765022963124151,0.027965500256552867,0.6083968222763272,-0.1612366423368079,0.25142583108125804,0.22811344420856794,0.6972385133446242,0.48677515735260424,-0.32903755162056947,-0.6022575893279436,0.9561525953218617,0.9945875937218507,-0.5859644862944431,0.23646408035542787,-0.066670420334491,-0.6238736319322846,0.18767712281608673,-0.9995917579569122,-0.34872137184694174,-0.8917887214714308,-0.3947744040945733,0.23488516831811346,-0.15380176474482687,-0.15811934302149067,0.48229602696466767,-0.9397901274241678,-0.4451288295468332,0.04962918253321802,0.13017124304495198,-0.16739888810841141,-0.037953280945036916,-0.5836541483455961,0.5013223761340613
0.12403192546723374,0.24754437295266252,-0.20180581974219702,-0.3317107786215914,-0.11536208838980944,-0.21665034607991962,0.23044592126645336,0.9586683308417958,-0.13510487445981534,0.3084495540203205,0.4488563202880267,-0.5860180611528476,0.3837270482165078,0.23656064549177636,0.8416842880720923,0.4798839782309876,0.42417910260603153,0.2152521680299435,-0.18711891559986893,-0.6427131151231726,0.12614871314167164,-0.6041363342133454,0.41010595114673665,0.03041348939747124,0.036971907429573125,0.8795298927348165,0.1148387920969729,0.42636603292658326,-0.9602989688459467,0.44140629878804893,-0.5426532904443311,0.3869585736541026,-0.5192868381594096,-0.10769169390819822,-0.2078921678321901,0.12059399090397172,-0.20721407830872018,-0.30980338751104375,-0.68878332204129,0.36069695909080046,-0.2995480796683694,0.15830183636654138,-0.9670806575169157,-0.3873907954392155,-0.9567768414183215,-0.6189095094209627,0.9970388972939486,-0.6381139397891209,0.8358085065115923,-0.14792526014773943,0.6406075729754983,0.35818732171835865,-0.2574480866202946,0.6052001761702355,0.24494859848098804,0.8262724226285785,0.967761457473596,0.9305529850136478,0.4393819467368061,-0.8383200679898668,0.9537880028796428,0.7843296463836456,0.8913864190195935
-0.4615973935415103,0.3834221035151848,0.16385022222119305,-0.3914283390685389,0.4866604413324289,-0.31236850772758085,0.4362131934419129,-0.9457859253901719,0.4399678237620053,0.9369962231240514,-0.511921171364699,0.8467707572664958,0.0288824856980181,-0.6776685299032439,-0.25183522833695116,-0.34766922727577954,0.5836662644989783,0.17073121840879768,0.2117985604711614,0.645451230959736,0.29132479670036826,-0.9864310521643707,0.174441428631243,0.435694539726901,-0.6269166428157942,-0.1902073753004354,-0.5839170686765751,0.9762764771757102,-0.20382252901205988,-0.5845149313026199,0.0454782974037935,0.08330369332474996,-0.09748538360664316,-0.05237025498351833,-0.31600145457673867,-0.6882419634534356,0.0240469619481396,-0.397500009245211,0.6493585280357106,0.6337078739374145,0.1272617074192739,-0.6611586114501571,0.5673375275015695,-0.36902433803473444,-0.22308345477346436,-0.1544047465118552,-0.9657796344241063,-0.9173269132930135,0.7939273375323004,-0.12965714421314978,0.5992964202630191,-0.8467369526256507,0.6380404029693025,0.3833104034967618,-0.48171853173626733,-0.452067442479843,-0.5531831353855334,-0.7941133173384631,-0.8570932587174338,-0.06387270199235329,0.14146016386929738,0.2532625651884861,-0.5942455280287176,-0.2324800078341276,0.21136217145344172,0.733458907469283,-0.8985010914403648,0.17569760402750556,-0.5944861494597196,0.10024044948171262,0.29186137081362085,0.830874080889834,0.6971889515568386,0.3416060397739751,-0.010613050157152193,-0.03267664241781221,-0.41927418505385905,0.3512554295506818,0.2984496849133016,-0.33443515342818886,0.9373003434909262,0.761347074028256,0.3145984389685972,0.16990255306889845,0.015368364128409695,0.04305226248412808,-0.8544390073966155,0.37435488703165687,0.16803668168208974,-0.685713970979299,-0.09329209919873183,0.3824490033051764,-0.42671729088534427,-0.3067502083513276,-0.43731655453265894,-0.9995797276220333,0.7462516368094088,-0.29785787593557345,0.9712265267281257,0.7736220973586985,0.5254374051578734,-0.39467592040772015,-0.687926021238787,-0.9531944726926971,0.22683044564780386,0.26711828728325404,-0.4432659829986618,-0.6800984456029722,-0.027789903917158965,-0.71005988787522,0.6311304075175814,0.45347410961972434,0.9489551620070806,0.261942912179292,-0.690659941531778,0.20882482014926462,0.2807170618110586,-0.5836993086797502,-0.22095692923206411,-0.7280676893708125,-0.3409591027813068,-0.7173115470933931,-0.6137503213977575,0.7596905616155167,0.6025618337049281,-0.9501012157119053,-0.014824203524394175,-0.011846155392957192,-0.8904842015370531,0.5887330374727466,-0.009384657698438659,0.01138482713535982,0.5681047295743604,-0.4612226879388128,0.5652528996088471
0.8749063737909093,-0.8199481681895004,0.08852982663074394,0.007266208452586298,0.21369546370170922,0.2129593982310447,-0.17524303823310095,-0.8775235559602985,-0.7016170623897253,0.24977506937379457,0.049506888166420904,0.9432727488255581,0.7765022963124151,0.027965500256552867,0.6083968222763272,-0.1612366423368079,0.25142583108125804,0.22811344420856794,0.6972385133446242,-0.7949481190525396,-0.32903755162056947,-0.6022575893279436,0.9561525953218617,0.9945875937218507,-0.5859644862944431,-0.43295042184422106,-0.066670420334491,-0.6238736319322846,-0.7527213284941918,-0.9995917579569122,-0.34872137184694174,-0.8917887214714308,-0.3947744040945733,0.23488516831811346,-0.15380176474482687,-0.19495628478307125,0.48229602696466767,-0.9397901274241678,-0.4451288295468332,0.04962918253321802,0.13017124304495198,-0.16739888810841141,-0.037953280945036916,-0.5836541483455961,0.5013223761340613
