-0.4468418366321274,-0.5625576680343547,0.6126684712549615,0.002953306619172924,-0.7263810571974019,0.2330010662580495,-0.7460248914544176,-0.2962982063177926,-0.05140631945466523,0.9622847789625077,0.16513271077659697,-0.744202899157858,-0.6741131662365798,0.5296128629204748,0.5478657577173158,0.9504820524638298,0.7071991590991988,0.9712011795813682,-0.5197406045148596,0.1697970293059472,0.3227578691762836,-0.3558842430402329,0.5735149611172679,-0.5489704366709929,-0.03901055793130137,0.9851925885900856,-0.132476579581986,0.12272176661421041,0.4047271753244963,0.13287152158185767,-0.664180576787589,-0.0592259351718909,0.7962697141150978,0.9354026146725194,0.8182490948917334,0.2273305731915074,0.2822310394943992,0.4416229449633644,0.9255413564996633,-0.897950025209181,0.3215772240147712,-0.8080295726235196,0.3312712463055758,0.7371011148690483,0.8420230695955768,-0.11745842795520822,0.8638203770988919,0.8025637177977476,-0.1588639985655631,0.42355251654734416,-0.5121448065920642,-0.7142172664077646,0.05194221796378984,0.7753880917272371,0.9781569143271505,0.5825532422485544,-0.6554363674007795,0.014055970451394284,-0.6855945193700197,-0.23957962979656866,-0.20442182058561054,-0.5718783680291564,0.13278721434908003,-0.3933783189442468,0.10280547902006854,0.7369475895193052,0.28056830156402657,-0.5702951748954299,0.648114406607148,0.063428154726348,0.8846001381669739,-0.22122442490874583,-0.6890431772961854,-0.29830842610631914,-0.14291986537320645,0.20377262577272615,-0.0324125577334049,0.11017765300618532,-0.14370857934115344,-0.85226992753766,0.5901436630566796,-0.8768228761034027,-0.10901737348056151,0.08324264511738466,-0.1662007728316326,0.20874199123296822,0.4791485541669871,0.9586717525612054,-0.25699907595493454,-0.10113170544989725,0.5055060629977994,0.5298776834919736,-0.9351876624575177,-0.7312632056264148,0.24866935448106475,-0.9659478232952734,-0.08924281238083798,-0.8405396536083061,0.004148705881934056,0.4062150143237735,0.9984250959066236,-0.02085034487810078,-0.11756316900459285,-0.9740889107717876,0.10698579073416337,-0.1868907253164649,0.6761062674505425,0.10620549938545887,0.8558576857778895,-0.5520128366818038,0.35781063016032166,0.5106290399954401,0.5987950919416791,-0.6336373524434076,-0.9164055655455834,0.6290668656007832,0.6700624489866358,-0.7485783082539468,0.663047429202007,0.05441407982788138,-0.8285364383680762,0.4968535387045714,0.4282981746800898,0.8571894975467764,0.9503202453115545,0.5432165068590888,0.2882124590141977,-0.6973571497747435,-0.037655107524279696,-0.15941722486866317,0.67947186427549,-0.5398861447271857,-0.021733323215518352,-0.0885965723858777,0.25181010848914265,0.4604104537468463,-0.6781160077325894,0.4979431812747803,0.08182878900824342,-0.46699462935048386,-0.7016944989913048,0.46242734362637794,-0.8751281255735672,0.3433457613564246,0.9984233162336935,-0.8134977296298593,0.6146425800821693,0.9645123409268903,0.5075939426298071,0.4838872609705718,0.032479511639364134,-0.5476504760469614,-0.18074584974288732,-0.16897166929020258,0.6070408434449397,0.909535263258775,0.3203605696487901,0.5649564848917403,-0.35070667818947276,-0.7935878609828058,-0.9516619725590256,0.4151828153799175,-0.10530312320289315,0.04304775415045081,-0.9457427783928862,-0.7340813186680979,0.28314466020539597,-0.4397891894048038,-0.256040987067367,-0.6734525910756071,-0.6157040099535351,-0.3786566927501738,0.5003614119555153,-0.6960212034755346,-0.8960539989773346,-0.8898381384275058,-0.9381252263115032,0.6589231796311259,0.12225482543418309,-0.5156977932313469,0.16150258882616075,-0.6622522663020289,0.9488725658697372,-0.4063027086831663,0.9638992836649409,-0.0014541941684422799,-0.06077483745164236,0.7291486767009239,-0.7646653741553853,0.4782858460182313,0.5335589230190636,-0.013760144483872638,0.3705169753754125,0.2324046809508713,0.5891655281674311,-0.1433485278637876,0.9941375900931015,0.7307923232610363,0.36791173998442206,0.8743405533580608,-0.8832434634060542,-0.13816164943652387,0.1562955881401249,-0.7565128493332354,0.632819809976114,-0.35369806854664465,0.38217041585523437,0.4410439455022619,-0.36347711212408895,-0.3283360066218868,-0.15616910375497306,0.23106510069106156,-0.5863605200722553,0.1130784749719318,-0.9337751577935489,0.40316580865386276,0.7339248401695286,-0.2316565809122917,-0.34760184875388855,0.24754477063636737,-0.5370187150206402,-0.9165180278160279,-0.3029145700398683,-0.42575672300854683,0.8452824258295029,0.8933461797161417,-0.7780407468585606,-0.5742387769218886,0.6724971663845298,0.7341200531303467,0.8912791349660596,0.0990118789855936,-0.5437046132736385,-0.00815190577046443,-0.9914375102260979,0.3282821890556944,-0.4611972933983588,0.03940019193869704,0.8623616940290939,0.0042013974308132696,-0.9506600136774976,-0.4503262458639008,0.5089298314061173,0.03519854730861871,-0.13772393756699675,-0.87059327136055,-0.7888108333258528,-0.007830809827209517,0.6761155390034768,-0.8953109779406467,0.4781338454773991,-0.6435964154876916,0.5093775535362057,-0.35342441762022103,-0.7402948235039475,0.2547176485779641,-0.8997679415399447,-0.5420938513524454,-0.03149030833658739,-0.7385307558427265,-0.8649465726988808,0.947386439175681,-0.31725900652990635,-0.4602917554343906,0.5851116789775763,-0.3538192387056778,-0.5655918169798,0.8174562345958745,0.4129014264098654,-0.07435917811595405,-0.08125363436798039,0.8980743725384845,-0.9797169277196032,-0.9367592188773479,-0.3929709368718468,0.36247256137766715,-0.4312085102277048,-0.5004387719068479,0.12207717115508787,0.8086620035066896,-0.23955584232009453,-0.19045439569568678,0.4465278648125961,-0.6992257698140827,-0.5714486165996446,-0.8163992185494002,0.43009900998413775,-0.4514098330662357,0.6471765284151842,0.9518797395204754,0.1866127981701564,0.5323290110944285,-0.5169092589908357,0.809068753909371,-0.17227959323824882,0.7157612196791694,-0.3136278590836643,0.37639585236195705,-0.5744254996026954,-0.22237413080383384,0.4078721243953203,-0.7091228798309688,0.9742428000687822,-0.270639660940174,-0.9962984373416754,-0.37098589600224763,0.9145243235406473,0.8263562409027587,0.2860996359116412,-0.5798934024748488,0.40336369009087036,0.3536117510473036,0.7259566458352336,0.05022953305996869,0.548711429349128,-0.7148036056307185,0.6871643020396767,0.7960018431848841,0.38444103734206636,-0.03916803999147889,-0.22513532345092901,0.41807861357595955,0.23275164671268334,-0.6209178821627308,0.11373647805130394,-0.46792425709010943,0.6422257599567149,-0.5676109537338414,0.47727027631562136,-0.35672560434093925,-0.28827216602749384,0.27489800567657285,0.5137088679663486,-0.9324203184411872,-0.7295468186427891,0.0978189646411487,-0.9796654976314516,-0.8201897388859982,0.1491635634645121,-0.8352618666296772,-0.016204522558778578,-0.9334598547886048,0.2633085255037104,0.2973889537941039,0.3290672939062773,0.5607725181272876,-0.7657059548336147,0.14082117924676685,0.37807648834477137,-0.5852182932123244,-0.4095889982336498,-0.5650016087849528,-0.02524498618122939,-0.9338879566785085,0.4281083164988746,0.8250442186568658,-0.518157164249416,-0.6244571311572382,0.7760302269570014,0.12807619396278702,-0.04719538906906151,-0.09525133257369656,0.7093061142875932,0.4617799275377059,-0.4570591399550321,0.47528022802102865,-0.30827251951447776,-0.1512081967801635,-0.14419481613527574,-0.38401174549219186,-0.7503908065090306,0.7616676287293005,0.06481681986863652,-0.3706303292688877,0.6489586264358411
-0.8375067528405123,-0.8157924458932992,-0.14865396390253294,0.6701854726209004,-0.400055760362516,-0.1824852866781721,-0.04241744246154233,-0.516077742445067,-0.31544976319732876,-0.4359204962065645,0.5201198826304647,-0.5929047913379308,-0.26376943320111057,-0.95972347513377,0.2463855180954746,0.8834590171017995,-0.3079970111093494,-0.5126548223585707,-0.05407995050509584,-0.9592934413416373,-0.6271341037317818,-0.9315276010399218,-0.035073018447929205,-0.6217609417296269,-0.34231497262373256,-0.6524795674308024,-0.3672375827739788,0.030926387832673985,-0.8919825696504528,-0.5376967535827695,-0.0619278378538024,-0.5703224382048823,-0.5806545279312753,-0.6306891044855009,-0.39543180236353104,-0.44476628834638865,-0.4612532603118559,-0.4851647578512892,-0.5532730656231671,-0.5766951627322775,-0.7500530645319137,-0.024017199546591095,-0.44975453490524764,0.9530237513699744,-0.5898900124054532,0.7353460120094897,-0.08415872336757613,-0.09727299218329044,-0.3334876357712341,0.3164852070511128,-0.5546096161876197,-0.7413786718166665,-0.6147917827547714,-0.13947067481061215,-0.41129699088848004,-0.5611443776991469,-0.4957984089124037,-0.08271928935830597,-0.09891837164742145,-0.44861242210245755,-0.3511922379098983,-0.17637173751163793,-0.9455543159976617,-0.6278034443741958,0.24409426133641388,-0.6789715988690123,-0.0945279017628573,0.5123324147632375,-0.9392513828010896,-0.2575781417511749,-0.5666067196092412,-0.8898109410477769,-0.06439281291147325,-0.2300632417688122,-0.24451717681449558,-0.37401222678236945,-0.011386272211445392,-0.35067664999830117,-0.3841068293807226,0.5470503461998222,-0.6199903395869197,-0.6191907893223008,-0.7136032988892589,-0.6304982118985304,-0.7448928755371923,-0.5236052862457363,-0.1326059634066622,-0.5664562309022607,-0.013385764442859993,-0.5708114709243806,-0.7655647291716695,-0.5926830989458416,-0.06996430248638952,-0.05378451216309721,-0.8819405120125559,-0.32691419193773663,-0.9813649867934038,-0.36562607616709375,-0.7729337230806739,-0.7014546986347345,-0.9801786635404802,-0.1501205158354052,-0.6206210729958417,-0.7108167112575745,-0.6501112098908184,-0.8925975940276716,-0.27449613591332633,-0.6747516478167069,-0.5010547505305353,-0.8872293337653876,-0.4084059005143108,-0.14134590731682883,-0.7814739317889665,-0.48561709220394467,-0.11435558869799956,-0.35991394076378436,-0.9591101251097912,-0.430510446403789,0.8824972709336745,-0.7897307047292105,-0.36648562052648126,-0.3152166992106862,-0.07949462628619008,-0.6214597203504785,0.10000376063272265,-0.003935656502111584,-0.9000893235323466,-0.6065689522939326,-0.032505418353565574,-0.44156723859049063,-0.25046712903253265,-0.15501593621413257,-0.23620105981552497,-0.6834900059983973,-0.09408554699996252
-0.6322023240000245,-0.587088838960699,-0.36649979816234424,-0.492984067286384,-0.18383962305130142,-0.3962815214868519,-0.22122102560700974,0.16482295986644413,-0.6488969118460237,-0.43426387383365395,0.7782781434363761,0.19425856508976858,-0.018784031198220696,-0.4812442045044678,-0.3378686415575115,-0.22153177508850264,-0.3653526846259787,-0.8026661263130492,-0.4419292417865871,-0.323838335016165,-0.3319693227484868,-0.46320522126071073,-0.48426353231095887,-0.49264359574938876,-0.8364294830790128,-0.5950614207905911,-0.006002463904717037
-0.4468418366321274,-0.5625576680343547,0.6126684712549615,0.002953306619172924,-0.7263810571974019,0.2330010662580495,-0.7460248914544176,-0.2962982063177926,-0.05140631945466523,-0.7394731267226167,0.8983174126130447,-0.48698748444479545,-0.6741131662365798,-0.2623168754922107,0.5478657577173158,-0.8883589030359136,-0.3347966540761409,0.9712011795813682,-0.3970943090015169,0.1697970293059472,0.3227578691762836,0.5656717866257939,0.5646077122686364,-0.5189868054308429,-0.03901055793130137,0.5137413990713837,-0.132476579581986,0.12272176661421041,0.4047271753244963,0.5113301260367906,-0.664180576787589,0.9007855194148413,0.7962697141150978,0.9354026146725194,0.8182490948917334,0.2273305731915074,0.2822310394943992,-0.8022000789515886,0.9255413564996633,0.10702665846177473,0.3215772240147712,-0.8080295726235196,0.7902738477563851,0.7371011148690483,-0.1464618271649265,-0.11745842795520822,0.8638203770988919,0.8025637177977476,-0.1588639985655631,0.42355251654734416,-0.5121448065920642,-0.7142172664077646,-0.8507763235271506,0.7753880917272371,-0.5474984940356462,0.5825532422485544,-0.4602710134757675,0.014055970451394284,-0.9149276283676901,-0.07177129259941561,-0.20442182058561054,0.07486469910012339,0.13278721434908003,-0.3933783189442468,0.10280547902006854,0.7369475895193052,-0.10565185096648966,-0.14105048626547956,0.4842242427185899,0.37508461307200225,0.9259183698347728,-0.22122442490874583,-0.6890431772961854,-0.29830842610631914,-0.14291986537320645,0.20377262577272615,-0.09834408293020158,0.36027410957326556,0.32209244511224266,-0.85226992753766,0.5901436630566796,-0.8768228761034027,-0.10901737348056151,0.08324264511738466,-0.1662007728316326,-0.22390997481604802,0.4791485541669871,-0.5943303386973195,-0.27373646084233494,-0.10113170544989725,0.5055060629977994,-0.292893107762612,-0.9351876624575177,0.5033554765812827,-0.16460627295062902,-0.9490825837968007,-0.08924281238083798,0.570315577954547,0.004148705881934056,0.5652640302593639,0.9984250959066236,0.4545901085975237,-0.11756316900459285,-0.9740889107717876,0.10698579073416337,-0.06936903802751626,0.6761062674505425,0.10620549938545887,0.8558576857778895,0.9692552949696669,0.35781063016032166,0.5106290399954401,0.5987950919416791,-0.01914534467400708,-0.9164055655455834,-0.29868303501987703,0.6700624489866358,-0.7485783082539468,0.663047429202007,0.05441407982788138,-0.8285364383680762,0.7639775382785019,0.4282981746800898,0.8571894975467764,0.9503202453115545,0.5432165068590888,-0.30466812256436104,-0.6973571497747435,-0.037655107524279696,0.3799079967238077,0.67947186427549,-0.8058343841732525,0.3330814342031472,0.6409610478334953,0.8390820969819162,0.3025883823782194,0.6324984400153117,0.13801669597686184,0.08182878900824342,-0.46699462935048386,-0.18866416401853803,0.46242734362637794,-0.8751281255735672,0.3433457613564246,0.9984233162336935,0.3126873839643185,0.6146425800821693,0.9206573363059924,0.5075939426298071,0.4838872609705718,-0.9090026505250246,-0.5476504760469614,0.7897358691370322,0.9049130518227779,0.6070408434449397,0.909535263258775,0.3203605696487901,-0.23902253954413544,0.2468478625962196,-0.8718241624998286,-0.21563600241844605,0.4151828153799175,-0.10530312320289315,-0.02880765164387844,-0.9457427783928862,-0.7340813186680979,0.5867059019831935,-0.4397891894048038,0.31389249306889844,0.13523368629160992,0.08805224091836084,-0.29676259864244803,-0.5015327306466848,-0.6960212034755346,-0.0771811277731902,-0.638531380175495,-0.9381252263115032,0.6589231796311259,0.12225482543418309,-0.5156977932313469,0.9230194944255632,-0.6622522663020289,-0.8555393632104942,-0.6566281934456981,-0.4263624159763293,-0.0014541941684422799,-0.06077483745164236,0.7291486767009239,0.2318899116531652,0.4782858460182313,0.5335589230190636,-0.013760144483872638,0.5731471348565897,-0.2791091479556427,0.5891655281674311,0.17836482274224696,0.9941375900931015,0.9307097770994488,0.36791173998442206,0.8743405533580608,0.5227280769286489,-0.13816164943652387,0.1562955881401249,-0.7565128493332354,0.632819809976114,-0.35369806854664465,0.38217041585523437,0.4410439455022619,-0.36347711212408895,-0.3283360066218868,-0.15616910375497306,0.34297328009625194,-0.5863605200722553,0.1130784749719318,-0.9337751577935489,0.40316580865386276,-0.11209457466549755,-0.10542234312349419,-0.34760184875388855,0.24754477063636737,-0.5370187150206402,0.9651815605888185,0.6334254031883384,-0.42575672300854683,0.37962522834261203,-0.6435540563511553,-0.3594285582516903,-0.5742387769218886,0.6724971663845298,0.7341200531303467,0.8912791349660596,0.02250607123645665,-0.5437046132736385,-0.00815190577046443,-0.9914375102260979,0.3282821890556944,-0.4611972933983588,-0.10711530204183073,0.7680035124223559,0.20047578800353683,-0.029682655684845516,-0.4503262458639008,0.5089298314061173,0.03519854730861871,-0.13772393756699675,-0.87059327136055,-0.7888108333258528,-0.2528863536104713,0.7379357530104835,-0.0032461014517128906,0.052756287814182956,0.32005579593954603,0.5093775535362057,-0.35342441762022103,-0.7402948235039475,0.8642349898741528,-0.8997679415399447,0.12166578012133189,0.09667256716607486,-0.9938152621781722,-0.7718242899330059,0.947386439175681,-0.31725900652990635,-0.4602917554343906,0.5851116789775763,-0.3538192387056778,-0.5655918169798,-0.5585725467262139,0.16005169287682852,0.4826432869906707,-0.08125363436798039,0.8980743725384845,-0.9797169277196032,-0.9367592188773479,-0.8324743014726235,0.36247256137766715,0.4124031202135059,-0.5004387719068479,0.2872927055594581,-0.14014806720221196,0.1966913640855894,-0.6551611000371442,-0.5149867027665507,-0.6992257698140827,-0.3544649058673579,-0.21507106004774923,0.43009900998413775,0.1782983667501301,0.6471765284151842,0.9518797395204754,-0.03799490167981445,0.5323290110944285,0.8455091537708468,-0.8885568086506621,-0.17227959323824882,-0.25365836556539745,-0.3136278590836643,-0.4233704816697026,0.5290193876577702,0.8299735959719616,0.918649408321931,-0.7091228798309688,-0.9587714315387863,-0.270639660940174,-0.19744272396807117,-0.37098589600224763,0.9145243235406473,0.8263562409027587,0.2860996359116412,-0.5798934024748488,0.40336369009087036,0.3536117510473036,0.7259566458352336,0.05022953305996869,0.3972467744258865,-0.7148036056307185,0.6871643020396767,-0.3567679840613389,0.38444103734206636,0.37053581439456473,-0.22513532345092901,0.41807861357595955,0.23275164671268334,-0.7822506833361056,0.11373647805130394,-0.46792425709010943,0.6422257599567149,-0.5676109537338414,0.47727027631562136,-0.35672560434093925,-0.28827216602749384,0.27489800567657285,0.5137088679663486,-0.9324203184411872,-0.6571626716875503,0.0978189646411487,-0.9796654976314516,0.01448178508617115,0.1491635634645121,-0.58051072169536,0.7385570633695873,-0.5208247142719875,0.2633085255037104,-0.4092321405485613,0.3290672939062773,0.5607725181272876,0.09325593771054463,0.1448313864309554,0.37807648834477137,-0.5852182932123244,-0.4095889982336498,0.44593644551813916,-0.44387991578544606,-0.5814971601981842,0.4281083164988746,0.355364521427312,-0.8974443280514142,-0.6244571311572382,0.7760302269570014,0.12807619396278702,-0.8793437305410794,-0.09525133257369656,0.7093061142875932,0.4617799275377059,-0.4570591399550321,0.47528022802102865,0.33156124571758006,-0.1512081967801635,-0.14419481613527574,-0.712559770265693,-0.7503908065090306,0.7616676287293005,0.06481681986863652,-0.3706303292688877,-0.25637725792393407
-0.8375067528405123,-0.8157924458932992,-0.14865396390253294,-0.149592772393768,-0.8161960457194358,-0.5224683503167936,-0.04241744246154233,-0.516077742445067,-0.31544976319732876,-0.3515466507034657,0.5201198826304647,-0.5929047913379308,-0.9903708758917299,-0.95972347513377,0.2463855180954746,0.8834590171017995,0.21558565915287886,-0.5126548223585707,-0.05407995050509584,0.8351462822734144,-0.6271341037317818,-0.5284774667122977,-0.035073018447929205,-0.9950128836287415,-0.9094719849435828,-0.6524795674308024,-0.31422151640028806,0.030926387832673985,-0.8919825696504528,-0.5376967535827695,-0.6395083463415705,-0.9468938488593395,-0.6278037327660287,-0.6306891044855009,-0.39543180236353104,-0.34450569014124044,0.19152927167163902,-0.4851647578512892,-0.5434842364897498,-0.5766951627322775,-0.2120578324118827,-0.024017199546591095,-0.1880419771440499,0.9530237513699744,-0.3708850009853,0.7353460120094897,0.0876224100706231,-0.44183872907308197,-0.3334876357712341,0.3164852070511128,-0.5546096161876197,-0.76550401956424,-0.34492682855950163,-0.13947067481061215,-0.5004528595852727,-0.5611443776991469,-0.24638261534829609,-0.08271928935830597,-0.2982660409580774,-0.44861242210245755,-0.3511922379098983,-0.17637173751163793,-0.9455543159976617,-0.6278034443741958,0.24409426133641388,-0.6789715988690123,-0.0945279017628573,0.5123324147632375,-0.9392513828010896,-0.27723171503649957,-0.5666067196092412,-0.6895792440128138,-0.06439281291147325,-0.2300632417688122,-0.24451717681449558,-0.3884184269304156,-0.7514366192786384,-0.35067664999830117,-0.3841068293807226,-0.2519956445586937,-0.6199903395869197,-0.12048871671556416,-0.9556926595347027,-0.12368402958263003,-0.7448928755371923,-0.7373173092454806,-0.07447297882061377,-0.0396544268656589,-0.11455660740841056,-0.13753189379295971,-0.7655647291716695,-0.5926830989458416,-0.06996430248638952,-0.49183231239064584,-0.8819405120125559,-0.32691419193773663,-0.9813649867934038,-0.7372988641557355,-0.4189882356749193,-0.7014546986347345,-0.9801786635404802,0.8550500660343336,-0.8136322556526987,-0.7108167112575745,-0.6501112098908184,-0.8925975940276716,-0.27449613591332633,-0.6747516478167069,-0.5010547505305353,-0.4064855092275529,-0.4084059005143108,-0.14134590731682883,-0.9576378302897908,-0.48561709220394467,-0.48245838497572047,-0.35991394076378436,-0.9591101251097912,-0.430510446403789,-0.5637750375524755,-0.813141351890246,-0.3236215429481637,-0.3152166992106862,-0.9107137763828291,-0.6214597203504785,-0.3932414835960707,-0.003935656502111584,0.15715512244248298,-0.6065689522939326,-0.032505418353565574,-0.9419951731248725,-0.25046712903253265,-0.15501593621413257,-0.23620105981552497,-0.6834900059983973,-0.09408554699996252
-0.6322023240000245,-0.8250106580031621,-0.3843988373751688,-0.492984067286384,-0.5203491594904684,-0.3962815214868519,0.9322272047077371,-0.2037900253465983,-0.8960006949066418,-0.7923196647552905,-0.31545459273917453,-0.5965204590905824,-0.24163629563031763,-0.4812442045044678,-0.0635860606053934,-0.9995587356921222,-0.3653526846259787,-0.8026661263130492,-0.9998891119723521,-0.323838335016165,-0.47641009772421716,-0.2466683192968655,-0.08071897426867447,-0.49264359574938876,-0.8364294830790128,-0.5950614207905911,-0.006002463904717037
-0.4468418366321274,-0.5625576680343547,0.6126684712549615,0.002953306619172924,-0.31646804395449935,-0.2996102456757308,-0.7460248914544176,-0.2962982063177926,-0.05140631945466523,0.015421745369106565,0.16513271077659697,-0.48698748444479545,0.559364526534162,0.5296128629204748,-0.3575392119653875,-0.8883589030359136,0.7071991590991988,0.6719875434289564,-0.3970943090015169,-0.5085362775973179,0.3227578691762836,-0.3558842430402329,0.5735149611172679,-0.5189868054308429,0.853356443365771,0.9851925885900856,-0.5328291465947015,0.12272176661421041,0.4047271753244963,-0.8690833664424635,-0.6015357805167771,-0.0592259351718909,0.2098814672847269,0.9354026146725194,0.8182490948917334,-0.1396557319598497,0.2822310394943992,-0.44651443090951615,0.9255413564996633,0.2620643559185041,0.9879897115566625,-0.8080295726235196,0.8659141868479605,0.7371011148690483,0.8420230695955768,-0.11745842795520822,0.8638203770988919,0.26052476829383275,-0.016625934042713064,0.6688786133446303,-0.5121448065920642,-0.7142172664077646,0.05194221796378984,-0.7326120409674479,0.9781569143271505,0.5825532422485544,-0.4602710134757675,0.014055970451394284,0.9273046674555843,-0.07177129259941561,0.521548165874786,-0.5718783680291564,-0.4989928535687802,-0.3933783189442468,0.10280547902006854,0.6865356080556038,0.28056830156402657,-0.14105048626547956,0.648114406607148,-0.8789473493318662,0.8846001381669739,-0.22122442490874583,-0.6890431772961854,-0.29830842610631914,-0.590440222495989,0.20377262577272615,0.00666420109060728,0.36027410957326556,-0.14370857934115344,-0.85226992753766,-0.7140747323830707,-0.8768228761034027,0.08777161595832084,0.08324264511738466,0.6476560445935833,-0.22390997481604802,0.4791485541669871,-0.5943303386973195,-0.05153767817423094,0.8521523593493487,0.5055060629977994,-0.43827569353610185,-0.9351876624575177,0.5033554765812827,-0.6761450835088345,-0.9659478232952734,-0.08924281238083798,-0.8405396536083061,0.004148705881934056,-0.6630577001909119,0.9984250959066236,-0.02085034487810078,-0.11756316900459285,-0.22757416825899135,0.944894454504946,0.15167562720503058,-0.6506643330646205,0.9746866564685794,0.8558576857778895,0.9692552949696669,0.35781063016032166,0.5106290399954401,0.04706229557857333,-0.6336373524434076,-0.5978531716272759,-0.29868303501987703,0.6700624489866358,-0.7485783082539468,0.663047429202007,0.05441407982788138,-0.20332481025979687,0.7639775382785019,0.4282981746800898,0.8571894975467764,0.9503202453115545,0.5432165068590888,-0.5287964994343279,0.8545221936160878,-0.037655107524279696,-0.15941722486866317,0.67947186427549,-0.8058343841732525,0.3330814342031472,0.9349643585180323,-0.8631803545526411,0.4604104537468463,-0.7439415746588698,0.4979431812747803,-0.3300670414715592,0.4609514389719118,0.03918811813667,0.46242734362637794,-0.8751281255735672,0.139978643600974,-0.6132692216607674,0.3126873839643185,0.6146425800821693,0.9206573363059924,-0.9033463981176741,0.4838872609705718,0.032479511639364134,-0.5476504760469614,-0.18074584974288732,0.9049130518227779,0.6070408434449397,0.03351600054876647,0.3203605696487901,0.5649564848917403,-0.35070667818947276,-0.02764917834498526,-0.21563600241844605,0.32336746772572833,-0.10530312320289315,0.04304775415045081,-0.9457427783928862,-0.23288484940443044,0.28314466020539597,-0.4397891894048038,-0.256040987067367,0.13523368629160992,0.33196817700196,-0.3786566927501738,-0.5015327306466848,-0.2100399722602786,-0.8960539989773346,-0.8898381384275058,-0.9381252263115032,0.6589231796311259,0.12225482543418309,-0.5156977932313469,0.16150258882616075,-0.6622522663020289,0.9488725658697372,-0.4063027086831663,-0.5768137634267227,-0.0014541941684422799,0.8786127435023949,0.7291486767009239,-0.7646653741553853,0.4782858460182313,0.5335589230190636,-0.013760144483872638,0.3705169753754125,-0.6752605704268002,0.5891655281674311,0.17836482274224696,0.9941375900931015,-0.03174198026754804,-0.1305381027962047,0.8743405533580608,0.5227280769286489,-0.6441308576700953,0.1562955881401249,-0.7565128493332354,0.632819809976114,-0.8628694814498723,0.38217041585523437,-0.26890838483190205,-0.36347711212408895,-0.3283360066218868,-0.15616910375497306,0.23106510069106156,-0.5863605200722553,0.1130784749719318,-0.9337751577935489,0.40316580865386276,0.7339248401695286,-0.10542234312349419,-0.06480495909658823,0.24754477063636737,-0.5370187150206402,-0.9165180278160279,0.6334254031883384,0.5300058972500807,0.8452824258295029,-0.28895579787696124,-0.3594285582516903,-0.5742387769218886,-0.01945788573676488,0.7341200531303467,-0.3681415255075935,-0.7917650858870875,-0.015885560303749102,-0.00815190577046443,-0.9914375102260979,0.3282821890556944,-0.4611972933983588,-0.10711530204183073,-0.6888868402682953,0.20047578800353683,-0.9506600136774976,0.7390574116170827,-0.8799514525977763,0.5443877599180003,-0.13934315385582785,-0.87059327136055,-0.15393474045805355,-0.2528863536104713,0.6761155390034768,-0.0032461014517128906,0.052756287814182956,-0.6435964154876916,0.5093775535362057,-0.35342441762022103,-0.7402948235039475,0.2547176485779641,-0.8997679415399447,-0.5420938513524454,0.09667256716607486,-0.9938152621781722,-0.8649465726988808,0.947386439175681,-0.31725900652990635,-0.9417332760567128,0.5851116789775763,0.3527542778084023,0.8679097195024963,-0.5585725467262139,0.16005169287682852,-0.07435917811595405,-0.08125363436798039,0.8980743725384845,-0.9797169277196032,-0.33973502145051837,-0.8324743014726235,0.1320916816828399,-0.4312085102277048,-0.5004387719068479,0.3577123861467215,-0.14014806720221196,-0.23955584232009453,-0.19045439569568678,0.4465278648125961,0.14848895080878455,-0.5714486165996446,-0.21507106004774923,0.43009900998413775,-0.4514098330662357,0.6471765284151842,0.9518797395204754,-0.03799490167981445,-0.3667049622260594,0.8455091537708468,-0.8885568086506621,-0.39709143485942877,0.7157612196791694,-0.3136278590836643,0.37639585236195705,-0.5744254996026954,0.8299735959719616,0.4078721243953203,0.6710115277699487,-0.9587714315387863,0.745477885561906,-0.9419567110269336,-0.37098589600224763,0.9145243235406473,0.8263562409027587,0.5446233859887433,-0.5798934024748488,0.10582327245413459,0.3536117510473036,0.7259566458352336,-0.3935342043798469,0.3972467744258865,-0.7148036056307185,0.5254559130159879,0.7960018431848841,0.38444103734206636,-0.03916803999147889,-0.22513532345092901,-0.2565033036896285,-0.07528932968662816,-0.6209178821627308,-0.4071192774441599,-0.46792425709010943,0.6422257599567149,0.31161742154754113,0.47727027631562136,-0.35672560434093925,-0.28827216602749384,-0.5553119494550594,-0.44273268803759325,-0.9324203184411872,-0.7295468186427891,0.0978189646411487,0.26445016999092874,0.01448178508617115,0.1491635634645121,-0.7297379991719062,0.11161605603221947,-0.9334598547886048,-0.016703149071600754,0.2973889537941039,0.21253907891939838,0.5607725181272876,0.5368349206079968,-0.8167729278313258,0.37807648834477137,-0.49724033652629474,0.469641946936578,0.44593644551813916,-0.44387991578544606,-0.06387063716323049,0.4281083164988746,0.8250442186568658,-0.8974443280514142,-0.6244571311572382,0.7760302269570014,0.12807619396278702,-0.8793437305410794,-0.09525133257369656,0.7093061142875932,0.4617799275377059,0.15657538224981682,0.47528022802102865,0.33156124571758006,-0.1512081967801635,-0.14419481613527574,-0.38401174549219186,-0.7503908065090306,0.7616676287293005,-0.4524103511152515,-0.3706303292688877,0.6489586264358411
-0.24072370131098997,-0.8157924458932992,-0.982218339678668,-0.149592772393768,-0.400055760362516,-0.1824852866781721,-0.04241744246154233,-0.516077742445067,-0.31544976319732876,-0.3515466507034657,-0.8870512300612603,-0.5929047913379308,-0.26376943320111057,-0.09702840753072384,-0.8292689203275418,0.8834590171017995,-0.3079970111093494,-0.5126548223585707,-0.2062907993010935,-0.9592934413416373,0.7918109926058439,-0.5284774667122977,-0.9616090266934829,-0.9950128836287415,-0.34231497262373256,-0.685402777614641,-0.3672375827739788,-0.005154208429143714,-0.8919825696504528,-0.4195602883987757,-0.6395083463415705,-0.5703224382048823,-0.5806545279312753,-0.6306891044855009,-0.39543180236353104,-0.34450569014124044,-0.4612532603118559,-0.07470705250843179,0.5857237734409564,-0.5766951627322775,-0.2120578324118827,-0.5017025031477481,-0.44975453490524764,-0.819595015581816,-0.3708850009853,0.7353460120094897,-0.08415872336757613,-0.09727299218329044,-0.3334876357712341,0.3164852070511128,-0.03483033556738768,-0.76550401956424,-0.6147917827547714,-0.008938985819980871,-0.5004528595852727,-0.6232674945640445,-0.4957984089124037,-0.08271928935830597,-0.5844327177451641,-0.4822292765445547,-0.3511922379098983,-0.17637173751163793,-0.9455543159976617,-0.32763561537874764,-0.06570713101178538,-0.6789715988690123,-0.9638743511300472,-0.31343740594318636,-0.2228191604446319,-0.27723171503649957,-0.5666067196092412,-0.8898109410477769,-0.6037880036024122,-0.2300632417688122,-0.24451717681449558,-0.37401222678236945,-0.011386272211445392,-0.35067664999830117,-0.44231519187966084,-0.2519956445586937,-0.14255614179242881,-0.6191907893223008,-0.7136032988892589,-0.41636925149230497,-0.7448928755371923,-0.5236052862457363,-0.027832897509888266,-0.2192716271772045,-0.013385764442859993,-0.13753189379295971,-0.7655647291716695,-0.7665593462487555,-0.06996430248638952,-0.5418315033300354,-0.632249067471306,-0.32691419193773663,-0.1355102474732952,0.39529696390590296,-0.7729337230806739,-0.7014546986347345,-0.18217171320051662,-0.1501205158354052,-0.8136322556526987,-0.8984086155651034,-0.46151461232274615,-0.8925975940276716,-0.3286166062836897,-0.6747516478167069,-0.5010547505305353,-0.8872293337653876,-0.41338152962446173,-0.14134590731682883,-0.7814739317889665,-0.48561709220394467,-0.1986518791671832,-0.35991394076378436,-0.9591101251097912,-0.430510446403789,-0.5637750375524755,-0.7897307047292105,-0.42231821292939364,-0.4913929657983207,-0.3339659559130673,-0.31635506061037444,-0.3932414835960707,-0.5089705132894043,-0.9000893235323466,-0.6065689522939326,-0.032505418353565574,-0.9419951731248725,-0.25046712903253265,-0.35436401256853,-0.9265492421605421,-0.6834900059983973,-0.27610491461618736
-0.2363429350462235,-0.587088838960699,-0.3843988373751688,-0.492984067286384,-0.5203491594904684,-0.5872110379970122,-0.22122102560700974,-0.07004396950401182,-0.6488969118460237,-0.8942721040782657,-0.5937079308441149,-0.5965204590905824,-0.24163629563031763,-0.45381482823203256,-0.3378686415575115,-0.9995587356921222,-0.11233101230012255,-0.34124519220104,-0.4419292417865871,-0.6206584320672367,-0.3319693227484868,-0.2466683192968655,-0.48426353231095887,-0.07723571348144453,-0.7333073438870689,-0.5950614207905911,-0.006002463904717037
-0.4468418366321274,-0.5625576680343547,-0.27464211869966815,0.002953306619172924,0.24214860069331,0.05788583812355297,-0.7460248914544176,-0.2220001287959148,0.9356739495206989,-0.7394731267226167,0.8983174126130447,0.8740666567618698,-0.6741131662365798,-0.6089311661612593,0.5478657577173158,-0.20911566698903172,-0.3347966540761409,-0.573243881474895,-0.5197406045148596,-0.8085777476374185,0.3227578691762836,0.5656717866257939,0.38877506778322624,-0.5189868054308429,-0.03901055793130137,0.9851925885900856,-0.5328291465947015,0.12272176661421041,-0.07495532847106623,0.13287152158185767,0.8286106689489297,0.9007855194148413,-0.25416674443582443,0.9354026146725194,0.8182490948917334,0.2273305731915074,0.10050451391849768,0.4416229449633644,0.9255413564996633,0.10702665846177473,0.9879897115566625,0.10489027659780792,-0.010951153064278518,0.46231022503692043,-0.1464618271649265,-0.11745842795520822,0.8638203770988919,0.8025637177977476,-0.016625934042713064,0.42355251654734416,-0.5121448065920642,0.8259297024935011,0.05194221796378984,-0.7326120409674479,-0.5474984940356462,0.49126749139973014,-0.4602710134757675,0.014055970451394284,0.9273046674555843,-0.23957962979656866,-0.20442182058561054,-0.5718783680291564,0.08602960550541905,-0.3933783189442468,0.10280547902006854,0.6865356080556038,0.28056830156402657,-0.5702951748954299,0.4842242427185899,-0.8789473493318662,0.8846417900560466,-0.22122442490874583,0.9916909554025872,-0.29830842610631914,-0.14291986537320645,0.20377262577272615,-0.0324125577334049,0.36027410957326556,-0.14370857934115344,-0.85226992753766,0.5901436630566796,-0.8768228761034027,-0.10901737348056151,0.08324264511738466,-0.1662007728316326,-0.6856105630606799,0.4791485541669871,0.9586717525612054,-0.25699907595493454,0.7577224822719402,0.5055060629977994,0.5298776834919736,-0.9351876624575177,0.5033554765812827,0.24866935448106475,-0.9490825837968007,-0.08924281238083798,0.570315577954547,0.004148705881934056,-0.6630577001909119,0.9984250959066236,0.42944384872936414,-0.11756316900459285,-0.22757416825899135,0.41674825302302754,-0.06936903802751626,0.5297610743298007,0.9746866564685794,0.8986938245565905,-0.5520128366818038,0.35781063016032166,0.5106290399954401,0.5987950919416791,-0.01914534467400708,-0.5978531716272759,-0.29868303501987703,0.6700624489866358,-0.7485783082539468,0.663047429202007,0.05441407982788138,-0.8285364383680762,0.7639775382785019,0.4282981746800898,0.8571894975467764,0.9503202453115545,0.5432165068590888,0.2882124590141977,0.8545221936160878,-0.037655107524279696,0.3799079967238077,0.67947186427549,-0.8058343841732525,0.3330814342031472,-0.0885965723858777,0.8390820969819162,0.4604104537468463,-0.6781160077325894,0.4979431812747803,-0.3300670414715592,-0.46699462935048386,-0.7016944989913048,0.46242734362637794,-0.8751281255735672,0.3433457613564246,0.9984233162336935,-0.8134977296298593,-0.8143088901783471,0.9206573363059924,0.5075939426298071,0.4838872609705718,0.032479511639364134,-0.5476504760469614,-0.18074584974288732,0.9049130518227779,0.6070408434449397,0.909535263258775,0.3203605696487901,0.5649564848917403,0.2468478625962196,-0.7935878609828058,-0.21563600241844605,0.4151828153799175,-0.10530312320289315,0.04304775415045081,-0.9457427783928862,-0.4397730678043328,0.28314466020539597,-0.4397891894048038,-0.256040987067367,-0.26943813462608923,0.33196817700196,-0.3786566927501738,0.5003614119555153,0.5697039704643598,-0.0771811277731902,-0.8898381384275058,-0.9381252263115032,0.33551426230910986,0.12225482543418309,-0.5156977932313469,0.9230194944255632,-0.6622522663020289,-0.6548507689169132,-0.4063027086831663,0.9638992836649409,-0.0014541941684422799,0.8786127435023949,0.7291486767009239,-0.7646653741553853,0.4782858460182313,0.5335589230190636,-0.013760144483872638,0.3705169753754125,-0.2791091479556427,0.5891655281674311,-0.1433485278637876,-0.6221241462638343,0.7307923232610363,-0.1305381027962047,0.6823754417250207,0.5227280769286489,-0.6441308576700953,0.1562955881401249,-0.7565128493332354,0.632819809976114,-0.8628694814498723,0.38217041585523437,0.4410439455022619,-0.36347711212408895,0.061987286620919235,-0.15616910375497306,0.34297328009625194,0.2434592379697409,0.1130784749719318,-0.9337751577935489,0.40316580865386276,0.7339248401695286,-0.10542234312349419,-0.34760184875388855,0.24754477063636737,-0.5370187150206402,-0.7361602912612286,-0.3029145700398683,-0.42575672300854683,0.37962522834261203,-0.6435540563511553,-0.7780407468585606,0.43373442829141395,0.6724971663845298,0.7341200531303467,-0.3681415255075935,0.0990118789855936,-0.5437046132736385,-0.4981468043131909,-0.9914375102260979,0.3282821890556944,-0.4611972933983588,-0.9586865996786587,-0.6888868402682953,-0.1965947810806341,-0.029682655684845516,-0.4503262458639008,0.5089298314061173,0.03519854730861871,-0.13934315385582785,0.3943813973100794,-0.7465285818264,-0.2528863536104713,0.7379357530104835,-0.0032461014517128906,-0.32046460380234754,-0.6435964154876916,0.5093775535362057,-0.35342441762022103,0.08742474710245896,0.2547176485779641,-0.7725035378786678,-0.5420938513524454,0.09667256716607486,-0.9938152621781722,-0.8735175794302383,0.947386439175681,-0.31725900652990635,-0.4602917554343906,0.5851116789775763,0.3527542778084023,0.8679097195024963,0.8174562345958745,0.16005169287682852,0.4826432869906707,-0.7452015857156458,0.8980743725384845,-0.9797169277196032,-0.9367592188773479,-0.8324743014726235,0.36247256137766715,-0.4312085102277048,-0.5004387719068479,0.12207717115508787,-0.14014806720221196,-0.23955584232009453,-0.6551611000371442,0.4465278648125961,0.3107996342801125,-0.5714486165996446,-0.8163992185494002,0.43009900998413775,-0.4514098330662357,0.6471765284151842,-0.12563010677211728,-0.03799490167981445,-0.3667049622260594,-0.5169092589908357,0.809068753909371,0.12019760480860797,0.7157612196791694,-0.47559607005194193,0.37639585236195705,0.5507959139105927,0.8299735959719616,0.4078721243953203,0.6710115277699487,-0.9587714315387863,0.745477885561906,-0.19744272396807117,-0.37098589600224763,0.9145243235406473,0.8263562409027587,0.2860996359116412,-0.5798934024748488,0.40336369009087036,0.9468032380308113,0.4627852895954121,0.05022953305996869,0.3257907894270604,-0.7148036056307185,0.6871643020396767,-0.3567679840613389,-0.586901437596913,0.37053581439456473,-0.7299255312821031,-0.2565033036896285,-0.07528932968662816,-0.3186351502889391,0.11373647805130394,0.04660785642060228,0.6422257599567149,-0.5676109537338414,0.47727027631562136,-0.35672560434093925,0.15338896957754167,0.27489800567657285,-0.44273268803759325,-0.9324203184411872,-0.7295468186427891,0.6336548375816502,-0.9679448987710795,0.01448178508617115,0.1491635634645121,-0.58051072169536,0.7385570633695873,-0.5208247142719875,-0.012061677194255438,0.2973889537941039,0.3290672939062773,0.5607725181272876,-0.7657059548336147,0.14082117924676685,0.37807648834477137,-0.5852182932123244,-0.42146644739842043,-0.5650016087849528,-0.02524498618122939,-0.5814971601981842,0.4281083164988746,0.355364521427312,-0.518157164249416,0.4748587218746132,0.7760302269570014,0.12807619396278702,-0.8793437305410794,-0.09525133257369656,-0.2557881605658143,0.9190268295524933,-0.4570591399550321,0.47528022802102865,-0.8124070096200129,-0.1512081967801635,-0.14419481613527574,-0.712559770265693,-0.7503908065090306,0.7616676287293005,-0.2675356939580862,0.292984865786184,-0.25637725792393407
-0.24072370131098997,-0.8157924458932992,-0.14865396390253294,-0.149592772393768,-0.400055760362516,-0.14137650938042945,-0.04241744246154233,-0.516077742445067,-0.31544976319732876,-0.3515466507034657,-0.8870512300612603,-0.5929047913379308,-0.9903708758917299,-0.95972347513377,-0.8332718200567119,0.8834590171017995,0.21558565915287886,-0.5126548223585707,-0.2062907993010935,-0.9592934413416373,-0.6271341037317818,-0.9315276010399218,-0.6887250720553411,-0.9950128836287415,-0.9094719849435828,-0.685402777614641,-0.3672375827739788,-0.005154208429143714,-0.8919825696504528,-0.4195602883987757,-0.0619278378538024,-0.5703224382048823,-0.5806545279312753,-0.6306891044855009,-0.9794486786343513,-0.44476628834638865,0.19152927167163902,-0.4851647578512892,-0.5532730656231671,-0.11770684837647782,-0.2120578324118827,-0.5017025031477481,-0.8282011053613592,-0.882155440623282,-0.3708850009853,0.7353460120094897,-0.08415872336757613,-0.44183872907308197,-0.3334876357712341,-0.31762681363027856,-0.5546096161876197,-0.7413786718166665,-0.34492682855950163,-0.13947067481061215,-0.41129699088848004,-0.7500136000515952,-0.4957984089124037,-0.08271928935830597,-0.09891837164742145,-0.18775622175204387,-0.8257269718061004,-0.17637173751163793,-0.9455543159976617,-0.6278034443741958,-0.06570713101178538,-0.6789715988690123,-0.0945279017628573,-0.31343740594318636,-0.9392513828010896,-0.2575781417511749,-0.5666067196092412,-0.8898109410477769,-0.6037880036024122,-0.2300632417688122,-0.24451717681449558,-0.3884184269304156,-0.011386272211445392,-0.35067664999830117,-0.3841068293807226,-0.2519956445586937,-0.14255614179242881,-0.6191907893223008,-0.7136032988892589,-0.41636925149230497,-0.6715621657693283,-0.2996400845192747,-0.07447297882061377,-0.0396544268656589,-0.013385764442859993,-0.7721164091493679,-0.7655647291716695,-0.7665593462487555,-0.06996430248638952,-0.49183231239064584,-0.29497433268120266,-0.32691419193773663,-0.45831326437744413,-0.759937568203298,-0.4189882356749193,-0.7014546986347345,-0.9801786635404802,-0.1501205158354052,-0.8138712262135269,-0.7108167112575745,-0.46151461232274615,-0.8925975940276716,-0.3286166062836897,-0.6747516478167069,-0.8458223716646772,-0.8872293337653876,-0.4084059005143108,-0.14134590731682883,-0.6587300989685576,0.9449925132907864,-0.48245838497572047,-0.35991394076378436,-0.9591101251097912,-0.430510446403789,0.8824972709336745,-0.7897307047292105,-0.11052162497019402,-0.3152166992106862,-0.07949462628619008,-0.6214597203504785,0.10000376063272265,-0.8439614981910821,-0.9000893235323466,-0.5387494961070862,-0.032505418353565574,-0.9419951731248725,-0.9602607109764789,-0.15501593621413257,-0.23620105981552497,-0.6635259065184704,-0.09408554699996252
-0.6322023240000245,-0.8250106580031621,-0.36649979816234424,-0.2992753100922866,-0.18383962305130142,-0.5872110379970122,-0.48798408575406393,0.16482295986644413,-0.8960006949066418,-0.7923196647552905,-0.5937079308441149,-0.5965204590905824,-0.018784031198220696,-0.296696507432026,0.5014011719884386,-0.22153177508850264,-0.3653526846259787,-0.8026661263130492,-0.16352214054055603,-0.323838335016165,-0.47641009772421716,-0.2466683192968655,-0.48426353231095887,-0.49264359574938876,-0.8364294830790128,-0.5950614207905911,-0.6639877689452672
-0.4468418366321274,-0.5625576680343547,0.6126684712549615,0.002953306619172924,-0.7263810571974019,0.05788583812355297,-0.7460248914544176,-0.2220001287959148,0.9356739495206989,-0.7394731267226167,0.8983174126130447,-0.48698748444479545,-0.6741131662365798,-0.2623168754922107,0.31962866223335884,0.9504820524638298,-0.3347966540761409,0.9712011795813682,-0.3970943090015169,0.1697970293059472,0.3227578691762836,0.5656717866257939,0.5735149611172679,-0.5189868054308429,-0.03901055793130137,0.23949769314928648,0.24367178189296412,0.12272176661421041,-0.07495532847106623,0.5113301260367906,-0.664180576787589,0.9007855194148413,0.2098814672847269,0.9354026146725194,0.8182490948917334,-0.1396557319598497,0.2822310394943992,-0.8022000789515886,-0.333268588934843,0.10702665846177473,0.8832309526337092,-0.8080295726235196,0.7902738477563851,-0.0738429949865147,-0.1464618271649265,-0.11745842795520822,0.8638203770988919,0.8025637177977476,-0.016625934042713064,0.42355251654734416,0.23861424295689027,-0.7142172664077646,-0.8507763235271506,0.6602338565876529,-0.5474984940356462,0.5825532422485544,-0.4602710134757675,0.014055970451394284,-0.9149276283676901,-0.07177129259941561,-0.20442182058561054,0.07486469910012339,0.13278721434908003,-0.3933783189442468,0.10280547902006854,0.6865356080556038,0.28056830156402657,-0.14105048626547956,0.4842242427185899,0.37508461307200225,0.9259183698347728,-0.22122442490874583,0.9916909554025872,-0.29830842610631914,-0.14291986537320645,-0.4429863200585933,-0.09834408293020158,0.36027410957326556,-0.14370857934115344,-0.85226992753766,0.5901436630566796,-0.8768228761034027,-0.10901737348056151,0.08324264511738466,-0.1662007728316326,-0.22390997481604802,0.4791485541669871,-0.5943303386973195,-0.27373646084233494,0.4387246019443978,0.5055060629977994,-0.292893107762612,-0.9351876624575177,0.5033554765812827,-0.16460627295062902,-0.9490825837968007,-0.08924281238083798,0.570315577954547,0.004148705881934056,-0.6630577001909119,0.9984250959066236,0.4545901085975237,-0.11756316900459285,0.3873943476488313,0.10698579073416337,-0.06936903802751626,0.5297610743298007,0.9746866564685794,0.8558576857778895,0.9692552949696669,0.35781063016032166,0.5091496347021629,0.04706229557857333,-0.01914534467400708,-0.9164055655455834,-0.29868303501987703,-0.20279894297293222,-0.7485783082539468,0.663047429202007,0.5534433208812795,-0.20332481025979687,-0.268385819742498,-0.13287776852811484,-0.8836087876808754,0.9503202453115545,0.5432165068590888,-0.30466812256436104,0.8545221936160878,0.41146314865859557,-0.15941722486866317,0.67947186427549,-0.8058343841732525,0.3330814342031472,0.6409610478334953,0.8390820969819162,0.3025883823782194,0.6324984400153117,-0.6553542256592872,-0.3300670414715592,-0.46699462935048386,0.03918811813667,-0.12270094629691153,-0.8751281255735672,0.3433457613564246,0.9984233162336935,0.3126873839643185,0.6146425800821693,0.9206573363059924,0.5075939426298071,0.4838872609705718,-0.9090026505250246,0.07838836254301085,0.7897358691370322,0.9049130518227779,0.6070408434449397,0.909535263258775,0.3203605696487901,-0.23902253954413544,0.2468478625962196,-0.8718241624998286,-0.21563600241844605,0.4151828153799175,-0.10530312320289315,-0.02880765164387844,0.4278129316108703,-0.7340813186680979,0.5867059019831935,-0.4397891894048038,0.31389249306889844,0.13523368629160992,0.08805224091836084,-0.29676259864244803,-0.5015327306466848,0.4347209079547585,-0.0771811277731902,-0.638531380175495,-0.9266134594563877,0.6589231796311259,0.12225482543418309,-0.5156977932313469,0.9230194944255632,-0.6622522663020289,0.9488725658697372,-0.6566281934456981,-0.5768137634267227,-0.0014541941684422799,0.08944306303797989,0.7291486767009239,0.2318899116531652,-0.6062036599340412,-0.07316192807223243,-0.013760144483872638,0.3705169753754125,-0.2791091479556427,0.23721752745564761,0.17836482274224696,0.9941375900931015,0.7307923232610363,0.36791173998442206,0.8743405533580608,0.5227280769286489,-0.6441308576700953,0.1562955881401249,-0.7565128493332354,0.632819809976114,-0.8628694814498723,0.38217041585523437,0.8128326066737768,-0.36347711212408895,0.061987286620919235,-0.15616910375497306,0.34297328009625194,-0.5863605200722553,0.1130784749719318,-0.9337751577935489,0.40316580865386276,0.6310929441331532,-0.10542234312349419,-0.34760184875388855,0.24754477063636737,-0.5370187150206402,0.9651815605888185,0.6334254031883384,-0.42575672300854683,0.37962522834261203,-0.6435540563511553,-0.3594285582516903,-0.5742387769218886,0.3415691298242216,0.7341200531303467,0.32392985752143866,-0.7917650858870875,-0.5437046132736385,-0.00815190577046443,-0.9914375102260979,0.3282821890556944,-0.4611972933983588,-0.10711530204183073,0.7680035124223559,0.20047578800353683,-0.029682655684845516,-0.4503262458639008,0.5089298314061173,0.03519854730861871,-0.13772393756699675,0.3943813973100794,-0.7888108333258528,-0.007830809827209517,0.6761155390034768,-0.0032461014517128906,0.052756287814182956,-0.6435964154876916,0.5093775535362057,-0.35342441762022103,0.9046030404389347,0.8642349898741528,-0.8997679415399447,-0.5420938513524454,0.09667256716607486,-0.9938152621781722,-0.7718242899330059,0.12435643451499634,-0.31725900652990635,-0.4602917554343906,0.5851116789775763,-0.3538192387056778,0.8679097195024963,-0.5585725467262139,0.16005169287682852,0.4826432869906707,-0.08125363436798039,0.8980743725384845,-0.1405929306791469,-0.9367592188773479,-0.8324743014726235,0.36247256137766715,0.4124031202135059,-0.5004387719068479,-0.10014606239041712,-0.14014806720221196,0.1966913640855894,-0.19045439569568678,-0.5149867027665507,-0.6992257698140827,-0.5714486165996446,-0.8163992185494002,0.43009900998413775,0.1782983667501301,0.6471765284151842,0.9518797395204754,-0.03799490167981445,-0.5729510374970939,0.8455091537708468,-0.8885568086506621,0.12019760480860797,-0.25365836556539745,-0.3136278590836643,0.37639585236195705,0.5290193876577702,0.8299735959719616,-0.6391260179601026,-0.7091228798309688,-0.9587714315387863,0.745477885561906,-0.19744272396807117,0.5881024412455838,0.9145243235406473,0.8263562409027587,0.5446233859887433,-0.5798934024748488,0.40336369009087036,0.3536117510473036,0.7259566458352336,0.05022953305996869,0.3972467744258865,-0.7148036056307185,0.6871643020396767,-0.3567679840613389,0.38444103734206636,0.37053581439456473,-0.22513532345092901,0.31575684991955577,0.23275164671268334,-0.7822506833361056,0.9853157151987577,0.04660785642060228,0.6422257599567149,-0.5676109537338414,0.3821074647232132,-0.35672560434093925,0.15338896957754167,0.27489800567657285,0.5137088679663486,-0.9324203184411872,-0.6571626716875503,0.0978189646411487,-0.9679448987710795,0.01448178508617115,0.1491635634645121,-0.58051072169536,0.7385570633695873,-0.5208247142719875,-0.012061677194255438,-0.4092321405485613,0.3290672939062773,-0.23571914496099944,-0.7657059548336147,0.1448313864309554,0.37807648834477137,-0.5852182932123244,0.5036443493081895,0.44593644551813916,-0.44387991578544606,-0.5814971601981842,0.4281083164988746,0.355364521427312,-0.8974443280514142,-0.6244571311572382,0.8542515870946206,0.12807619396278702,-0.8793437305410794,-0.09525133257369656,0.7093061142875932,0.9190268295524933,-0.4570591399550321,0.47528022802102865,0.33156124571758006,-0.11214105881183767,-0.14419481613527574,-0.712559770265693,-0.7503908065090306,0.7179539437763365,-0.24770325448622632,0.292984865786184,-0.25637725792393407
-0.24072370131098997,-0.8157924458932992,0.5228276171940553,-0.14597428587122097,-0.8161960457194358,-0.5224683503167936,0.24220454424195292,-0.516077742445067,-0.8204847847074414,-0.3515466507034657,0.5201198826304647,-0.5929047913379308,-0.9903708758917299,-0.09702840753072384,-0.8332718200567119,0.8834590171017995,0.21558565915287886,-0.39395493798819115,-0.2062907993010935,-0.9592934413416373,-0.6271341037317818,-0.5284774667122977,-0.9616090266934829,-0.44317902682153887,-0.9094719849435828,-0.852540664151804,-0.31422151640028806,0.030926387832673985,-0.7210539289176363,-0.4195602883987757,-0.6395083463415705,-0.9468938488593395,-0.6278037327660287,-0.5092891840843995,-0.39543180236353104,-0.34450569014124044,0.19152927167163902,-0.4851647578512892,-0.5434842364897498,-0.5766951627322775,-0.2120578324118827,-0.5017025031477481,-0.1880419771440499,-0.819595015581816,-0.3708850009853,0.7353460120094897,0.0876224100706231,-0.09727299218329044,-0.3334876357712341,-0.6476060630529789,-0.5546096161876197,-0.76550401956424,-0.34492682855950163,-0.13947067481061215,-0.5004528595852727,-0.5611443776991469,-0.24638261534829609,-0.08271928935830597,-0.2982660409580774,-0.18775622175204387,-0.33334002957483744,-0.17637173751163793,-0.9455543159976617,-0.6278034443741958,-0.06570713101178538,-0.6789715988690123,-0.0945279017628573,-0.5437323706968294,0.6671103002240562,-0.27723171503649957,-0.5666067196092412,-0.6895792440128138,-0.9919464309636786,-0.2300632417688122,-0.24451717681449558,-0.3884184269304156,-0.7514366192786384,-0.35067664999830117,-0.41023022374872153,-0.2519956445586937,-0.14255614179242881,-0.12048871671556416,-0.9556926595347027,-0.41636925149230497,0.8522769157521337,-0.7373173092454806,-0.07447297882061377,-0.5664562309022607,-0.11455660740841056,-0.13753189379295971,-0.7655647291716695,-0.5926830989458416,-0.7349303097240949,-0.49183231239064584,-0.632249067471306,-0.32691419193773663,-0.1355102474732952,-0.7372988641557355,-0.4189882356749193,-0.7014546986347345,-0.9801786635404802,0.8550500660343336,-0.8136322556526987,-0.3047790283130134,-0.46151461232274615,-0.8925975940276716,-0.3286166062836897,-0.6747516478167069,-0.5010547505305353,-0.8872293337653876,0.3991840183542448,-0.14134590731682883,-0.9576378302897908,-0.48561709220394467,-0.48245838497572047,-0.35991394076378436,-0.9591101251097912,-0.430510446403789,-0.5637750375524755,-0.813141351890246,-0.3236215429481637,-0.3152166992106862,-0.9107137763828291,-0.6214597203504785,-0.3932414835960707,-0.8439614981910821,-0.3688592188974451,-0.6065689522939326,-0.4749188320055715,-0.9419951731248725,-0.25046712903253265,-0.15501593621413257,-0.23620105981552497,-0.6635259065184704,-0.09408554699996252
-0.6322023240000245,-0.8250106580031621,-0.3843988373751688,-0.2992753100922866,-0.8597544876890698,-0.3962815214868519,0.9322272047077371,-0.2037900253465983,-0.8960006949066418,-0.7923196647552905,-0.31545459273917453,-0.5965204590905824,-0.24163629563031763,-0.296696507432026,-0.0635860606053934,-0.9995587356921222,-0.11233101230012255,-0.34124519220104,-0.9998891119723521,-0.323838335016165,-0.47641009772421716,-0.2466683192968655,-0.08071897426867447,-0.49264359574938876,-0.8364294830790128,-0.5950614207905911,-0.006002463904717037
-0.4468418366321274,-0.5625576680343547,0.6126684712549615,0.002953306619172924,-0.7263810571974019,0.3364833455045315,-0.7460248914544176,-0.2220001287959148,0.9356739495206989,-0.7394731267226167,0.8983174126130447,0.913168242789957,0.14788206001218707,0.5296128629204748,0.31962866223335884,-0.20911566698903172,-0.3347966540761409,-0.05134059739563801,-0.5197406045148596,-0.8085777476374185,0.3227578691762836,0.5656717866257939,0.38877506778322624,-0.5189868054308429,0.41391098374326796,0.23949769314928648,0.24367178189296412,0.3384593986009099,-0.07495532847106623,-0.8690833664424635,0.8286106689489297,0.9007855194148413,0.2098814672847269,0.9354026146725194,0.8182490948917334,0.2273305731915074,0.2822310394943992,0.6745355783965454,-0.23991046314973352,0.10702665846177473,0.8832309526337092,-0.8080295726235196,0.7902738477563851,0.7371011148690483,-0.1464618271649265,-0.11745842795520822,0.8638203770988919,0.8025637177977476,-0.016625934042713064,0.42355251654734416,-0.08201988539669403,0.8259297024935011,0.43881069916989657,-0.8804254818877533,0.9781569143271505,0.5825532422485544,-0.6554363674007795,0.014055970451394284,-0.6855945193700197,-0.07177129259941561,-0.20442182058561054,-0.5718783680291564,0.13278721434908003,-0.3933783189442468,0.10280547902006854,0.6865356080556038,0.28056830156402657,-0.37445548301011744,0.648114406607148,-0.17407125893968867,0.8846001381669739,-0.15878789017303196,-0.6890431772961854,-0.29830842610631914,-0.14291986537320645,0.20377262577272615,-0.0324125577334049,0.36027410957326556,-0.14370857934115344,-0.85226992753766,-0.3840792667081965,-0.8768228761034027,-0.10901737348056151,0.08324264511738466,0.6476560445935833,-0.20371411755825775,0.4791485541669871,-0.5943303386973195,-0.25699907595493454,0.7577224822719402,0.5055060629977994,0.5298776834919736,-0.9351876624575177,0.5033554765812827,-0.16460627295062902,-0.9659478232952734,-0.08924281238083798,0.570315577954547,0.7740741790125798,0.5652640302593639,-0.055741997699539025,0.4545901085975237,-0.11756316900459285,-0.9740889107717876,0.944894454504946,-0.1868907253164649,0.5297610743298007,0.9746866564685794,0.8986938245565905,-0.5520128366818038,0.35781063016032166,0.5106290399954401,0.04706229557857333,-0.6336373524434076,-0.5978531716272759,-0.29868303501987703,0.6700624489866358,-0.7485783082539468,0.663047429202007,-0.8927090914260611,-0.8285364383680762,-0.268385819742498,0.8524409204834369,0.890296362609498,-0.12899411142494488,0.5432165068590888,0.2882124590141977,0.8545221936160878,-0.037655107524279696,-0.15941722486866317,0.67947186427549,-0.8058343841732525,-0.08191096530484265,0.6409610478334953,0.8390820969819162,-0.5347559655418876,0.6324984400153117,-0.6553542256592872,-0.3300670414715592,-0.46699462935048386,0.03918811813667,0.46242734362637794,-0.8751281255735672,0.3433457613564246,0.9984233162336935,-0.8134977296298593,0.6146425800821693,0.9206573363059924,0.5075939426298071,0.4838872609705718,0.032479511639364134,0.07838836254301085,0.7897358691370322,0.9049130518227779,0.6070408434449397,0.909535263258775,0.8514412264242448,-0.23902253954413544,0.2468478625962196,-0.8718241624998286,-0.21563600241844605,0.32336746772572833,-0.10530312320289315,0.04304775415045081,-0.9899002572047069,-0.7340813186680979,0.28314466020539597,0.26094181217636736,-0.256040987067367,0.13523368629160992,0.6902676835252719,-0.29676259864244803,0.5003614119555153,0.5697039704643598,-0.8960539989773346,-0.8898381384275058,-0.9381252263115032,0.6589231796311259,0.12225482543418309,-0.5156977932313469,0.16150258882616075,-0.6622522663020289,-0.6548507689169132,-0.1741572910017839,-0.5768137634267227,-0.3495972674468484,-0.06077483745164236,0.7291486767009239,-0.7646653741553853,0.4782858460182313,0.5335589230190636,-0.013760144483872638,0.3705169753754125,0.2324046809508713,0.5891655281674311,-0.1433485278637876,-0.6221241462638343,0.7307923232610363,-0.1305381027962047,-0.12339398579052485,0.5227280769286489,-0.6441308576700953,0.1562955881401249,0.47294769488600075,0.632819809976114,-0.8628694814498723,0.38217041585523437,0.4410439455022619,0.0395517445540472,0.061987286620919235,-0.15616910375497306,0.23106510069106156,-0.5863605200722553,0.1130784749719318,-0.9337751577935489,0.40316580865386276,-0.9856584333737435,-0.10542234312349419,-0.34760184875388855,0.24754477063636737,-0.5370187150206402,0.9651815605888185,0.6334254031883384,-0.42575672300854683,0.8452824258295029,-0.6435540563511553,-0.3594285582516903,-0.5742387769218886,0.6724971663845298,0.7341200531303467,-0.3681415255075935,-0.7917650858870875,-0.5437046132736385,-0.00815190577046443,-0.9914375102260979,0.3282821890556944,-0.6570308892641898,-0.9586865996786587,0.8378680013754409,0.20047578800353683,-0.029682655684845516,-0.4503262458639008,0.5089298314061173,0.5443877599180003,-0.13772393756699675,0.3943813973100794,-0.7465285818264,-0.2528863536104713,-0.8488578421745643,-0.0032461014517128906,0.052756287814182956,-0.6435964154876916,0.3911578773693176,-0.35342441762022103,-0.7402948235039475,0.2547176485779641,-0.8997679415399447,-0.9288535771886797,0.09667256716607486,-0.05508215180793985,-0.8649465726988808,0.947386439175681,-0.31725900652990635,-0.4602917554343906,0.5851116789775763,-0.3538192387056778,0.8679097195024963,0.8174562345958745,0.16005169287682852,0.4826432869906707,-0.08125363436798039,0.8980743725384845,-0.9797169277196032,0.4921900394876997,-0.8324743014726235,0.36247256137766715,-0.4312085102277048,-0.5004387719068479,0.12207717115508787,-0.14014806720221196,0.1966913640855894,-0.19045439569568678,0.4465278648125961,-0.6992257698140827,-0.5714486165996446,0.8237307703673784,0.43009900998413775,0.1782983667501301,0.6471765284151842,0.9518797395204754,-0.03799490167981445,-0.5729510374970939,-0.5169092589908357,-0.8885568086506621,-0.4960169884495129,0.7157612196791694,-0.5320373586224738,0.37639585236195705,-0.9387983775770845,0.8299735959719616,0.4078721243953203,-0.7091228798309688,-0.9587714315387863,0.745477885561906,-0.19744272396807117,-0.37098589600224763,0.9145243235406473,0.8263562409027587,0.2860996359116412,-0.5798934024748488,0.40336369009087036,0.9468032380308113,0.4627852895954121,-0.49395717829734065,0.3972467744258865,-0.9219309375854874,0.6871643020396767,0.7960018431848841,0.38444103734206636,0.37053581439456473,-0.22513532345092901,0.31575684991955577,0.23275164671268334,-0.3186351502889391,0.11373647805130394,0.04660785642060228,0.6422257599567149,-0.93112295343035,0.3821074647232132,-0.35672560434093925,-0.28827216602749384,0.27489800567657285,0.7245418247518709,0.9292515108974015,-0.7295468186427891,0.0978189646411487,-0.9796654976314516,0.01448178508617115,0.1491635634645121,0.9987260301613894,0.7385570633695873,-0.5208247142719875,0.2633085255037104,0.2973889537941039,0.3290672939062773,0.5607725181272876,-0.7657059548336147,0.10101788048255544,0.37807648834477137,-0.029182041378369883,-0.4095889982336498,0.44593644551813916,0.7450457791032912,-0.5814971601981842,0.4281083164988746,0.8250442186568658,-0.518157164249416,0.4748587218746132,0.7760302269570014,0.12807619396278702,-0.8793437305410794,-0.09525133257369656,-0.2557881605658143,0.9190268295524933,-0.4570591399550321,0.47528022802102865,0.33156124571758006,-0.1512081967801635,-0.9305398543552081,0.21442120145096033,-0.7503908065090306,0.7616676287293005,-0.2675356939580862,0.292984865786184,-0.25637725792393407
-0.24072370131098997,-0.8157924458932992,-0.14865396390253294,-0.149592772393768,-0.8161960457194358,-0.4096296538260995,-0.04241744246154233,-0.516077742445067,-0.31544976319732876,-0.3515466507034657,-0.8870512300612603,-0.5929047913379308,-0.9903708758917299,-0.09702840753072384,-0.8292689203275418,0.8834590171017995,-0.20343935195097873,0.9246292654609607,-0.2062907993010935,-0.9592934413416373,-0.6271341037317818,-0.9315276010399218,-0.035073018447929205,-0.9950128836287415,-0.9094719849435828,-0.685402777614641,-0.31422151640028806,-0.45062251102154904,-0.8919825696504528,-0.6298024602816772,-0.0619278378538024,-0.5703224382048823,-0.5806545279312753,-0.6306891044855009,-0.39543180236353104,0.35058209027198073,0.19152927167163902,-0.07470705250843179,-0.5532730656231671,-0.16189089142880553,-0.2120578324118827,-0.5017025031477481,-0.1880419771440499,0.9530237513699744,0.7318511751107823,0.7353460120094897,-0.08415872336757613,-0.09727299218329044,-0.3334876357712341,-0.6476060630529789,-0.5546096161876197,-0.7413786718166665,-0.34492682855950163,-0.13947067481061215,-0.41129699088848004,-0.7500136000515952,-0.24638261534829609,-0.08271928935830597,-0.09891837164742145,-0.44861242210245755,-0.3511922379098983,-0.17637173751163793,-0.9455543159976617,-0.6278034443741958,-0.17780826788702475,-0.6789715988690123,-0.0945279017628573,-0.31343740594318636,-0.30557422044415894,-0.2575781417511749,-0.5666067196092412,-0.6895792440128138,-0.6037880036024122,-0.2300632417688122,-0.24451717681449558,-0.3884184269304156,-0.011386272211445392,-0.35067664999830117,-0.44231519187966084,-0.2519956445586937,-0.5246973141641803,-0.12048871671556416,-0.7136032988892589,-0.6304982118985304,-0.7448928755371923,-0.7373173092454806,-0.2777205183247624,-0.5664562309022607,-0.013385764442859993,-0.7721164091493679,-0.7655647291716695,-0.7665593462487555,-0.06996430248638952,-0.49183231239064584,-0.632249067471306,-0.32691419193773663,-0.45831326437744413,-0.7372988641557355,-0.4227683159583038,-0.7014546986347345,-0.9801786635404802,-0.1501205158354052,-0.8136322556526987,-0.7108167112575745,-0.46151461232274615,-0.8771999767595825,-0.3286166062836897,-0.6747516478167069,-0.5010547505305353,-0.8872293337653876,-0.9830093242033965,-0.14134590731682883,-0.7814739317889665,-0.6673715791474009,-0.48245838497572047,-0.35991394076378436,-0.9591101251097912,-0.09066842360497185,0.8824972709336745,-0.6910484864204671,-0.11052162497019402,-0.3152166992106862,-0.10162669958425452,0.033124016453734084,0.10000376063272265,-0.8439614981910821,-0.3688592188974451,-0.7194126677262209,-0.5157939729996783,-0.9419951731248725,-0.25046712903253265,-0.15501593621413257,-0.9265492421605421,-0.6635259065184704,-0.09408554699996252
-0.6322023240000245,-0.8250106580031621,-0.3843988373751688,-0.492984067286384,-0.8597544876890698,-0.5872110379970122,0.9322272047077371,-0.07004396950401182,-0.6488969118460237,-0.7923196647552905,-0.31545459273917453,-0.5965204590905824,-0.24163629563031763,-0.296696507432026,-0.0635860606053934,-0.22153177508850264,-0.11233101230012255,-0.8026661263130492,-0.16352214054055603,-0.6206584320672367,-0.3319693227484868,-0.2466683192968655,-0.48426353231095887,-0.49264359574938876,-0.31903792108837004,-0.5950614207905911,-0.006002463904717037
-0.4468418366321274,-0.5625576680343547,-0.27464211869966815,0.002953306619172924,-0.7263810571974019,0.3364833455045315,-0.7460248914544176,-0.2962982063177926,-0.05140631945466523,-0.7394731267226167,0.8983174126130447,0.913168242789957,0.14788206001218707,0.5296128629204748,0.24616685801087246,-0.20911566698903172,-0.3347966540761409,-0.573243881474895,-0.5197406045148596,-0.8085777476374185,0.3227578691762836,0.5656717866257939,0.38877506778322624,-0.5189868054308429,0.41391098374326796,-0.36357455480318746,0.24367178189296412,0.3384593986009099,-0.07495532847106623,-0.8690833664424635,-0.664180576787589,0.9007855194148413,-0.23788641366119934,0.9354026146725194,0.8182490948917334,0.2273305731915074,0.2822310394943992,0.008413999510766823,-0.23991046314973352,-0.897950025209181,0.8832309526337092,-0.8080295726235196,-0.010951153064278518,0.7371011148690483,-0.1464618271649265,-0.11745842795520822,0.8638203770988919,0.8025637177977476,-0.016625934042713064,0.42355251654734416,-0.5121448065920642,-0.7142172664077646,-0.8507763235271506,0.4416096070583666,0.9781569143271505,0.5825532422485544,-0.4602710134757675,0.7280080914394853,-0.6855945193700197,-0.07177129259941561,0.7643205229177443,0.07486469910012339,0.08602960550541905,-0.3933783189442468,0.10280547902006854,0.6865356080556038,0.28056830156402657,-0.37445548301011744,0.648114406607148,0.37508461307200225,0.8846417900560466,-0.15878789017303196,-0.6890431772961854,-0.29830842610631914,-0.14291986537320645,-0.4429863200585933,-0.0324125577334049,0.36027410957326556,-0.14370857934115344,-0.85226992753766,0.5901436630566796,-0.8768228761034027,-0.10901737348056151,0.08324264511738466,0.6476560445935833,-0.22390997481604802,0.4791485541669871,0.9586717525612054,-0.27373646084233494,0.7577224822719402,-0.4654058432588395,0.5298776834919736,-0.9351876624575177,-0.23007681000960267,-0.6761450835088345,-0.9659478232952734,-0.08924281238083798,0.570315577954547,0.7740741790125798,0.5652640302593639,0.9984250959066236,0.4545901085975237,-0.11756316900459285,-0.22757416825899135,0.944894454504946,-0.06936903802751626,-0.6506643330646205,0.9746866564685794,0.8986938245565905,-0.5520128366818038,0.35781063016032166,0.5091496347021629,0.04706229557857333,-0.6336373524434076,-0.5978531716272759,-0.29868303501987703,0.6700624489866358,-0.7485783082539468,0.7903322250352542,-0.8927090914260611,-0.8285364383680762,-0.3428124422584391,-0.13287776852811484,0.890296362609498,0.3361999254193411,0.5432165068590888,-0.5287964994343279,0.8545221936160878,-0.037655107524279696,-0.15941722486866317,0.67947186427549,-0.5398861447271857,0.3330814342031472,0.9349643585180323,0.25181010848914265,0.3025883823782194,0.6324984400153117,0.4979431812747803,-0.3300670414715592,-0.46699462935048386,0.03918811813667,0.46242734362637794,-0.8751281255735672,0.3433457613564246,0.9984233162336935,-0.20034224014300195,0.6146425800821693,0.9206573363059924,0.5075939426298071,0.4838872609705718,0.032479511639364134,-0.5476504760469614,0.7897358691370322,0.9049130518227779,0.6070408434449397,0.909535263258775,0.3203605696487901,-0.23902253954413544,-0.35070667818947276,-0.02764917834498526,-0.21563600241844605,0.4151828153799175,-0.10530312320289315,0.04304775415045081,-0.9899002572047069,-0.7340813186680979,0.28314466020539597,0.26094181217636736,-0.542159429269832,0.13523368629160992,0.6902676835252719,-0.29676259864244803,0.5003614119555153,0.4347209079547585,-0.0771811277731902,-0.638531380175495,-0.9381252263115032,0.6589231796311259,0.12225482543418309,-0.5156977932313469,0.16150258882616075,-0.6622522663020289,-0.6548507689169132,-0.1741572910017839,0.9638992836649409,-0.3495972674468484,-0.06077483745164236,0.7291486767009239,0.43216758073666006,0.4782858460182313,0.5335589230190636,-0.013760144483872638,0.3705169753754125,0.2324046809508713,-0.5147944988701236,-0.9403209439593796,-0.6221241462638343,0.7307923232610363,-0.1305381027962047,-0.12339398579052485,-0.8832434634060542,-0.13816164943652387,0.1562955881401249,0.47294769488600075,0.632819809976114,-0.8010665289138201,0.7289456744226248,0.4410439455022619,-0.36347711212408895,0.061987286620919235,-0.15616910375497306,0.34297328009625194,-0.5863605200722553,0.1130784749719318,-0.9337751577935489,0.40316580865386276,-0.9856584333737435,0.5200045126445398,-0.34760184875388855,0.24754477063636737,-0.5370187150206402,0.9651815605888185,0.6334254031883384,0.5300058972500807,-0.866520820452916,-0.6435540563511553,-0.3594285582516903,-0.5742387769218886,0.3415691298242216,0.7341200531303467,0.32392985752143866,-0.7917650858870875,-0.5437046132736385,-0.00815190577046443,-0.9914375102260979,0.3282821890556944,-0.4611972933983588,-0.9586865996786587,-0.6888868402682953,0.20047578800353683,-0.4655198934661444,-0.4503262458639008,0.5089298314061173,0.03519854730861871,-0.13772393756699675,0.3943813973100794,0.8289976604036422,-0.2528863536104713,-0.8488578421745643,0.3633039315093718,-0.32046460380234754,-0.11011997781269911,0.5093775535362057,-0.35342441762022103,0.08742474710245896,0.8642349898741528,-0.8997679415399447,-0.9288535771886797,0.09667256716607486,-0.9938152621781722,-0.8649465726988808,0.947386439175681,-0.31725900652990635,-0.4602917554343906,0.5851116789775763,0.3527542778084023,0.8679097195024963,0.8174562345958745,0.16005169287682852,-0.07435917811595405,-0.08125363436798039,0.8980743725384845,-0.9797169277196032,0.4921900394876997,-0.8324743014726235,0.36247256137766715,0.4124031202135059,-0.5004387719068479,0.12207717115508787,0.8086620035066896,0.1966913640855894,-0.19045439569568678,0.4465278648125961,-0.6992257698140827,0.6305571709421522,-0.2280579138344092,0.43009900998413775,0.1782983667501301,0.6471765284151842,0.9518797395204754,0.1866127981701564,-0.5729510374970939,-0.5169092589908357,0.809068753909371,-0.39709143485942877,0.7157612196791694,-0.5320373586224738,0.24436974969952852,0.5507959139105927,-0.22237413080383384,0.4078721243953203,-0.0649835663384497,-0.9587714315387863,0.745477885561906,-0.5508676450345651,-0.37098589600224763,0.9145243235406473,0.8263562409027587,0.5446233859887433,-0.5798934024748488,0.40336369009087036,0.3536117510473036,0.7259566458352336,-0.49395717829734065,0.3972467744258865,-0.7148036056307185,-0.9177652845829156,-0.21634143588306198,-0.24219257844955155,-0.03916803999147889,-0.22513532345092901,0.31575684991955577,0.23275164671268334,-0.3186351502889391,0.11373647805130394,-0.46792425709010943,0.6422257599567149,-0.08811972494456644,0.3821074647232132,-0.35672560434093925,0.15338896957754167,-0.5553119494550594,0.7245418247518709,0.9292515108974015,-0.7295468186427891,0.0978189646411487,-0.9796654976314516,-0.2872641557454376,0.1491635634645121,0.9987260301613894,-0.016204522558778578,-0.5208247142719875,0.2633085255037104,0.2973889537941039,0.3290672939062773,0.5607725181272876,-0.6714712260832687,0.10101788048255544,0.37807648834477137,-0.5852182932123244,-0.4095889982336498,0.44593644551813916,0.7450457791032912,-0.5814971601981842,0.4281083164988746,0.8250442186568658,-0.9816847012725094,0.28222058607587885,0.7760302269570014,0.04223740525839115,-0.8793437305410794,-0.09525133257369656,-0.2557881605658143,0.9190268295524933,-0.9882838672211587,0.47528022802102865,0.33156124571758006,-0.1512081967801635,-0.14419481613527574,0.21442120145096033,-0.7503908065090306,0.7616676287293005,-0.2675356939580862,0.292984865786184,-0.25637725792393407
-0.24072370131098997,-0.8157924458932992,0.5228276171940553,-0.149592772393768,-0.8161960457194358,-0.14137650938042945,0.24220454424195292,-0.516077742445067,-0.31544976319732876,-0.3515466507034657,-0.8870512300612603,-0.5929047913379308,-0.9903708758917299,-0.09702840753072384,0.2463855180954746,0.8834590171017995,0.21558565915287886,-0.6211014141968076,-0.05407995050509584,-0.9592934413416373,-0.6271341037317818,-0.5509568420488489,-0.6887250720553411,-0.9950128836287415,-0.9094719849435828,-0.685402777614641,-0.31422151640028806,-0.45062251102154904,-0.8919825696504528,0.5018009246958373,-0.6395083463415705,-0.9468938488593395,-0.5806545279312753,-0.6306891044855009,-0.39543180236353104,0.35058209027198073,-0.4612532603118559,-0.07470705250843179,-0.5532730656231671,-0.16189089142880553,-0.2120578324118827,-0.5017025031477481,-0.1880419771440499,-0.7324168221412151,0.1125028990401642,0.7353460120094897,-0.08415872336757613,-0.09727299218329044,-0.9866878462627027,-0.6476060630529789,-0.5546096161876197,-0.7413786718166665,-0.34492682855950163,-0.008938985819980871,-0.5004528595852727,-0.7500136000515952,-0.4957984089124037,-0.08271928935830597,-0.09891837164742145,-0.18775622175204387,-0.3511922379098983,-0.17637173751163793,-0.9455543159976617,-0.6278034443741958,-0.06570713101178538,-0.6789715988690123,0.06028960161769481,-0.31343740594318636,-0.30557422044415894,-0.2575781417511749,-0.016381001220489244,-0.004146195552133358,-0.6037880036024122,-0.2300632417688122,-0.24451717681449558,-0.5676012895726015,-0.7514366192786384,-0.35067664999830117,-0.41023022374872153,-0.2519956445586937,-0.9313955041203655,-0.6191907893223008,-0.7136032988892589,-0.6304982118985304,-0.7448928755371923,-0.7373173092454806,-0.2777205183247624,-0.5664562309022607,-0.013385764442859993,-0.7721164091493679,-0.8164886159552754,-0.7665593462487555,0.09879664553041034,-0.49183231239064584,-0.632249067471306,-0.32691419193773663,-0.45831326437744413,-0.7372988641557355,-0.7033839199140359,-0.7014546986347345,-0.9801786635404802,0.8550500660343336,-0.8136322556526987,-0.7108167112575745,-0.5922029871302701,-0.8771999767595825,-0.3286166062836897,-0.4507358869324922,-0.8458223716646772,-0.8872293337653876,-0.9830093242033965,-0.14134590731682883,-0.7814739317889665,-0.48561709220394467,-0.05562492077161574,-0.35991394076378436,-0.9591101251097912,-0.430510446403789,0.8824972709336745,-0.6910484864204671,-0.11052162497019402,-0.3152166992106862,-0.9107137763828291,0.033124016453734084,-0.3932414835960707,-0.9634067443344456,-0.3688592188974451,-0.5387494961070862,0.580941737289054,-0.9419951731248725,-0.9602607109764789,-0.15501593621413257,-0.8235298455610908,-0.42923682242432215,-0.2751901953974707
-0.6322023240000245,-0.18426012337639341,-0.3843988373751688,-0.2992753100922866,-0.8597544876890698,-0.5872110379970122,0.9322272047077371,-0.07004396950401182,-0.6488969118460237,-0.7923196647552905,-0.31545459273917453,0.19425856508976858,-0.24163629563031763,-0.296696507432026,-0.0635860606053934,-0.9995587356921222,0.4213931736174008,-0.872215978244523,-0.16352214054055603,-0.323838335016165,-0.3319693227484868,-0.2466683192968655,-0.48426353231095887,-0.49264359574938876,-0.7333073438870689,-0.5950614207905911,-0.006002463904717037
-0.4468418366321274,-0.5625576680343547,0.6126684712549615,0.002953306619172924,-0.7263810571974019,0.2330010662580495,-0.7460248914544176,-0.2220001287959148,0.9356739495206989,-0.7394731267226167,0.16513271077659697,0.913168242789957,0.14788206001218707,0.5296128629204748,-0.3575392119653875,-0.8883589030359136,0.7071991590991988,0.6719875434289564,-0.3970943090015169,-0.8085777476374185,0.3227578691762836,0.5656717866257939,0.5646077122686364,-0.06985459675729255,0.853356443365771,0.9851925885900856,-0.132476579581986,0.12272176661421041,0.4047271753244963,-0.8690833664424635,-0.664180576787589,0.9007855194148413,0.7962697141150978,0.9354026146725194,0.8182490948917334,-0.1396557319598497,0.2822310394943992,-0.44651443090951615,0.9255413564996633,0.2620643559185041,0.8832309526337092,0.9896267882552601,0.3312712463055758,0.25979326709182815,-0.1464618271649265,-0.11745842795520822,0.8638203770988919,0.8025637177977476,-0.016625934042713064,0.6688786133446303,-0.5121448065920642,-0.7142172664077646,0.05194221796378984,0.4416096070583666,0.9781569143271505,0.5825532422485544,-0.4602710134757675,0.014055970451394284,0.9273046674555843,-0.23957962979656866,-0.20442182058561054,0.07486469910012339,0.08602960550541905,-0.3933783189442468,0.10280547902006854,-0.6641789216157845,0.28056830156402657,-0.14105048626547956,-0.9648252295592927,-0.8789473493318662,0.8846001381669739,-0.22122442490874583,0.4691890761065234,-0.29830842610631914,-0.590440222495989,0.20377262577272615,-0.0324125577334049,0.11017765300618532,-0.14370857934115344,-0.85226992753766,0.5901436630566796,-0.8768228761034027,-0.10901737348056151,0.08324264511738466,0.6476560445935833,0.9821987904225509,-0.169668525074665,-0.8911257473252674,-0.05153767817423094,0.8521523593493487,0.5055060629977994,-0.292893107762612,-0.9351876624575177,-0.7312632056264148,-0.6761450835088345,-0.9659478232952734,-0.08924281238083798,0.570315577954547,0.004148705881934056,-0.6630577001909119,0.9984250959066236,-0.10701259950985031,0.10452570244269799,-0.22757416825899135,0.944894454504946,-0.06936903802751626,0.6761062674505425,0.10620549938545887,0.8558576857778895,0.9692552949696669,0.35781063016032166,0.5106290399954401,0.04706229557857333,-0.6336373524434076,-0.9164055655455834,-0.29868303501987703,0.6700624489866358,-0.7485783082539468,0.663047429202007,0.5534433208812795,-0.97545266682268,0.7639775382785019,0.8524409204834369,0.8571894975467764,0.3361999254193411,0.5432165068590888,-0.5287964994343279,0.8545221936160878,-0.037655107524279696,-0.15941722486866317,0.67947186427549,-0.8058343841732525,0.3330814342031472,0.9349643585180323,0.25181010848914265,0.4604104537468463,-0.7439415746588698,0.13801669597686184,-0.3300670414715592,-0.46699462935048386,0.03918811813667,0.46242734362637794,-0.8751281255735672,0.139978643600974,0.9984233162336935,-0.8134977296298593,-0.8143088901783471,0.9206573363059924,0.5075939426298071,0.4838872609705718,-0.9090026505250246,-0.5476504760469614,0.7897358691370322,0.9049130518227779,0.6070408434449397,0.9851250684382038,0.3203605696487901,-0.23902253954413544,0.2468478625962196,-0.7935878609828058,-0.21563600241844605,0.4151828153799175,-0.10530312320289315,0.04304775415045081,-0.9899002572047069,-0.23288484940443044,0.28314466020539597,-0.4397891894048038,-0.256040987067367,0.13523368629160992,0.33196817700196,-0.3786566927501738,-0.5015327306466848,-0.2100399722602786,-0.8960539989773346,-0.8898381384275058,-0.9381252263115032,0.6589231796311259,0.12225482543418309,-0.5156977932313469,0.16150258882616075,-0.6622522663020289,0.9488725658697372,-0.6566281934456981,-0.5768137634267227,-0.3495972674468484,0.8786127435023949,0.7291486767009239,0.43216758073666006,0.4782858460182313,0.5335589230190636,-0.013760144483872638,-0.5443051146148374,0.2324046809508713,0.5891655281674311,0.17836482274224696,0.9941375900931015,-0.03174198026754804,-0.1305381027962047,0.8743405533580608,-0.8832434634060542,-0.13816164943652387,-0.11389134203076656,0.47294769488600075,0.632819809976114,-0.8628694814498723,0.7289456744226248,-0.26890838483190205,-0.36347711212408895,-0.3283360066218868,-0.15616910375497306,0.23106510069106156,-0.5863605200722553,0.1130784749719318,-0.9337751577935489,0.40316580865386276,0.6310929441331532,-0.10542234312349419,-0.4051610324990007,0.24754477063636737,-0.5370187150206402,0.9651815605888185,0.6334254031883384,-0.42575672300854683,0.8452824258295029,-0.28895579787696124,-0.3594285582516903,0.5211568737512433,-0.01945788573676488,-0.9819809574375389,0.32392985752143866,-0.7917650858870875,-0.015885560303749102,-0.4981468043131909,-0.9914375102260979,0.3282821890556944,-0.4611972933983588,-0.10711530204183073,-0.6888868402682953,0.20047578800353683,-0.029682655684845516,-0.4503262458639008,0.5089298314061173,0.5443877599180003,-0.13772393756699675,0.3943813973100794,-0.15393474045805355,-0.2528863536104713,0.6761155390034768,0.3633039315093718,-0.32046460380234754,-0.6435964154876916,0.5093775535362057,-0.35342441762022103,-0.7402948235039475,0.2547176485779641,-0.7725035378786678,-0.5420938513524454,0.09667256716607486,-0.9938152621781722,-0.8649465726988808,0.947386439175681,-0.31725900652990635,-0.4602917554343906,0.5851116789775763,0.3527542778084023,0.8679097195024963,-0.5585725467262139,0.4129014264098654,-0.07435917811595405,-0.08125363436798039,0.8980743725384845,-0.9797169277196032,-0.33973502145051837,-0.8324743014726235,0.9502331348978408,-0.4312085102277048,-0.5004387719068479,0.12207717115508787,0.8086620035066896,-0.23955584232009453,-0.6551611000371442,0.4465278648125961,-0.6992257698140827,-0.5714486165996446,-0.8163992185494002,0.43009900998413775,0.1782983667501301,0.6471765284151842,0.9518797395204754,0.1866127981701564,0.5323290110944285,-0.04341025598144266,-0.8885568086506621,0.12019760480860797,-0.25365836556539745,-0.3136278590836643,0.37639585236195705,-0.5744254996026954,0.8299735959719616,0.4078721243953203,-0.7091228798309688,-0.9587714315387863,0.745477885561906,-0.9419567110269336,-0.37098589600224763,0.9145243235406473,0.8263562409027587,0.5446233859887433,-0.5798934024748488,0.40336369009087036,0.3536117510473036,0.7259566458352336,-0.3935342043798469,0.548711429349128,-0.7148036056307185,-0.9177652845829156,-0.21634143588306198,0.38444103734206636,-0.03916803999147889,-0.22513532345092901,-0.2565033036896285,-0.07528932968662816,-0.7822506833361056,0.18342453992065355,-0.46792425709010943,0.6422257599567149,-0.5676109537338414,0.47727027631562136,-0.35672560434093925,0.15338896957754167,0.27489800567657285,-0.44273268803759325,0.35819074078780866,-0.7295468186427891,0.0978189646411487,-0.9679448987710795,0.01448178508617115,0.1491635634645121,-0.58051072169536,0.11161605603221947,-0.5208247142719875,0.2633085255037104,0.2973889537941039,0.21253907891939838,0.5607725181272876,-0.7657059548336147,0.10101788048255544,-0.19106982954960716,-0.49724033652629474,-0.4095889982336498,-0.5650016087849528,-0.44387991578544606,-0.06387063716323049,0.4281083164988746,0.8250442186568658,-0.9816847012725094,-0.6244571311572382,0.7760302269570014,0.12807619396278702,-0.8793437305410794,-0.09525133257369656,0.7093061142875932,0.4617799275377059,-0.9882838672211587,0.47528022802102865,0.33156124571758006,-0.1512081967801635,-0.14419481613527574,-0.38401174549219186,-0.7503908065090306,0.7616676287293005,-0.4524103511152515,-0.3706303292688877,-0.25637725792393407
-0.24072370131098997,-0.8157924458932992,0.5228276171940553,-0.149592772393768,-0.400055760362516,-0.1824852866781721,-0.04241744246154233,-0.516077742445067,-0.31544976319732876,-0.4359204962065645,0.5201198826304647,-0.5929047913379308,-0.26376943320111057,-0.95972347513377,0.2463855180954746,0.8834590171017995,-0.3079970111093494,-0.6211014141968076,-0.2062907993010935,-0.9592934413416373,0.7918109926058439,-0.5509568420488489,-0.9616090266934829,-0.9950128836287415,-0.34231497262373256,-0.6524795674308024,-0.3672375827739788,-0.005154208429143714,-0.5610561749720451,-0.4195602883987757,-0.0619278378538024,-0.9468938488593395,-0.5806545279312753,-0.6306891044855009,-0.39543180236353104,-0.44476628834638865,-0.4612532603118559,-0.5521043749382573,-0.5532730656231671,-0.11770684837647782,-0.2120578324118827,-0.024017199546591095,-0.44975453490524764,0.9530237513699744,-0.3708850009853,0.7353460120094897,-0.08415872336757613,-0.09727299218329044,-0.3334876357712341,-0.6476060630529789,-0.5546096161876197,-0.7413786718166665,-0.6147917827547714,-0.008938985819980871,-0.5004528595852727,-0.7500136000515952,-0.4957984089124037,-0.08271928935830597,-0.5844327177451641,-0.18775622175204387,-0.3511922379098983,-0.17637173751163793,-0.9455543159976617,-0.6278034443741958,-0.06570713101178538,-0.6789715988690123,-0.9638743511300472,-0.31343740594318636,-0.9392513828010896,-0.2575781417511749,-0.016381001220489244,-0.8898109410477769,-0.6037880036024122,-0.2300632417688122,-0.24451717681449558,-0.3884184269304156,-0.011386272211445392,-0.35067664999830117,-0.44231519187966084,-0.2519956445586937,-0.6199903395869197,-0.16191559233404407,-0.7136032988892589,-0.41636925149230497,0.8522769157521337,-0.5236052862457363,-0.1326059634066622,-0.2192716271772045,-0.11455660740841056,-0.13753189379295971,-0.7655647291716695,-0.5926830989458416,-0.06996430248638952,-0.5418315033300354,-0.7011574491516841,-0.32691419193773663,-0.1355102474732952,0.39529696390590296,-0.4189882356749193,-0.2250241749283357,-0.9801786635404802,-0.1501205158354052,-0.8136322556526987,-0.8984086155651034,-0.46151461232274615,-0.8925975940276716,-0.3286166062836897,-0.6747516478167069,-0.8458223716646772,-0.031179309105880848,-0.41338152962446173,-0.14134590731682883,-0.7814739317889665,-0.48561709220394467,-0.48245838497572047,0.153442547771657,-0.9591101251097912,-0.430510446403789,-0.5637750375524755,-0.7897307047292105,-0.42231821292939364,-0.3152166992106862,-0.3339659559130673,-0.506203366911574,-0.3932414835960707,-0.5089705132894043,0.15715512244248298,-0.6065689522939326,-0.032505418353565574,-0.44156723859049063,-0.9602607109764789,-0.15501593621413257,-0.9265492421605421,-0.6834900059983973,-0.09408554699996252
-0.2363429350462235,-0.587088838960699,-0.3843988373751688,-0.492984067286384,-0.18383962305130142,-0.5872110379970122,-0.22122102560700974,-0.07004396950401182,-0.6488969118460237,-0.8942721040782657,-0.31545459273917453,-0.5965204590905824,-0.018784031198220696,-0.296696507432026,-0.32837402801015836,-0.9995587356921222,-0.3653526846259787,-0.34124519220104,-0.4419292417865871,-0.323838335016165,-0.3319693227484868,-0.2466683192968655,-0.48426353231095887,-0.49264359574938876,-0.7333073438870689,-0.5950614207905911,-0.006002463904717037
-0.4468418366321274,-0.5625576680343547,0.6126684712549615,0.002953306619172924,0.5797912262464033,-0.2996102456757308,-0.7460248914544176,-0.2220001287959148,0.9356739495206989,-0.7394731267226167,0.8983174126130447,-0.48698748444479545,-0.6741131662365798,-0.2623168754922107,0.31962866223335884,0.9504820524638298,-0.3347966540761409,0.9712011795813682,-0.5197406045148596,0.1697970293059472,0.3227578691762836,0.5656717866257939,0.5735149611172679,-0.5189868054308429,-0.03901055793130137,0.23949769314928648,-0.5328291465947015,0.12272176661421041,-0.07495532847106623,-0.8690833664424635,-0.664180576787589,0.9007855194148413,0.2098814672847269,0.9354026146725194,0.8182490948917334,-0.1396557319598497,-0.6570220015621477,-0.8022000789515886,0.9255413564996633,0.10702665846177473,0.8832309526337092,-0.8080295726235196,0.7902738477563851,0.7371011148690483,-0.1464618271649265,-0.11745842795520822,0.8638203770988919,0.8025637177977476,-0.016625934042713064,0.42355251654734416,-0.5121448065920642,-0.7142172664077646,-0.8507763235271506,0.6602338565876529,-0.5474984940356462,0.5825532422485544,-0.6554363674007795,0.014055970451394284,-0.9149276283676901,-0.07177129259941561,-0.20442182058561054,-0.5718783680291564,0.13278721434908003,-0.3933783189442468,0.10280547902006854,-0.6641789216157845,0.28056830156402657,-0.14105048626547956,0.4842242427185899,0.37508461307200225,0.9259183698347728,-0.22122442490874583,0.9916909554025872,-0.29830842610631914,-0.14291986537320645,-0.4429863200585933,-0.09834408293020158,0.36027410957326556,-0.14370857934115344,-0.06514391870231617,-0.5938913777649291,-0.8768228761034027,-0.10901737348056151,0.08324264511738466,0.6476560445935833,-0.22390997481604802,0.4791485541669871,-0.5943303386973195,-0.27373646084233494,0.4387246019443978,0.5055060629977994,-0.292893107762612,-0.9351876624575177,-0.7312632056264148,-0.16460627295062902,-0.19846335053985764,-0.08924281238083798,0.570315577954547,0.004148705881934056,0.5652640302593639,0.9984250959066236,0.6288210212146699,-0.11756316900459285,0.3873943476488313,0.10698579073416337,-0.06936903802751626,0.5297610743298007,0.9746866564685794,0.8986938245565905,0.9692552949696669,0.35781063016032166,0.5106290399954401,0.04706229557857333,-0.01914534467400708,-0.5978531716272759,-0.29868303501987703,-0.20279894297293222,-0.7485783082539468,0.663047429202007,0.5534433208812795,-0.20332481025979687,-0.268385819742498,-0.13287776852811484,0.8571894975467764,0.9503202453115545,0.5432165068590888,-0.30466812256436104,0.8545221936160878,-0.037655107524279696,-0.15941722486866317,0.67947186427549,-0.8058343841732525,0.3330814342031472,0.6409610478334953,-0.8631803545526411,0.3025883823782194,0.6324984400153117,0.4979431812747803,-0.3300670414715592,-0.46699462935048386,-0.7016944989913048,-0.12270094629691153,-0.8751281255735672,0.3433457613564246,0.9984233162336935,0.3126873839643185,0.6146425800821693,0.9206573363059924,0.5075939426298071,0.4838872609705718,-0.9090026505250246,0.07838836254301085,0.7958309528434384,0.9049130518227779,0.6070408434449397,0.909535263258775,0.3203605696487901,0.46039772196494555,0.2468478625962196,-0.02764917834498526,-0.21563600241844605,-0.5386551624339766,-0.10530312320289315,0.04304775415045081,0.4278129316108703,-0.7340813186680979,0.28314466020539597,-0.4397891894048038,0.5860875556825484,0.13523368629160992,0.08805224091836084,-0.29676259864244803,0.5003614119555153,0.4347209079547585,-0.0771811277731902,-0.638531380175495,-0.9381252263115032,0.6589231796311259,0.12225482543418309,-0.5156977932313469,0.9230194944255632,-0.6622522663020289,-0.04594341450397876,-0.6566281934456981,-0.5768137634267227,0.08208607929815281,0.08944306303797989,0.7291486767009239,0.23291733836473916,-0.6062036599340412,-0.20060483131105578,-0.013760144483872638,0.3705169753754125,0.2324046809508713,0.5891655281674311,0.17836482274224696,0.9941375900931015,0.7307923232610363,0.36791173998442206,0.6823754417250207,-0.8832434634060542,-0.6441308576700953,0.1562955881401249,-0.7565128493332354,-0.9611595596862443,-0.8628694814498723,0.7289456744226248,0.8128326066737768,-0.36347711212408895,0.061987286620919235,-0.15616910375497306,0.34297328009625194,0.2434592379697409,0.1130784749719318,-0.9337751577935489,0.40316580865386276,0.6310929441331532,-0.10542234312349419,-0.34760184875388855,0.24754477063636737,-0.5370187150206402,0.9651815605888185,0.6334254031883384,-0.42575672300854683,0.8452824258295029,-0.6435540563511553,-0.3594285582516903,-0.5742387769218886,0.3415691298242216,-0.9819809574375389,0.32392985752143866,-0.7917650858870875,-0.5437046132736385,-0.00815190577046443,-0.9914375102260979,0.3282821890556944,-0.4611972933983588,-0.10711530204183073,0.7680035124223559,0.20047578800353683,-0.9506600136774976,-0.4503262458639008,0.5089298314061173,0.03519854730861871,-0.13772393756699675,0.3943813973100794,-0.7888108333258528,-0.007830809827209517,0.6761155390034768,-0.0032461014517128906,0.052756287814182956,-0.6435964154876916,0.5093775535362057,-0.35342441762022103,0.9046030404389347,0.8642349898741528,-0.8997679415399447,-0.5420938513524454,0.09667256716607486,-0.9938152621781722,-0.7718242899330059,0.12435643451499634,-0.31725900652990635,-0.4602917554343906,0.5851116789775763,-0.3538192387056778,0.8679097195024963,-0.5585725467262139,0.16005169287682852,-0.07435917811595405,-0.08125363436798039,0.8980743725384845,-0.1405929306791469,-0.9367592188773479,-0.8324743014726235,0.36247256137766715,0.4124031202135059,-0.5004387719068479,-0.10014606239041712,-0.14014806720221196,0.1966913640855894,-0.19045439569568678,-0.5149867027665507,-0.6992257698140827,-0.5714486165996446,-0.21507106004774923,0.43009900998413775,0.1782983667501301,0.6471765284151842,0.9518797395204754,0.1866127981701564,-0.3667049622260594,0.8455091537708468,-0.8885568086506621,0.12019760480860797,-0.25365836556539745,-0.3136278590836643,0.37639585236195705,0.5290193876577702,0.8299735959719616,-0.6391260179601026,0.6710115277699487,-0.9587714315387863,0.745477885561906,-0.19744272396807117,0.5881024412455838,0.9145243235406473,0.8263562409027587,0.5446233859887433,-0.5798934024748488,0.40336369009087036,0.3536117510473036,0.7259566458352336,0.05022953305996869,0.548711429349128,-0.7148036056307185,0.6871643020396767,-0.3567679840613389,0.38444103734206636,0.37053581439456473,-0.22513532345092901,0.31575684991955577,0.23275164671268334,0.5154203029503841,0.9853157151987577,0.04660785642060228,0.6422257599567149,-0.5676109537338414,0.47727027631562136,-0.35672560434093925,-0.28827216602749384,0.27489800567657285,0.5137088679663486,-0.9324203184411872,-0.6571626716875503,0.0978189646411487,-0.9679448987710795,0.01448178508617115,0.1491635634645121,-0.58051072169536,0.7385570633695873,-0.9334598547886048,-0.012061677194255438,-0.4092321405485613,0.21253907891939838,-0.23571914496099944,-0.7657059548336147,0.10101788048255544,0.37807648834477137,-0.5852182932123244,0.5036443493081895,0.44593644551813916,0.7450457791032912,-0.5814971601981842,0.4281083164988746,0.355364521427312,-0.8974443280514142,-0.6244571311572382,0.8542515870946206,0.12807619396278702,-0.8793437305410794,-0.09525133257369656,0.7093061142875932,0.9190268295524933,-0.4570591399550321,0.47528022802102865,-0.8124070096200129,-0.1512081967801635,-0.14419481613527574,-0.38401174549219186,-0.7503908065090306,0.7616676287293005,-0.24770325448622632,0.292984865786184,-0.25637725792393407
-0.24072370131098997,-0.8157924458932992,-0.982218339678668,-0.14597428587122097,-0.4731013387581089,-0.14137650938042945,-0.8494328252878308,-0.516077742445067,-0.8204847847074414,-0.3515466507034657,0.5201198826304647,-0.5929047913379308,-0.3879129056323305,-0.09702840753072384,-0.8332718200567119,0.8834590171017995,-0.3079970111093494,-0.39395493798819115,-0.2062907993010935,-0.9592934413416373,-0.6271341037317818,-0.5284774667122977,-0.9616090266934829,-0.44317902682153887,-0.9094719849435828,-0.852540664151804,-0.3672375827739788,0.030926387832673985,-0.004014851342288073,-0.6298024602816772,-0.6395083463415705,-0.5703224382048823,-0.5806545279312753,-0.6306891044855009,-0.39543180236353104,-0.34450569014124044,0.19152927167163902,-0.4851647578512892,-0.5434842364897498,-0.5766951627322775,-0.2120578324118827,-0.5017025031477481,-0.1880419771440499,-0.819595015581816,-0.3708850009853,0.7353460120094897,-0.5795778019783389,-0.09727299218329044,-0.3334876357712341,-0.31762681363027856,-0.5546096161876197,-0.76550401956424,-0.34492682855950163,-0.008938985819980871,-0.5004528595852727,-0.7500136000515952,-0.24638261534829609,-0.08271928935830597,-0.2982660409580774,-0.18775622175204387,-0.33334002957483744,-0.17637173751163793,-0.8447538735297805,-0.6278034443741958,-0.06570713101178538,-0.14348393806667592,-0.0945279017628573,-0.5437323706968294,0.6671103002240562,-0.27723171503649957,-0.5666067196092412,-0.6895792440128138,-0.6037880036024122,-0.2300632417688122,-0.24451717681449558,-0.37401222678236945,0.9178448797635477,-0.35067664999830117,-0.3841068293807226,-0.2519956445586937,-0.14255614179242881,-0.12048871671556416,-0.9556926595347027,-0.41636925149230497,0.8522769157521337,-0.7373173092454806,-0.07447297882061377,-0.5664562309022607,-0.11455660740841056,-0.13753189379295971,-0.7655647291716695,-0.5926830989458416,-0.06996430248638952,-0.2777838402324774,-0.632249067471306,-0.32691419193773663,-0.1355102474732952,-0.7372988641557355,-0.4189882356749193,-0.7014546986347345,-0.9801786635404802,0.8550500660343336,-0.8136322556526987,-0.3047790283130134,-0.46151461232274615,-0.8925975940276716,-0.3286166062836897,-0.6747516478167069,-0.8458223716646772,-0.8872293337653876,0.3991840183542448,-0.40744334581182406,-0.9576378302897908,-0.48561709220394467,-0.1986518791671832,-0.35991394076378436,-0.9591101251097912,-0.430510446403789,-0.5637750375524755,-0.6910484864204671,-0.3236215429481637,-0.3152166992106862,-0.10162669958425452,-0.6214597203504785,-0.3932414835960707,-0.8439614981910821,-0.3688592188974451,-0.6065689522939326,-0.4749188320055715,-0.9419951731248725,-0.25046712903253265,-0.15501593621413257,-0.23620105981552497,-0.42923682242432215,-0.09408554699996252
-0.039942121759111604,-0.8250106580031621,-0.3843988373751688,-0.2229824691262563,-0.8597544876890698,-0.3962815214868519,0.9322272047077371,-0.1464906783780261,-0.8960006949066418,-0.7923196647552905,-0.31545459273917453,-0.5965204590905824,-0.24163629563031763,-0.296696507432026,-0.3378686415575115,-0.9995587356921222,-0.11233101230012255,-0.34124519220104,-0.9998891119723521,-0.6206584320672367,-0.47641009772421716,-0.2466683192968655,-0.48426353231095887,-0.49264359574938876,-0.8364294830790128,-0.6004633889546016,-0.006002463904717037
